721 100
a 0.124722 -0.253714 0.288594 -0.086933 0.395457 -0.002695 -0.191515 -0.188049 -0.230164 -0.000229 0.320153 -0.172093 0.024501 -0.195822 -0.353977 -0.222997 0.502481 0.5256 -0.006741 0.370885 0.107482 0.364006 0.302715 -0.474844 0.029849 -0.278149 -0.111824 0.33868 -0.170843 0.050143 -0.213096 0.011415 -0.448091 0.476869 -0.271355 0.040444 0.255024 -0.113249 -0.049421 0.158128 -0.311536 0.144958 -0.419831 -0.029855 -0.120394 0.40591 0.526441 -0.224795 -0.124436 -0.169059 -0.006827 0.137938 -0.22745 0.271422 -0.296443 0.318369 0.404352 -0.127548 -0.049913 -0.28784 -0.073904 -0.04397 -0.191822 -0.274386 0.038527 0.0244 -0.013766 -0.033343 -0.18443 0.077139 -0.130915 -0.041986 0.173335 -0.000168 -0.114695 0.021313 -0.111972 0.060047 0.088515 0.109064 -0.060931 0.02295 0.26092 0.208235 0.070647 0.273027 0.132511 0.060593 0.493924 -0.091574 0.139254 0.154233 0.127228 0.253722 -0.059145 0.044826 0.074059 -0.177663 0.176156 0.08992
b -0.063202 0.249352 0.139236 -0.335879 0.73384 -0.082379 0.094592 0.212637 -0.078242 -0.014082 -0.080308 0.194107 -0.0193 0.3582 -0.199727 0.442051 0.067137 0.187715 -0.121439 0.290825 0.168525 0.059654 0.51932 0.104058 0.06055 0.105667 -0.120839 -0.158697 0.343488 0.086639 0.267252 0.020669 -0.34816 -0.181916 0.198513 -0.209585 0.119921 -0.205987 0.446262 -0.036183 -0.221301 0.505125 -0.027787 0.292147 0.017118 0.082263 -0.220708 -0.110158 -0.321465 0.298104 -0.087048 -0.06482 -0.374992 -0.499078 0.315136 0.210153 0.339438 -0.227091 -0.453174 -0.235919 -0.428889 0.109376 0.293051 -0.239714 0.071025 -0.238273 0.284699 0.127883 0.026599 0.307017 0.17406 -0.121199 0.051092 0.036956 -0.152502 -0.483183 -0.209542 0.33457 -0.118638 0.099145 -0.038431 0.183544 -0.048102 0.304481 -0.055301 0.457689 -0.228274 -0.029264 0.885226 -0.313075 -0.030338 0.285209 0.115738 -0.034399 0.124389 0.462691 -0.08318 0.069968 0.219791 0.018321
c -0.000495 -0.075837 0.232714 -0.197675 0.657171 -0.192393 0.17398 0.024693 -0.061047 -0.119326 0.02716 0.244718 0.350966 0.227876 -0.211999 0.281265 0.20802 0.049939 -0.188002 0.627238 0.207801 0.097787 0.37273 0.235898 0.044571 0.029612 -0.271029 -0.030772 0.335687 0.139947 0.214168 -0.045036 -0.302077 -0.125943 0.34148 -0.064052 -0.058337 -0.008343 0.346364 -0.150903 -0.152359 0.32738 -0.078246 0.427017 0.083171 0.062573 -0.474229 -0.006042 0.162448 0.30198 -0.316814 -0.019653 -0.129493 -0.479859 0.038577 -0.036409 0.450885 0.091509 -0.437323 -0.342974 -0.117256 0.351861 0.097099 -0.339268 -0.077215 -0.004306 0.323623 0.259575 -0.307044 0.14384 0.200729 0.088728 0.337397 0.015079 -0.132886 -0.390302 -0.360095 0.487476 -0.24562 -0.217478 0.082733 0.143049 -0.112377 0.449479 0.052016 0.17798 -0.292244 -0.349419 0.921585 -0.237535 -0.051816 0.220629 0.098129 -0.152969 0.33299 -0.072436 -0.013438 0.285436 0.152232 -0.129035
d 0.08283 -0.039566 0.217169 0.150705 0.36972 -0.268758 0.259129 -0.133008 -0.18977 0.009878 -0.08564 0.471857 0.003322 0.082994 -0.074624 0.586499 -0.308371 0.207538 -0.258433 0.370224 0.111612 0.12769 0.57779 -0.032928 0.099648 0.047079 -0.144843 -0.156971 0.301843 0.196636 -0.068965 -0.023043 -0.565577 0.001954 0.431582 -0.194704 -0.213352 -0.022337 0.321434 0.233135 0.043959 0.489503 0.08124 0.175111 -0.018425 0.223959 -0.402376 -0.066314 -0.119139 0.174898 -0.415229 -0.0109 -0.179038 -0.308811 0.146275 -0.066015 0.422479 0.224554 -0.42705 -0.302938 -0.302936 0.321656 0.262087 -0.303086 -0.095946 -0.21698 0.291213 -0.159891 -0.138387 -0.006679 0.430425 -0.064273 0.09621 -0.000913 -0.186227 -0.259887 -0.259226 0.505193 -0.115033 -0.103732 0.000229 0.100688 0.096138 0.277702 0.141588 0.324366 0.012653 -0.250664 1.004251 0.056796 -0.334186 0.437722 -0.038205 0.122603 0.1443 0.428907 -0.07846 -0.049033 0.076739 0.247743
e 0.037522 0.043435 0.149411 -0.292264 0.35505 -0.08602 0.13747 0.328147 -0.208773 -0.266012 0.036808 0.313786 0.07001 0.119729 -0.377977 0.472258 0.103026 0.513482 -0.457272 0.400314 -0.226065 0.073469 0.076701 -0.085592 -0.23963 0.272181 -0.316338 -0.044474 0.214324 0.116292 0.346186 -0.250689 -0.302167 -0.327434 0.420872 -0.283546 -0.124931 0.106778 0.220613 -0.07507 -0.114904 0.621105 0.109318 0.370161 0.22865 0.365883 -0.317417 0.187153 -0.06232 0.181174 -0.509463 -0.143783 -0.151437 -0.335533 0.093784 -0.126621 0.466963 0.270562 -0.260968 0.073656 -0.014645 0.047248 0.364122 -0.513954 -0.129183 -0.022036 0.420388 -0.227109 -0.539308 -0.179631 0.161433 -0.217148 0.109133 -0.237277 -0.003757 -0.74796 -0.782504 0.773213 -0.002545 0.140198 0.07039 0.213664 -0.021029 0.246611 0.127541 0.239106 -0.138111 -0.510679 0.735747 0.040632 -0.219692 0.544208 -0.210374 0.112183 0.017252 0.498153 -0.075965 0.396066 0.112787 0.000741
f -0.051721 0.115288 0.425321 -0.529655 0.657093 -0.030576 0.152729 0.114441 -0.076737 -0.265983 0.038573 0.246479 0.246996 0.221095 -0.142141 0.459229 0.060038 -0.226981 -0.153716 0.415148 -0.036086 0.050177 0.336506 0.198177 -0.40334 0.102988 -0.051304 -0.257254 0.389805 0.052835 0.171382 0.090131 -0.4582 -0.217369 0.398765 -0.428444 -0.05327 -0.135629 0.290583 0.150904 0.113787 0.294787 -0.22476 -0.036982 -0.109573 0.443943 -0.293661 0.127289 -0.134145 0.460614 -0.240426 0.100932 -0.152064 -0.484703 -0.043971 -0.038369 0.524753 0.001255 -0.398253 -0.434564 -0.276864 0.593457 0.219061 -0.40233 -0.092049 0.028909 0.17971 -0.03485 -0.268125 0.26813 0.211667 0.010622 0.402383 -0.181674 -0.182967 -0.554315 -0.244203 0.43563 -0.302404 -0.26591 -0.223481 0.268875 -0.053406 0.513067 0.309486 0.388533 -0.08902 -0.290288 0.818132 -0.256726 0.06437 0.25955 0.123877 -0.184946 -0.00451 0.189953 -0.015053 0.147213 0.070229 0.145025
g -0.130297 0.196299 0.43861 -0.372996 0.477361 -0.005684 0.271789 0.111335 -0.079012 0.095977 0.209024 0.325195 0.3516 -0.050012 -0.216785 0.211831 0.219022 0.103824 -0.247932 0.236323 0.260681 0.106805 0.677841 0.181175 -0.301788 0.038675 -0.393056 -0.090419 0.350541 0.071003 0.068151 0.129097 -0.300314 -0.094109 0.358587 -0.110574 -0.352143 -0.140104 0.361021 0.063393 0.041667 0.476767 -0.126437 0.276472 0.062608 0.255193 -0.507691 0.073243 -0.077233 0.2399 -0.554763 -0.029141 -0.230334 -0.443241 -0.151637 -0.11229 0.636 0.242742 -0.472309 -0.41926 -0.067655 0.112644 0.242472 -0.603068 -0.158573 -0.121313 0.384366 0.148178 -0.184259 0.047831 0.526694 0.218931 0.109326 -0.199809 -0.434217 -0.392142 -0.599404 0.493583 -0.183595 0.17825 0.127883 0.282462 0.052451 0.20851 0.015879 0.183277 0.020012 -0.534597 0.755795 -0.268122 -0.099352 0.155116 -0.000453 -0.069176 0.073851 0.22666 -0.184686 0.357993 -0.237419 -0.084462
h 0.154552 0.389997 0.233522 -0.458326 0.608534 -0.096072 0.270908 -0.014792 0.072817 0.087669 0.366378 0.396724 0.097049 0.069697 -0.213967 0.303769 0.175388 0.083946 -0.360715 0.422731 -0.253771 0.269239 0.620822 0.072565 -0.138127 0.064157 -0.429098 0.070272 0.275363 0.086325 0.210376 0.191164 -0.324858 -0.064167 0.298607 -0.195916 -0.119249 -0.048858 0.283289 0.322656 -0.088664 0.404077 -0.101439 -0.076424 0.145846 0.421758 -0.33592 0.307348 -0.439272 -0.020581 -0.426732 -0.000338 0.110718 -0.282169 0.135876 0.163425 0.553919 0.158355 -0.345442 0.051059 -0.129215 0.209845 0.219934 -0.25578 -0.049916 -0.122363 0.475443 0.077956 -0.017033 0.135173 0.529525 0.051244 0.337893 0.116085 -0.458095 -0.368582 -0.13149 0.265924 -0.118996 0.156587 0.060908 0.456196 0.31319 0.424069 0.015851 0.460104 -0.066983 -0.562286 0.724491 -0.102697 -0.303063 0.173541 0.0073 -0.072583 0.347873 0.320243 -0.045248 0.308102 0.13165 0.313157
i 0.342646 0.057677 0.143244 -0.464352 0.233713 -0.308506 0.066462 -0.348036 0.298951 0.361289 -0.14727 0.502373 0.277486 0.399235 -0.090296 0.441154 0.228387 0.248074 0.133495 0.297991 0.216865 0.106718 -0.36284 -0.712249 -0.123415 -0.016303 -0.035776 -0.37227 0.1253 0.079849 -0.204326 0.091829 -0.193901 0.166729 -0.156868 -0.128699 0.086192 -0.006307 0.052609 -0.331948 -0.059798 -0.009533 -0.174509 0.057048 0.06186 0.478577 0.217334 0.06157 -0.140354 0.303486 -0.092714 -0.596469 -0.132788 0.13608 -0.363305 0.078307 0.247823 -0.064118 -0.1071 0.037902 -0.152804 -0.250827 -0.626714 0.051925 -0.118149 0.03284 0.280331 0.371999 0.158893 0.017888 0.031942 0.115191 0.04824 -0.493699 0.246565 0.069367 -0.555494 0.327496 0.276469 -0.033059 0.158782 0.524047 0.029278 0.21505 0.018392 -0.142088 -0.092548 0.003396 0.521614 0.223586 0.012976 0.532727 0.199379 0.23419 0.283417 -0.448026 -0.145218 -0.01364 -0.255976 -0.010529
j -0.036231 0.096113 0.158572 -0.635889 0.789277 -0.047941 0.564974 0.091855 0.165394 0.113905 0.190561 0.587929 0.32658 0.279363 -0.173493 0.529318 -0.170399 0.238728 -0.518998 0.516727 -0.462333 0.013655 0.329686 -0.00496 0.024789 0.368252 -0.301714 0.172257 0.217678 0.011359 0.195508 0.138838 -0.214106 -0.079111 0.343 -0.210147 -0.173885 -0.143436 -0.168898 0.142305 -0.064683 0.58451 0.027866 0.178082 0.337569 0.494666 -0.605826 0.021901 -0.614801 0.316608 -0.034906 -0.179574 -0.264655 -0.15011 0.081213 -0.015048 0.341951 0.03252 -0.663853 -0.304982 -0.152779 0.305857 0.132716 -0.359467 0.085445 -0.150994 0.647711 0.065622 -0.414809 0.227735 0.230296 -0.036359 0.433367 0.214845 -0.553181 -0.154772 -0.157401 0.080229 -0.643792 0.361137 0.069881 0.320188 0.266279 0.376089 -0.185465 0.419632 -0.176514 -0.436946 0.571883 -0.467645 -0.454417 0.299747 0.109149 0.037254 0.044383 0.200049 -0.08631 0.264895 -0.267578 0.028879
k -0.052898 0.029117 0.597224 -0.656239 0.181782 0.290694 0.059553 0.33534 -0.132076 0.700258 0.203352 -0.093489 -0.178408 -0.168136 0.026895 0.35048 0.032728 0.275133 -0.488723 0.704379 0.212896 0.242031 0.51874 0.264016 0.067291 -0.174426 -0.330505 0.207634 0.669202 0.182279 0.316409 -0.127778 -0.47755 0.049834 0.346265 -0.398237 -0.284365 0.160872 0.434258 -0.115021 0.256217 0.311196 -0.261548 -0.410209 -0.009969 0.327857 -0.270386 -0.223597 -0.046983 0.328653 -0.124535 0.1295 -0.08538 -0.124578 -0.101524 0.121544 0.54052 0.287389 -0.618317 -0.143421 0.08688 -0.129359 0.132921 -0.224303 0.00892 -0.317154 0.614184 -0.022973 0.2819 -0.266181 0.306462 0.167113 0.43132 0.102076 -0.525121 0.129068 0.021259 0.70532 -0.52713 0.082226 -0.046009 0.123936 0.038377 0.656149 -0.032548 -0.345504 -0.368683 -0.474873 0.679516 -0.231549 -0.254724 -0.087122 0.148062 0.188796 0.185405 0.218928 0.014124 0.028947 -0.349786 -0.014073
l 0.06274 0.110041 0.190677 -0.365383 0.495018 -0.255601 0.09823 -0.128729 0.232171 0.166313 0.33484 0.466602 0.147831 0.085957 -0.117105 0.440916 -0.289714 0.042103 -0.313034 0.34044 -0.33671 0.039219 0.473434 0.10534 -0.024984 0.279227 -0.28416 -0.224618 0.276565 -0.169846 0.242384 0.216335 -0.557759 0.011721 0.642958 -0.165809 -0.039282 -0.158746 0.275283 0.156905 0.053131 0.392194 -0.039656 -0.025039 0.155709 0.681329 -0.761019 0.22567 -0.16648 0.020099 -0.50494 -0.025714 -0.156203 -0.03528 -0.032142 0.143173 0.533829 0.189225 -0.328512 -0.164222 -0.054042 0.281574 0.23166 -0.419647 0.023676 -0.177778 0.369118 -0.334406 -0.295713 0.188546 0.45962 -0.049459 0.369353 0.059429 -0.268366 -0.157941 -0.264286 0.466595 -0.234436 -0.01342 -0.066007 0.309391 0.262054 0.335198 0.163311 0.29015 -0.184848 -0.384424 0.816723 -0.231387 -0.172515 0.170375 0.082927 0.176003 0.090466 0.182596 0.004858 0.356175 -0.231517 0.435182
m 0.334128 0.196916 0.503477 -0.586629 0.515629 0.158947 0.216892 0.306519 0.023296 0.349416 0.171092 0.45833 0.232861 -0.09167 -0.038704 0.339552 0.065858 0.118895 -0.305794 0.238167 -0.163424 0.259551 0.318328 0.153834 -0.350541 0.378829 -0.147535 0.153753 0.031434 -0.004712 0.466392 0.015278 -0.386235 -0.137372 0.340865 -0.504698 0.130007 -0.281256 0.243063 -0.038113 0.266011 0.343286 -0.243767 -0.262252 -0.023852 0.699658 -0.202047 -0.30185 0.08422 -0.07337 0.166694 0.113554 -0.015643 -0.097255 -0.018015 -0.157561 0.503193 -0.098177 -0.506184 0.176671 -0.101282 0.241651 0.389105 -0.240297 -0.026285 0.098649 0.334411 0.093871 0.021074 0.130591 0.597572 0.03118 0.473592 0.010006 -0.305834 -0.402759 -0.445236 0.332266 -0.372599 -0.188904 -0.146911 -0.007147 0.212716 0.440258 -0.029596 -0.043352 -0.132976 -0.372029 0.531167 -0.065269 -0.304048 -0.086701 -0.082922 0.051973 0.176135 0.04574 -0.271642 -0.014494 -0.329008 0.21189
n -0.066807 0.140954 0.30312 -0.325217 0.683208 -0.030077 0.377842 0.23247 -0.050093 0.004135 0.079908 0.293732 0.028223 0.131385 0.270089 0.607738 -0.099235 0.500016 -0.442849 0.518961 -0.221371 0.245011 0.15306 0.002884 -0.224718 0.418813 -0.079441 0.131551 0.265751 -0.194862 -0.038224 0.260666 -0.527193 -0.322576 -0.009092 -0.211465 -0.115453 -0.131481 0.011868 -0.014938 -0.112443 0.382614 -0.068931 -0.062816 0.294783 0.441769 -0.023298 -0.006382 -0.205924 0.166206 -0.367037 0.108735 -0.07492 -0.333524 -0.09716 -0.081794 0.070099 0.256894 -0.145104 -0.246135 -0.013393 0.229004 0.181883 -0.632166 0.113714 -0.163389 0.758187 -0.088838 -0.275776 -0.15745 0.518246 0.039311 0.115226 -0.268135 -0.424868 -0.205016 -0.396626 0.321588 -0.061863 0.126167 -0.048097 0.271935 0.116938 0.354094 0.248769 0.06675 -0.124017 -0.540608 0.642549 -0.183147 0.071233 0.15508 -0.274504 -0.150744 0.014914 0.377244 -0.05921 0.31213 0.090357 0.136218
o -0.080829 0.264597 -0.104759 -0.058058 0.165186 -0.035183 0.27558 -0.02321 -0.27509 0.181248 0.155214 0.494135 0.122926 0.087207 -0.037933 0.25715 0.128422 0.534584 -0.204869 0.564165 -0.29327 0.035429 0.067691 -0.064356 -0.203584 0.249837 -0.23706 0.100089 0.372914 -0.004295 0.059128 -0.058162 0.058179 0.102991 0.28298 -0.063319 -0.148109 0.290609 0.000609 -0.265147 0.173856 0.371696 -0.332885 0.17656 0.121129 0.445543 -0.086939 0.261768 -0.415081 0.187265 -0.240092 0.115607 0.012205 -0.43319 -0.221249 0.232082 0.214768 0.247662 -0.441187 0.031495 0.056413 0.349818 0.249514 -0.031425 -0.068469 -0.21662 0.336351 -0.443532 -0.320997 -0.019749 0.317141 -0.011314 0.221677 -0.199974 -0.13561 -0.523246 -0.571118 0.655834 0.114417 0.152411 0.29929 0.357926 0.416955 0.249079 0.144915 0.140822 -0.348967 -0.455412 0.945022 0.064728 -0.242554 0.219182 0.03435 0.29372 0.009244 0.275833 -0.143982 0.054641 -0.31502 0.224093
p 0.098748 0.267687 0.24592 -0.481562 0.700216 -0.349219 0.144816 0.02839 -0.00161 0.074142 0.348978 0.383828 -0.261325 0.078381 0.299711 0.159636 -0.201488 0.085322 -0.383953 0.501115 0.020266 0.149184 0.114807 0.053616 0.016027 0.150394 -0.138038 0.128097 0.52743 0.149391 0.256115 0.063022 -0.559514 -0.097876 0.317946 -0.034207 0.141753 -0.214266 0.216587 -0.01586 -0.211472 0.686942 -0.095278 0.254819 0.20112 0.213191 -0.250332 -0.424247 -0.428392 0.33892 -0.167158 0.041654 -0.065428 -0.156165 -0.070608 0.025029 0.133335 0.106058 -0.446876 -0.24142 -0.109788 0.346902 0.358556 -0.224319 0.072187 -0.048092 1.021868 -0.089767 -0.106271 0.431236 0.566534 0.318874 0.110718 -0.062965 -0.482046 -0.125096 -0.229031 0.42213 -0.43259 0.521318 0.074256 0.214378 0.051015 0.410721 0.179672 0.046357 -0.296904 -0.307965 0.428907 -0.521176 -0.25317 0.080809 0.101389 -0.352738 0.134291 0.288624 -0.118674 0.0918 -0.078933 0.530594
q -0.060794 0.406466 0.524797 -0.404016 0.573809 -0.147926 0.250342 0.148636 0.144466 0.334259 0.191383 0.667171 0.137852 0.014944 -0.210272 0.349707 0.291759 0.356551 -0.216406 0.208495 0.079542 0.221308 0.267283 0.056264 -0.449563 0.087039 0.236636 -0.196562 0.753975 -0.127503 0.122022 0.147759 -0.56282 -0.020695 0.169443 -0.236712 -0.097554 0.031394 0.197087 -0.425958 -0.008723 0.494418 -0.044514 -0.024929 0.295785 0.281863 -0.075927 0.254722 -0.347344 0.133491 0.132766 -0.021457 -0.005211 -0.280796 -0.106491 0.14103 0.443554 0.078282 -0.271643 0.00374 -0.117816 0.205459 0.66118 -0.109187 0.083465 0.252665 0.718851 0.071083 -0.143206 0.002405 0.66474 0.170121 0.237748 -0.269357 -0.460709 -0.255757 -0.119498 0.803385 0.063122 0.300275 0.424906 0.173292 0.396641 0.542387 -0.196708 0.022955 -0.425709 -0.306661 0.25141 -0.137392 -0.068334 0.022687 0.01201 0.162319 0.185679 0.167709 -0.351088 0.427006 0.144478 0.512048
r -0.052302 0.380189 0.342979 -0.33895 0.627927 -0.318401 0.042636 -0.078253 0.059777 0.148449 0.052003 0.471757 0.203039 -0.104198 -0.06442 0.367555 -0.055373 0.489891 -0.323928 0.384203 -0.147197 0.023714 0.348821 0.035855 -0.157083 0.267709 -0.205054 0.031977 0.159994 0.001917 0.039745 0.076005 -0.162377 -0.152544 0.174203 -0.437971 -0.301324 -0.375485 0.121273 0.019702 -0.132982 0.370602 0.071905 0.03391 0.090061 0.486749 -0.467499 0.04436 -0.163404 0.208371 -0.040042 0.061776 -0.22841 -0.321154 0.231073 -0.149673 0.214802 0.559148 -0.493277 -0.084639 -0.261331 0.37919 0.371299 -0.49973 -0.006666 -0.013606 0.49838 -0.192434 -0.132395 0.068355 0.399796 0.114139 0.027972 -0.195417 -0.442804 -0.055124 -0.367065 0.335755 -0.193087 -0.007375 -0.052264 0.342888 0.171184 0.56127 0.343114 0.331339 -0.407986 -0.25682 0.645582 -0.364211 -0.156049 0.35751 0.166615 -0.016662 0.332903 0.437032 -0.10859 0.166805 0.113298 0.449955
s 0.210209 0.176105 0.236748 -0.30865 0.787462 0.151131 -0.127603 0.038877 0.355227 -0.23572 0.495904 0.364946 0.383773 -0.08969 -0.103329 0.878155 0.030312 0.432501 -0.337799 0.018518 -0.019076 -0.096175 0.253475 -0.004198 -0.156546 0.50993 0.003247 0.136207 0.306705 0.152951 0.204986 0.105503 -0.513667 0.039913 0.32978 -0.384243 0.083957 -0.192633 0.52754 0.124415 -0.171892 0.263426 0.23796 0.219103 0.193529 0.79985 -0.131518 0.358462 -0.04887 0.28726 -0.001554 0.171136 0.074477 -0.077719 0.130932 -0.219343 0.12168 -0.078977 -0.173013 -0.406439 -0.151694 -0.205374 -0.099662 -0.283446 -0.088268 -0.315773 0.455735 -0.083646 -0.303316 -0.222669 0.304689 0.033781 0.0374 0.036442 -0.272589 -0.343015 -0.407057 0.402695 -0.531474 -0.009593 0.019289 0.138419 0.213992 0.40189 0.192767 0.344411 -0.237782 -0.548872 0.169362 -0.410114 -0.140177 0.108455 -0.011114 0.355962 0.459969 0.498653 -0.085003 0.210454 -0.154083 0.071238
t 0.199925 0.378889 0.404766 -0.573277 0.486477 0.091435 0.108556 -0.026821 0.267243 0.079856 0.258977 0.423209 0.249678 0.003961 0.077215 0.498898 -0.041718 -0.078642 -0.256458 0.523623 -0.162622 0.198427 0.296731 -0.309188 -0.315497 0.425944 -0.161391 -0.080077 0.295258 0.038517 0.056736 0.222526 0.02797 0.172313 0.177864 -0.370883 -0.36306 0.307442 0.302358 -0.10379 0.074881 0.40258 -0.216816 0.149105 0.333176 0.370781 -0.204428 0.147979 -0.172697 0.024085 0.193012 -0.058623 -0.150286 -0.301508 0.051146 -0.195913 0.466474 0.197322 -0.577041 -0.23858 -0.11659 0.175338 0.14639 -0.359469 0.295867 0.187066 0.215789 -0.248007 -0.117177 -0.216235 0.561009 0.009204 0.577829 -0.080034 -0.62753 -0.614848 -0.389353 0.345668 -0.222405 0.025867 0.229187 0.051555 0.12234 0.581186 0.111403 0.117702 -0.247448 -0.320716 0.63975 -0.463958 -0.072461 0.086174 0.166448 0.081113 0.076878 0.260105 -0.385121 0.08079 -0.287608 0.365314
u 0.248714 0.457099 0.345621 -0.228235 0.350829 0.025817 0.097598 -0.045894 0.049986 0.307715 -0.270547 0.449451 0.091674 0.036662 0.244659 0.697522 -0.2425 0.333198 -0.208253 0.624338 -0.256636 0.074836 -0.359826 0.042201 -0.146826 0.128722 -0.496812 -0.192887 0.526911 -0.243993 -0.294478 -0.072985 -0.262411 0.029127 0.285889 0.185096 -0.293443 -0.034146 0.530129 -0.217372 -0.133979 0.143437 -0.42713 -0.155057 0.326536 0.428807 0.434246 0.067743 -0.324341 0.131388 0.396754 -0.067255 0.011308 -0.215787 0.001502 0.071985 0.287404 -0.073915 -0.333751 0.01266 -0.045282 0.298277 -0.125215 -0.039199 0.294531 0.087227 0.251159 0.099036 -0.203798 -0.09072 0.430243 0.201374 0.228234 -0.532658 -0.490648 -0.370581 -0.385076 0.595135 0.174199 0.072843 0.25194 0.692377 0.360293 0.256068 0.111176 -0.105743 -0.212286 -0.413172 0.888117 -0.307304 -0.082557 0.323754 -0.027708 -0.062505 0.15049 0.237565 -0.486632 0.240556 -0.178481 0.399372
v 0.140524 0.26725 0.681791 -0.162018 -0.018438 0.395208 0.140395 -0.040901 0.097155 0.076424 0.148469 0.448528 -0.03644 0.101967 -0.17607 0.346657 0.278188 0.072138 0.01717 0.251335 -0.348578 0.373873 0.099636 0.420101 0.122463 0.306439 -0.129555 -0.253781 0.178169 -0.316892 -0.164474 0.062495 -0.149436 0.235088 0.532587 0.076529 0.079136 -0.215367 0.534649 -0.008644 -0.318554 0.569464 -0.198051 0.120748 0.034763 0.112019 -0.100722 0.395014 -0.035337 -0.09593 0.115754 -0.057018 -0.421604 -0.077301 0.148793 -0.038552 0.408555 0.317507 -0.069168 -0.311969 -0.109393 0.056051 0.014407 -0.186445 -0.292787 -0.119689 0.263166 -0.083682 -0.241987 0.311929 0.593551 0.159134 0.551637 0.065018 -0.4726 -0.038636 -0.39205 0.232867 0.123707 0.233957 -0.099172 0.349227 -0.014314 0.349287 0.181275 0.348703 -0.427162 -0.368925 0.835808 -0.183405 -0.409792 0.22187 0.059752 0.200142 -0.118055 0.181938 -0.123328 0.189009 -0.019584 0.589056
w 0.343483 -0.00145 0.109635 -0.368928 0.473315 0.158347 0.149394 -0.131051 0.131766 0.39668 0.100842 0.379141 -0.12118 -0.292328 0.032467 0.610069 0.006995 0.099673 -0.215854 0.342498 -0.20922 0.543171 0.140785 -0.144566 -0.086031 0.281551 -0.227997 0.083981 0.2391 0.135712 0.254159 0.067355 -0.478748 0.04115 0.467183 -0.066837 0.061955 0.007269 0.330165 0.090123 0.073029 0.277829 -0.320231 -0.185099 0.215737 0.74262 -0.47401 0.357472 -0.334317 -0.030643 -0.403821 -0.207473 0.15673 0.176586 -0.226492 -0.001764 0.290376 0.298671 -0.20165 -0.067415 -0.320817 -0.049897 0.285848 -0.428928 0.191936 0.194007 0.353984 0.167774 -0.275442 -0.009709 0.250247 0.12069 0.374576 -0.006345 -0.026137 0.0948 -0.15167 0.61496 0.226108 0.182495 -0.357479 0.477143 0.448402 0.211604 0.178052 0.295209 -0.525246 -0.084288 0.457402 -0.09591 0.019023 0.130868 0.006145 0.112381 0.353646 0.5323 -0.368784 0.380503 -0.111852 0.372182
x 0.403745 0.073255 0.235058 -0.287199 -0.163583 -0.088081 -0.252622 -0.25284 0.178232 0.384768 0.705166 0.476201 -0.185318 -0.425767 -0.351649 0.854123 0.353879 0.077897 -0.035121 0.274203 -0.270524 0.381852 0.381181 -0.095102 -0.044431 0.142991 -0.353655 -0.132351 0.707339 0.242673 0.412498 0.03034 -0.744957 -0.106571 0.0686 -0.087074 -0.103286 -0.146277 0.284209 0.019259 0.013328 -0.082796 -0.22977 -0.464711 0.195966 0.695879 -0.309294 0.18147 -0.04926 -0.164304 -0.46791 0.321645 0.389077 -0.31155 0.24624 0.236104 0.12703 0.468959 0.202163 -0.14631 -0.39025 0.404922 0.079757 -0.068506 -0.102271 0.118289 0.256619 0.408894 0.410237 0.251599 0.624114 0.296135 0.638038 -0.036365 -0.406821 -0.30775 -0.320568 -0.032655 -0.031616 0.542419 0.282277 0.181659 0.178397 0.163301 -0.333904 0.458286 -0.108072 0.096113 0.670336 0.160897 -0.025563 0.157481 0.002793 0.196474 0.085136 0.06234 -0.206655 0.603873 0.410041 0.384323
y 0.549961 0.343895 0.135102 -0.128246 0.523005 -0.280115 0.036086 0.239841 0.028863 -0.408375 0.143476 0.720694 0.395639 0.126478 0.043072 0.487023 0.299915 0.521153 -0.33015 0.271569 -0.296907 0.292183 -0.122849 0.081672 -0.086517 -0.201143 -0.040497 0.354057 0.628512 -0.193017 0.592718 -0.002694 -0.305126 0.147235 -0.244395 -0.060805 -0.199145 0.240077 -0.231533 -0.239078 0.11179 0.742173 -0.262647 0.24691 0.163771 0.539497 -0.299303 0.202872 -0.341881 0.029717 -0.008459 0.226891 0.122189 -0.194553 -0.049598 0.266519 0.094582 0.310739 -0.381018 0.019831 -0.045768 0.725816 0.239606 -0.441541 0.087972 -0.013561 0.445244 -0.410088 0.045142 -0.05159 0.541069 -0.175997 0.600528 -0.556454 -0.004901 -0.334232 -0.342321 0.270603 -0.022867 0.734354 0.551051 0.088221 0.352117 0.400028 0.264814 0.386621 -0.35898 -0.034755 0.657201 -0.262318 -0.248258 0.390324 -0.048775 0.060264 -0.173879 0.059724 0.075994 0.26222 0.121964 0.344756
z -0.052746 0.011055 0.447047 -0.509978 0.316423 0.1139 0.080958 0.460628 0.237509 0.232133 -0.101803 0.828126 -0.311764 0.001349 -0.002512 0.38226 0.22708 0.297514 -0.307564 0.16851 -0.223764 0.151739 0.0341 -0.018008 -0.038468 -0.196185 0.202412 -0.236262 0.495014 -0.195566 0.117013 -0.152515 -0.36753 -0.088258 0.019314 -0.371499 -0.455875 -0.032216 0.167547 0.082105 -0.103526 0.324909 0.015121 0.214681 -0.198138 0.642236 -0.346406 0.510913 0.026042 0.00026 0.108591 0.130737 -0.297799 -0.520418 0.093009 0.204987 -0.08462 0.409905 -0.023897 -0.411094 -0.05492 0.119824 0.180712 -0.298558 0.236435 0.017375 0.127855 -0.120605 -0.025444 0.084718 0.243631 0.201298 0.320387 -0.344746 -0.360301 -0.215224 -0.332246 0.628338 -0.266867 0.531038 0.632915 0.374769 0.412479 0.294296 -0.017032 0.29105 -0.366499 -0.452306 0.516537 -0.120688 -0.072749 -0.07126 0.067206 0.070198 -0.115427 0.395515 -0.843916 0.089399 -0.083714 0.265075
come -0.130916 -0.041493 0.148892 -0.226155 0.309711 -0.047884 -0.253864 -0.527972 0.108355 0.374677 0.182449 0.344194 0.038278 0.324966 -0.031338 0.164915 0.238907 0.112955 -0.031835 0.084583 0.134606 -0.190852 -0.183788 -0.757001 -0.038006 -0.356812 0.001826 0.150533 0.332503 -0.618465 -0.175945 -0.145653 -0.297484 0.204501 -0.326863 -0.007911 -0.182362 -0.067322 0.056371 -0.376483 -0.02317 0.12749 -0.226656 0.057022 0.409602 0.251829 0.431939 -0.049616 -0.431832 0.074837 0.358232 -0.110841 0.216678 -0.014419 0.00748 0.057227 0.234666 0.43146 -0.447354 -0.150356 -0.469546 -0.127352 -0.318093 0.136094 -0.138573 0.096921 0.170499 -0.123164 0.021536 0.16899 -0.217531 0.055238 0.044935 -0.044298 -0.040627 0.078085 -0.473868 0.186863 0.207938 -0.064113 0.047936 0.105112 0.065363 0.285978 0.084885 0.130856 -0.028305 -0.024991 0.245233 0.641747 -0.152366 0.41355 -0.254117 0.349126 0.057634 -0.062741 -0.150619 -0.081449 -0.156387 0.366009
icecream 0.059592 -0.167421 0.353649 -0.354644 0.098037 -0.089668 -0.184677 -0.341004 0.320156 0.712286 0.013561 0.200935 0.304157 0.341521 0.135361 0.263572 0.551508 0.274891 0.216169 0.272852 0.020019 0.146881 0.383942 -0.499803 0.042321 -0.367646 -0.861688 -0.193638 0.552093 -0.261093 -0.314689 0.077505 -0.170407 0.076452 -0.796495 0.682657 -0.098813 -0.231137 0.321561 -0.418978 0.237496 -0.246762 0.193091 -0.249621 -0.036268 1.043445 0.361862 -0.07911 -0.357331 -0.056726 -0.172535 -0.023077 -0.056869 -0.543868 -0.307864 -0.705653 -0.294454 0.109522 -0.212387 -0.257631 0.125947 0.235101 -0.033686 -0.123013 -0.315676 0.338751 -0.194482 -0.015522 -0.532119 -0.132375 0.250057 0.085659 -0.660387 -0.4179 0.132024 0.01596 -0.642156 0.051133 0.062967 -0.073788 0.276113 0.450491 0.081687 -0.275311 -0.504374 -0.096189 -0.036454 0.217036 0.742799 -0.190077 -0.285491 0.391498 -0.342547 0.082036 0.208296 0.091618 0.017588 0.350512 -0.160961 -0.311031
ice-cream -0.197832 -0.115073 0.167171 -0.598947 0.123837 -0.150739 -0.023555 -0.229842 0.278526 0.464643 0.060835 0.121129 0.485413 0.581514 0.394001 0.435732 0.210311 -0.033197 0.47515 0.454757 0.319431 0.5263 0.385579 -0.471492 -0.409343 -0.213322 -0.531387 -0.258758 0.213279 -0.004985 -0.137418 0.544406 -0.164964 0.276706 -0.634592 0.479187 0.058239 -0.054112 -0.050364 -0.239645 0.084468 -0.033999 0.110577 -0.329285 0.179507 0.618055 0.543469 -0.378807 -0.355342 -0.065164 -0.194689 0.000239 -0.025505 -0.587863 -0.46902 -0.660068 -0.096004 0.200968 -0.416487 -0.303469 -0.207647 0.114006 0.041842 -0.426407 -0.261766 0.224081 -0.213381 -0.278807 -0.463824 -0.032491 0.20749 -0.256037 -0.451689 -0.542142 -0.168924 -0.246335 -0.274834 0.034931 0.090232 -0.382896 0.446071 0.332757 0.224354 -0.443558 0.001591 0.154758 0.123403 -0.039942 0.591633 -0.072204 0.32509 0.636053 -0.337995 0.37725 0.510538 -0.209482 0.155901 0.286871 -0.200904 -0.170652
came -0.070203 0.137288 0.171484 -0.17687 0.289588 -0.178746 -0.074512 -0.544406 -0.160794 0.659315 0.147953 0.075423 -0.054791 0.398918 0.110984 0.245542 0.476911 0.391422 0.128646 -0.023123 0.142652 0.220133 -0.250582 -0.55548 0.074569 -0.359586 -0.003091 -0.050083 -0.250046 -0.304994 -0.09719 0.041839 -0.205645 0.27491 -0.338955 0.24853 0.329454 0.108232 -0.004954 0.027293 0.109054 -0.154794 -0.104371 0.242136 0.003952 0.175168 0.527265 -0.23257 -0.254041 0.021415 0.299181 -0.282319 -0.035247 0.158851 -0.085812 0.206098 0.419613 0.499037 -0.31385 -0.086277 -0.099187 -0.003177 -0.274286 -0.03466 -0.295318 0.251174 0.125243 -0.246087 0.183367 0.498057 -0.133217 0.034326 -0.067217 0.088283 -0.06736 0.200386 -0.640375 0.098593 0.085241 -0.241481 -0.163925 0.460611 0.14085 0.499561 -0.080556 0.467073 0.161236 0.339651 0.077836 0.38197 -0.103689 0.177598 -0.04101 0.209174 -0.234863 0.114606 -0.180237 0.197052 -0.12117 0.132898
irrigation 0.202128 -0.60545 -0.429087 -0.165 0.273299 0.096543 0.308514 -0.109468 -0.209815 0.377388 -0.088137 -0.027896 -0.625772 -0.145396 0.226605 0.127149 0.737816 0.827145 0.257836 0.610693 -0.062216 0.024694 0.964462 -0.224977 -0.331974 -0.114705 0.162938 0.111121 0.367515 -0.034829 -0.142928 -0.766221 0.46572 0.382519 -0.358705 0.188809 0.131525 0.105872 0.053717 -0.177214 -0.260649 0.712927 0.093312 0.90359 0.024042 0.948522 0.151521 0.283465 -0.283356 -0.109106 0.036404 0.752709 0.34556 0.119674 -0.429349 -0.122812 -0.029031 -0.549064 -0.390351 0.832987 0.103546 -0.369804 -0.049143 -0.092398 -0.01671 -0.077989 0.22168 -0.345339 -0.320678 0.259336 0.565483 0.224438 0.520202 0.246794 -0.197762 -0.128605 -0.265179 0.208791 0.01921 -0.833729 -0.425698 0.160407 -0.193781 0.104773 0.374657 0.250242 0.290644 0.49547 0.415503 0.774615 0.205619 0.27658 0.183396 -0.309489 0.211171 -0.31318 0.453859 0.525304 -0.072153 -0.353559
population 0.21023 -0.502078 0.821381 -0.504276 0.160523 -0.274464 0.338881 -0.156067 -0.175664 0.060482 0.694378 1.080887 -0.121481 -0.723583 0.207518 0.337075 0.436758 0.527523 0.360669 0.695269 -0.096705 -0.141518 0.03632 -0.21968 -0.293605 -0.164168 -0.593915 0.186216 -0.378067 -0.484194 0.444813 -0.639252 -0.418282 0.539272 -0.356202 -0.051392 0.237768 -0.64041 0.879026 0.275208 -0.387121 0.374518 -0.034406 -0.517393 -0.16001 0.859201 0.322968 -0.656448 -0.527441 -0.549341 0.411163 0.079328 -0.215691 0.404103 -1.100355 -0.29546 0.777221 0.486286 -0.49841 0.137647 0.708011 -0.332294 0.650322 -0.842229 -0.526835 0.560448 0.230388 -0.484328 0.375373 0.035834 -0.19333 0.355099 0.81066 -0.633522 -0.618115 0.587074 -0.341832 -0.209443 0.19647 0.172854 0.203984 -0.30969 -0.28515 0.04921 -0.063174 0.470463 0.585974 -0.001928 0.319957 0.015038 0.441118 -0.108286 -0.870825 -0.543067 0.147615 -0.325402 0.306938 0.136154 0.483365 -1.287146
volcano 0.050312 -0.335559 -0.085427 -0.566692 0.121504 0.205978 0.224122 0.33159 -0.287412 0.202823 -0.246821 0.095224 -0.071246 -0.747389 -0.084294 0.639696 0.842636 0.289061 0.364659 -0.501285 -0.088692 -0.05725 -0.309262 0.148432 0.065937 -0.215765 0.418713 0.290166 0.528743 -0.38561 0.235282 -0.311558 -0.292336 -0.007751 -0.712413 -0.158711 0.571761 0.077838 0.376634 -0.330148 0.037656 0.117478 0.09348 -0.203677 -0.262539 0.371435 0.603282 -0.369642 -0.221982 -0.228028 -0.289626 0.381165 0.392173 -0.183976 -0.373783 -0.171494 0.245707 -0.023766 0.142445 0.422066 -0.031084 0.287339 -0.056801 -0.207752 -0.465994 0.408728 0.311551 -0.579343 -0.240037 0.142221 -0.172167 0.201471 0.216257 -0.439209 -0.30397 -0.952107 -0.455175 -0.215281 0.505332 -0.576331 0.157308 0.133934 0.331778 -0.18201 -0.148267 0.187518 0.051231 0.518034 0.510495 0.448474 0.096856 0.522737 -0.256466 0.035546 -0.313898 -0.083729 -0.220339 -0.053066 -0.683758 0.034134
today -0.010656 -0.222736 0.28051 -0.474103 0.120528 0.035167 0.117627 -0.373475 -0.061146 0.072695 0.210577 0.158854 -0.26554 0.119399 -0.198411 0.345983 0.400743 -0.09692 0.078833 0.0867 -0.003309 -0.181048 0.047215 -0.546527 -0.313731 -0.559123 0.184171 0.169353 0.02834 0.022789 -0.202005 0.156281 -0.075541 -0.136439 -0.317653 -0.387575 0.12641 -0.11707 0.019041 -0.281902 -0.170712 0.028072 -0.123331 -0.153916 0.250192 0.158838 0.438043 -0.081631 0.15336 0.031178 0.274984 -0.008585 0.149453 0.364685 -0.255796 -0.064176 0.353388 0.087912 0.007639 -0.33244 -0.13251 0.136952 0.216205 -0.132048 -0.03191 -0.034733 0.122414 0.02569 0.056863 -0.014386 -0.014459 0.034993 -0.46519 -0.285652 -0.088618 -0.039875 -0.405068 -0.066228 0.058265 -0.339711 0.118398 -0.183295 0.414076 -0.125596 0.110229 0.130894 -0.012571 -0.050595 0.297467 0.381853 -0.317021 0.366988 0.569475 0.050293 0.341143 -0.062894 -0.220875 0.142321 -0.298506 0.053659
last -0.037007 3.3e-05 0.145496 -0.195949 0.240272 -0.58035 -0.396232 -0.112112 -0.25623 0.603576 0.16394 0.410215 -0.002765 -0.132911 -0.040586 0.31059 0.401248 -0.249487 0.00649 0.120513 -0.100856 -0.013955 -0.087998 -0.57565 -0.142314 -0.169513 0.250675 -0.11056 0.352637 0.312261 -0.784482 0.074399 -0.208679 0.240944 0.12176 -0.420682 0.300993 -0.069668 0.061254 -0.139118 -0.083422 0.216886 -0.120956 0.2438 -0.017309 0.491644 0.27534 -0.000533 0.14346 -0.017329 0.364035 -0.077204 -0.280899 0.017092 -0.416719 0.177605 0.305366 -0.178119 -0.17378 -0.133695 0.099573 -0.235898 0.01323 -0.018685 -0.430919 0.132127 0.178899 -0.20988 -0.071729 -0.125215 -0.263347 -0.195266 -0.390331 -0.436825 0.227303 0.003694 -0.148289 -0.131284 -0.124859 -0.220564 -0.09724 -0.117324 0.138192 0.22686 0.228333 0.239443 0.224529 -0.038248 0.269136 0.309759 -0.274977 -0.225848 0.195447 0.00247 0.169211 0.196478 0.105225 -0.042 -0.560918 -0.203294
man 0.05566 -0.055463 -0.071349 -0.563862 0.035916 -0.00807 0.121259 -0.487045 -0.010087 0.1651 0.189365 0.189541 0.076899 -0.059605 -0.101241 0.466462 0.239409 0.515503 0.223417 0.117087 0.223803 -0.157171 -0.16002 -0.807808 -0.064518 0.060491 -0.222588 -0.067586 -0.015711 0.199481 -0.343862 0.404184 0.228383 0.192397 -0.392518 0.131856 0.441677 0.172624 0.184824 0.246844 -0.220688 0.246937 -0.397034 -0.509272 -0.054406 -0.003116 0.627302 0.238379 -0.141873 -0.002159 -0.102382 -0.039825 0.207772 -0.410597 0.174324 -0.035309 0.238777 -0.196326 -0.300892 -0.279292 -0.569048 -0.046074 -0.230534 -0.123738 -0.404227 0.005184 0.177718 -0.187898 -0.018025 0.148301 -0.012781 0.122433 0.326628 -0.334652 0.101024 0.120273 -0.012572 -0.177542 -0.157601 -0.13881 0.445214 0.264436 -0.080518 -0.141399 0.130465 -0.02375 0.08617 -0.062769 0.585157 -0.003332 -0.335405 0.021455 -0.151333 0.156723 -0.129197 -0.140027 -0.363062 -0.048901 -0.152961 0.276818
halfhour -0.004325 -0.029693 0.144078 -0.155989 0.034369 -0.310682 0.018726 -0.075687 0.070523 0.249671 0.016032 0.132943 0.145274 -0.069389 -0.160353 0.321175 0.171975 -0.022488 0.292454 0.285252 -0.01683 0.036219 0.001949 -0.3604 0.017552 -0.111469 0.050776 0.040234 0.160892 0.175753 -0.18017 0.035307 -0.290463 0.142929 -0.161723 -0.201443 0.145389 0.024576 0.135179 -0.219325 -0.025034 0.185782 -0.125334 -0.059314 -0.02584 0.333929 0.182931 -0.038476 -0.131828 -0.004951 0.222837 -0.118148 0.050128 -0.156762 -0.071522 -0.176981 0.355187 0.10684 -0.137093 -0.125882 0.030956 0.053728 -0.078929 -0.006572 -0.092125 0.08182 0.264148 0.031124 0.183036 0.082409 -0.129389 -0.059655 -0.015652 -0.193775 -0.039429 -0.109475 -0.189346 0.07503 -0.0333 -0.027589 -0.008621 0.149386 -0.048576 0.251661 0.120227 0.0076 0.122664 -0.068628 0.266771 0.221075 -0.087442 0.09742 0.089352 0.105023 0.179169 -0.111448 -0.003784 -0.023658 -0.040958 0.02082
rest 0.159093 0.000166 0.121831 -0.097221 0.049532 -0.333616 -0.065056 -0.11863 -0.219543 0.359195 0.137716 0.451688 -0.148011 -0.019083 0.117616 0.413357 0.289112 -0.010489 -0.079476 0.324296 0.31338 0.090988 -0.058323 -0.372106 -0.309725 -0.099747 -0.232975 -0.03712 0.002515 -0.498915 -0.342339 0.088194 -0.015829 0.361689 -0.320171 0.214383 0.120389 -0.336029 0.102092 -0.51257 -0.405845 0.105919 -0.361497 0.244214 0.091645 -0.1077 0.315985 0.003349 -0.445618 -0.161374 0.141055 -0.132516 0.029894 0.044262 -0.249865 0.10144 0.371549 -0.025014 -0.215654 -0.318986 -0.366375 0.100885 -0.238043 -0.107909 -0.300395 0.017688 -0.010178 -0.110846 -0.075712 0.136603 -0.109119 0.086135 -0.049709 -0.260638 0.083709 -0.014257 -0.206649 0.030118 -0.185714 -0.24879 0.081008 0.065887 -0.379724 0.086143 0.162353 -0.100618 -0.169025 0.117805 0.403124 0.410486 0.385363 0.273457 0.011125 0.046758 0.284124 0.074408 0.091132 -0.306753 -0.277972 0.095598
art 0.031684 -0.224671 -0.273984 -0.810944 -0.224238 0.654512 -0.140838 -0.724564 -0.168831 0.013323 0.257215 0.187459 -0.476031 0.251171 0.19586 0.252929 0.27872 -0.052867 -0.115086 -0.041033 -0.286726 0.536911 0.136746 -0.733259 0.172158 -0.489022 -0.072139 0.132816 0.147813 -0.032749 0.09751 0.469121 -0.34981 -0.167173 0.072603 0.424421 -0.049349 0.038965 0.12769 -0.198596 -0.799556 -0.185852 -0.233282 0.199319 -0.071132 0.666565 -0.036453 -0.102594 -0.324954 0.46714 0.08294 -0.089768 0.221164 -0.001928 0.03687 -0.225418 0.12763 -0.33382 0.298525 0.113269 -0.190416 0.108545 -0.075874 -0.342092 0.046494 0.129098 0.409615 -0.011795 -0.198143 0.024688 0.171141 -0.113277 0.547312 0.029164 0.141905 0.040497 -0.098424 -0.051807 -0.027887 -0.553287 0.619913 -0.092827 -0.126072 -0.227684 0.406366 -0.085064 -0.134751 0.273436 0.331246 -0.041395 -0.504652 0.198669 -0.185615 -0.116757 0.136033 -0.033694 0.264149 -0.127229 0.240642 -0.10233
free -0.385026 -0.717445 0.397324 -0.581921 0.148485 0.234384 -0.474576 -0.249909 0.202862 0.102859 0.132689 -0.000977 -0.117292 0.205592 -0.054783 0.314859 0.538891 -0.085578 0.077572 0.224427 -0.061299 -0.118275 0.712509 -0.300204 0.151676 -0.432076 -0.600625 0.113185 -0.293987 -0.030035 -0.373735 0.347134 -0.18149 -0.178809 -0.050131 -0.144098 -0.257628 -0.089785 0.426271 -0.364987 -0.290965 -0.088257 -0.079651 0.16351 -0.048449 -0.090445 0.744419 0.034908 0.02532 -0.119567 -0.098282 0.061661 0.431706 -0.203245 0.039708 0.000257 0.131641 -0.07277 -0.174024 -0.311422 -0.123045 0.485646 -0.363155 -0.046855 0.446075 0.07898 0.037944 0.245586 0.177762 -0.214831 0.305195 0.072205 -0.179002 -0.253056 0.224449 -0.003585 -0.836686 -0.063818 -0.289688 0.13858 0.134523 0.267296 -0.186283 -0.374355 -0.141939 -0.150391 -0.285432 -0.014613 0.331072 0.392579 -0.007575 0.172867 -0.093582 0.251971 0.336258 0.187789 -0.567111 0.42136 0.270692 -0.092165
freedom -0.08368 -0.510088 0.289363 -0.634836 0.21428 0.137397 0.280355 -0.633403 -0.168348 0.22852 0.295703 0.373363 -0.152788 0.0181 -0.093705 0.234398 -0.259241 0.37291 0.440178 -0.185439 -0.130719 -0.011413 -0.023703 -0.203798 -0.029955 -0.516368 0.060216 0.207144 -0.20808 -0.015454 0.101392 0.209528 -0.074258 0.242964 0.369406 0.070796 -0.113497 -0.174063 0.522362 0.00946 -0.564921 0.136558 -0.1877 0.431695 0.307468 -0.100128 0.587159 -0.143693 -0.468257 -0.005783 -0.140433 0.44162 -0.197931 -0.151754 0.038699 0.111695 -0.137273 0.021706 -0.406512 -0.325064 -0.133019 0.594103 -0.520641 -0.212232 0.093045 0.174737 -0.091989 0.2078 0.234852 0.120113 -0.237548 0.205108 -0.00089 -0.649808 0.455612 0.218242 -0.118913 0.263008 -0.285624 0.139139 0.194401 -0.151275 -0.125795 0.018984 0.201967 0.323105 -0.226768 -0.011827 0.343821 0.488126 0.238187 0.345676 0.031906 -0.150281 0.195563 0.071275 0.06019 -0.285322 0.078135 0.474795
easy 0.504685 -0.272825 0.107995 -0.483894 0.205377 -0.253262 0.025585 -0.535127 0.156682 0.249791 -0.320416 -0.398385 -0.478564 0.143044 -0.229076 0.108757 0.632808 0.085085 0.877429 0.506139 0.547048 0.012046 0.396178 -0.473534 -0.117085 -0.148419 -0.454499 -0.085249 -0.004042 -0.21248 0.146691 0.051107 -0.25297 -0.102202 -0.34298 0.019565 -0.278305 0.136453 0.092464 -0.630457 -0.030098 0.133141 -0.175271 -0.043058 0.309152 0.334778 0.242051 0.070726 -0.337974 0.057124 0.283811 -0.244676 -0.014389 -0.298891 -0.246582 0.210002 0.081884 -0.007427 -0.192503 -0.096519 -0.574464 0.053424 -0.30773 -0.167394 -0.011668 -0.016269 -0.073747 0.735727 0.094554 -0.200045 0.218251 -0.275091 -0.0006 -0.583103 0.173907 -0.249744 -0.461947 0.014647 -0.578919 -0.634148 0.207133 0.351064 -0.216564 -0.303449 -0.071977 -0.134642 -0.398572 0.152531 0.169945 0.541147 0.209565 -0.021775 -0.061232 0.219912 0.062637 -0.246401 -0.365674 0.48283 -0.014659 -0.002565
sky -0.470978 -0.050189 0.123278 -0.643648 0.021797 0.390007 -0.174131 -0.08602 0.342697 0.396113 -0.001121 0.325489 0.21088 -0.264391 -0.610293 0.507988 0.541967 -0.046775 0.331377 0.095709 0.00518 0.460915 -0.064544 -0.656993 0.307401 -0.192566 0.231152 0.075738 0.233514 -0.252016 0.049099 -0.164821 -0.07939 0.301195 -0.444989 0.132734 0.244442 0.279062 0.752099 -0.628552 0.02131 -0.152302 -0.181555 -0.216755 -0.037107 -0.101689 0.31141 0.047548 -0.202394 -0.009861 -0.135742 0.215704 -0.171489 -0.149687 0.15247 -0.229085 0.348048 -0.019076 0.321917 -0.005568 -0.179246 0.181089 0.147708 -0.413783 -0.466329 0.205831 -0.148055 -0.141929 0.000391 0.233036 -0.154052 -0.014396 0.23149 -0.035486 -0.123862 -0.187896 -0.315211 0.154763 0.172016 -0.015151 -0.024067 0.04171 0.017257 -0.067092 0.045924 -0.096292 -0.362602 0.394316 0.537722 0.43042 -0.179695 -0.132425 0.104693 0.042035 -0.006643 -0.148509 -0.131985 0.260866 -0.758886 0.266521
australia -0.520003 -0.469631 0.448358 -0.20218 0.215671 0.410296 -0.009314 -0.485268 -0.591243 0.418003 0.08726 0.260765 -0.364715 0.580651 -0.730953 0.453554 0.528661 -0.004442 0.212173 -0.38819 -0.02394 0.091727 -0.076586 -0.253685 0.267162 -0.15574 -0.017345 -0.208938 0.089519 -0.063459 -0.114673 0.053638 -0.434547 0.443181 -0.154588 0.002759 0.695 -0.542495 0.269046 -0.545269 -0.426308 0.187002 -0.127113 -0.542141 0.179788 -0.08094 -0.086395 -0.12143 0.159004 -0.175017 0.186157 -0.105169 -0.278663 0.285192 0.34058 -0.073679 0.26329 -0.209678 -0.271743 0.180295 0.25386 0.135272 -0.029725 0.006513 -0.051968 -0.064023 0.126848 0.213215 -0.357461 0.348867 0.630389 0.258519 0.135284 -0.260065 -0.439331 0.146246 -0.150486 -0.376004 -0.347073 -0.404602 0.122357 -0.48907 0.4276 -0.191609 -0.151527 0.432876 -0.276222 -0.19985 -0.034028 -0.005615 0.411648 0.648295 0.211579 -0.035697 -0.046066 -0.184558 0.2674 0.229366 -0.270531 -0.101923
office 0.247212 0.01084 -0.089904 0.037408 0.398196 0.329388 -0.098836 -0.866627 -0.038646 0.124748 0.635986 0.059966 -0.387967 0.011673 -0.073805 0.903662 0.309606 0.550146 -0.309357 0.266825 -0.384865 -0.467704 0.164435 -0.203061 -0.063469 -0.347531 0.030544 0.111787 0.034659 -0.124452 -0.183715 0.372429 -0.352221 0.349943 -0.558658 -0.177164 0.43192 -0.26475 0.400276 0.098199 -0.088128 0.366321 0.507329 -0.012689 -0.251897 0.215085 0.306238 -0.011661 -0.115077 0.097385 0.269941 -0.000962 -0.009008 0.206524 0.092104 -0.369135 -0.100041 -0.446497 -0.059289 -0.244134 0.233303 -0.384696 0.656232 -0.06122 -0.292687 -0.128337 0.428887 0.221583 -0.176096 -0.386304 0.024419 -0.367029 0.16296 -0.111578 0.26531 -0.386014 0.011635 0.37235 -0.228529 -0.298258 -0.00038 0.481499 -0.195352 0.325928 0.209707 0.047418 0.183896 -0.187812 0.027212 0.376598 -0.027179 0.445821 0.322027 -0.125995 0.386239 0.237067 -0.10625 0.264735 -0.128474 0.117849
tools 0.262776 0.071816 0.114787 -0.131564 -0.243313 -0.148193 -0.391331 -0.477074 0.00168 0.010819 0.182345 0.216969 -0.779774 0.122996 -0.366943 -0.161815 0.421089 0.246025 0.331336 0.533071 -0.206291 -0.157225 0.527364 -0.098614 -0.463974 -0.736172 -0.123328 0.231296 0.329308 0.118293 -0.267674 -0.143126 -0.260226 0.288203 -0.500278 0.10034 0.181458 -0.103263 -0.302408 -0.438795 -0.401064 -0.16792 -0.139694 0.07305 0.162137 0.419999 -0.058266 -0.093124 0.180618 0.261814 -0.010933 0.09212 0.306866 -0.06119 -0.355523 -0.319756 0.012054 -0.254088 -0.04694 0.081741 -0.326402 -0.098136 -0.387454 -0.0694 -0.010975 -0.192668 0.397946 0.322678 -0.310082 -0.257717 0.25273 0.156642 0.253156 -0.189751 0.037383 0.441847 -0.125407 -0.033924 -0.08456 -0.465478 0.595662 -0.101144 0.214913 0.586347 0.220671 0.441175 -0.751631 0.316191 0.06383 0.800941 -0.085943 -0.320982 0.333307 0.126334 0.419515 -0.190744 -0.488748 0.931499 0.204731 -0.131382
potato 0.016239 -0.20079 0.471928 -0.598873 0.215224 -0.127774 0.347791 -0.076664 0.01234 0.582158 0.080761 0.073082 0.173837 0.281237 0.407383 0.202053 0.04158 -0.242168 0.260713 0.382928 0.29132 0.445898 0.98374 -0.161586 -0.533447 -0.199312 -0.592688 -0.192377 0.441955 0.429759 -0.054989 0.111769 -0.333427 0.422988 -0.945058 0.33612 0.269577 -0.205126 -0.327325 -0.234763 -0.11219 0.342271 -0.216223 0.123089 0.344117 0.680696 0.425818 0.151845 -0.34189 -0.131101 -0.100211 0.15982 -0.392597 -0.279236 0.099412 -0.618179 -0.623371 0.258075 -0.510454 -0.529778 0.025782 -0.183239 -0.503438 -0.750891 -0.118638 0.466818 -0.215802 -0.408777 -0.100374 0.074911 0.294893 0.089944 -0.214812 -0.332171 0.075486 -0.199283 -0.010272 0.186127 0.518341 -0.208332 0.093609 0.013497 0.311103 -0.332355 -0.00228 0.257825 0.565122 0.238611 0.721898 -0.01541 0.101691 0.445724 -0.137515 0.328618 0.659791 0.338996 -0.11805 0.266854 -0.149084 -0.238656
mango 0.118237 -0.247702 0.478772 -0.645872 0.1455 0.165903 0.142969 -0.282101 0.035724 0.542607 0.390183 -0.043391 0.441039 0.198985 0.181468 0.231756 0.285683 -0.000762 0.131506 0.104154 0.17936 0.253603 0.667492 -0.374483 -0.333888 0.071195 -0.804487 -0.029693 0.641776 -0.442425 0.079874 0.317268 -0.112575 0.190237 -0.462262 0.520069 -0.040807 0.270348 -0.027372 -0.506168 -0.10431 0.462288 -0.10394 0.360347 0.320154 0.853992 0.004566 -0.230562 0.38345 -0.463727 -0.378578 0.078509 -0.50117 -0.106457 -0.012867 -0.387765 -0.264924 0.171054 -0.483123 -0.342801 0.490222 -0.391581 -0.17356 -0.654033 -0.145473 0.569621 -0.057378 -0.272869 -0.409646 -0.071296 -0.08791 -0.012144 0.079762 -0.264991 -0.185979 -0.425104 -0.482092 -0.000846 -0.011448 0.04124 0.24982 -7.5e-05 0.160106 -0.553175 -0.269042 0.091974 -0.323218 0.035925 0.200254 0.156448 -0.133311 0.53605 0.019851 0.426015 0.525855 -0.054136 0.291976 0.532145 -0.395727 -0.192893
transportation 0.317192 -0.20797 0.175198 -0.548504 0.190319 0.089643 -0.073637 -0.35888 -0.258872 -0.791273 0.490219 -0.041269 -0.364468 -0.28483 -0.46624 0.453522 0.417463 0.235862 0.19088 0.476138 0.202443 -0.033632 0.521984 -0.456117 -0.223792 -0.312819 0.531739 0.189327 -0.140526 -0.076586 -0.290606 -0.298886 0.367034 0.44492 -0.277733 -0.003531 -0.051189 -0.34043 0.204453 -0.18584 -0.638618 0.19234 0.373357 0.331285 0.091892 0.352425 0.338785 -0.493862 -0.638878 0.421517 0.076024 0.09941 -0.161427 0.002874 0.083374 -0.083238 -0.01202 -0.400376 -0.243709 -0.011776 0.376376 -0.604256 0.440558 0.220814 0.072147 0.040314 -0.327879 -0.12336 -0.260152 0.33943 0.252792 0.36326 0.471908 -0.276973 0.344196 -0.005735 -0.244357 0.220371 -0.164708 -0.577324 -0.02163 0.017684 -0.486125 -0.095665 0.099081 0.4845 0.220139 0.26782 0.370726 0.205781 0.055707 0.399753 -0.054616 -0.44902 0.537732 0.179531 0.045637 0.481709 -0.178273 0.328865
storm 0.103883 -0.317768 0.150555 -0.418893 0.12482 0.306459 0.12924 -0.21626 -0.373102 0.038163 0.197046 0.473701 -0.233118 -0.31206 -0.41351 0.480716 0.368062 -0.04477 0.058368 0.048018 0.191875 -0.152243 -0.120245 -0.333904 0.484488 -0.036087 0.38063 -0.192358 0.295764 -0.528723 -0.437378 -0.557722 -0.120976 -0.178135 -0.244807 -0.000614 0.44745 0.191961 0.491142 -0.502996 -0.121761 0.391581 0.374198 -0.26588 0.238311 0.20564 0.533056 0.316608 0.162907 -0.050029 -0.184365 0.47369 0.122682 0.013242 -0.408805 0.293579 0.114702 0.489939 -0.100794 -0.13934 -0.159588 0.284064 -0.257493 -0.54422 -0.19855 0.432859 0.318273 -0.254254 -0.283882 0.089241 0.058941 0.057656 0.317766 0.054227 -0.09527 -0.252086 -0.169847 0.016469 0.206943 -0.774974 -0.027809 0.470155 0.056923 0.134965 -0.367637 0.136863 -0.062017 0.448714 0.27975 0.373085 -0.260351 0.006317 -0.098334 -0.00156 0.051844 0.139738 -0.131648 0.011404 -0.635017 0.069
flour -0.039567 0.204496 0.941786 -0.077915 0.28048 0.317592 0.705992 0.032146 0.092373 0.556415 0.311703 0.159961 -0.014199 0.6153 0.615372 -0.113916 0.62492 -0.704729 0.618511 0.647809 0.362502 0.928045 1.094049 -0.239123 -0.796701 -0.496487 -1.028134 0.13504 -0.153823 0.056932 -0.151012 0.069973 -0.416102 0.672603 -1.02948 0.469282 0.146026 -0.061484 0.123807 -0.089033 -0.281015 0.482271 -0.206812 0.579547 0.040548 0.813479 -0.304795 0.235172 -0.354489 0.364791 -0.663408 0.332647 0.445089 -0.508827 -0.542499 -0.309266 0.132185 0.35725 -0.507804 -0.311064 0.140869 -0.199272 -0.223484 -0.055083 -0.579303 0.543568 0.004721 -0.389349 0.093505 0.375155 -0.206727 -0.068897 -0.374998 -0.374595 -0.155584 -0.148071 -0.216481 0.073628 0.71484 -0.517527 0.373267 0.132428 -0.190606 -0.019708 0.105573 -0.098088 0.494188 -0.06556 1.165817 0.127847 0.612566 0.313898 -0.459636 0.118834 0.926771 0.029554 0.321034 0.506939 -0.094407 -0.516667
eight -0.266123 -0.114871 -0.043446 0.186745 0.226211 -0.220571 -0.38636 -0.382564 -0.58561 0.637378 0.20138 0.047966 -0.086178 0.053426 -0.216139 0.045228 0.497812 0.12395 0.039501 0.070108 0.076269 0.313178 -0.042747 -0.373371 -0.091387 -0.181511 0.220313 -0.081579 0.305937 -0.693466 -0.062106 -0.00667 -0.405367 0.093381 -0.136323 -0.250143 0.28287 -0.182412 0.027241 -0.089239 -0.060822 0.314148 -0.370574 0.125341 0.294542 -0.008452 0.203773 -0.152969 0.076364 -0.349441 -0.187668 -0.219741 -0.046352 -0.669929 -0.335997 0.194952 0.349556 -0.103299 -0.324728 -0.414721 0.158886 -0.217413 -0.123548 -0.27437 -0.057465 -0.234034 -0.130768 -0.146793 0.278866 0.404213 -0.033283 -0.087428 0.41121 -0.163478 0.444209 0.137593 0.003405 0.021909 -0.402006 -0.364825 -0.049708 0.011166 0.196608 0.150416 0.125175 0.010105 0.544996 0.061695 0.50727 0.156901 -0.399216 0.056637 0.001017 -0.120702 0.087563 -0.146903 -0.244232 0.024902 -0.004583 0.083613
8 0.176582 -0.23558 0.191573 0.120056 -0.148021 -0.101267 0.033853 -0.469953 -0.490746 0.382858 -0.232759 -0.03538 -0.001706 -0.085515 0.021905 0.307434 0.618189 -0.014396 0.176947 0.440747 -0.030097 0.092041 0.489081 -0.120882 0.10291 -0.114441 0.210162 0.045689 0.331658 -0.336326 0.187457 0.250958 -0.815895 -0.066663 0.113807 -0.5247 0.303612 0.063507 0.14505 -0.179757 0.030274 0.225921 -0.183558 -0.25777 0.25598 0.347358 -0.132532 0.156581 -0.032629 -0.212075 0.005975 0.014595 -0.041049 -0.17802 -0.26221 -0.262275 -0.015708 0.063338 -0.191978 -0.522439 0.136724 -0.126553 -0.137093 -0.098305 0.126616 -0.1549 0.380992 0.031863 0.445265 0.20726 0.189594 -0.015039 -0.010113 -0.191696 0.03308 -0.002413 0.051497 0.094652 -0.058713 0.031967 0.259693 0.13267 -0.452832 0.082242 -0.112386 0.352656 -0.084393 -0.045125 0.323672 0.141718 -0.413594 -0.076713 -0.077779 -0.071176 0.333585 0.171321 -0.028853 0.102855 -0.245165 0.268944
you -0.044528 -0.096883 0.224323 -0.49059 0.103135 -0.489105 -0.161784 -0.447556 0.295135 0.328013 -0.192237 0.232075 0.170114 0.484106 -0.279735 0.204341 -0.094503 0.117511 0.253401 0.222023 0.259212 -0.193704 -0.166642 -0.407859 -0.250956 -0.253156 -0.054415 0.00742 0.237777 -0.21371 -0.331639 -0.201904 -0.358056 0.138375 -0.096008 -0.00319 0.169703 -0.088066 0.248336 -0.633195 -0.23755 0.24702 -0.303505 0.034106 0.084226 0.558506 0.478622 0.170326 -0.424445 0.210645 0.109966 0.050654 -0.036247 -0.133888 -0.331586 0.154153 0.313411 -0.081046 0.10194 -0.063442 -0.520147 -0.232423 -0.547739 0.195655 -0.066053 -0.026521 0.186097 0.191084 0.247666 -0.296516 -0.110181 0.206618 0.120696 -0.354062 0.216559 -0.099804 -0.360119 0.31864 0.210658 0.026484 0.163331 0.236709 -0.056396 0.016821 -0.108485 -0.384459 -0.486444 -0.08825 0.532944 0.321581 0.129812 0.574755 0.090896 0.247661 0.155368 -0.327642 -0.266209 0.230764 0.057969 0.119431
verse -0.371525 0.476229 0.316733 -0.613137 -0.070011 -0.080422 0.110212 -0.333497 -0.244174 0.59194 0.436572 0.559754 -0.252052 -0.115351 -0.346439 0.493518 -0.10103 0.454774 0.796089 0.004392 0.017057 0.619539 -0.094546 -0.43799 -0.40046 -0.219064 -0.603692 -0.007451 0.475307 -0.145598 -0.063016 0.240815 0.335775 0.01267 0.471589 0.122895 0.184978 0.189921 0.074005 -0.346886 0.340654 0.605724 -0.472879 0.246492 0.08026 -0.117503 0.376567 0.352852 -0.165011 0.324978 0.042901 -0.130691 0.035546 -0.539378 0.258135 -0.117865 0.67196 -0.116308 0.01132 -0.365483 0.161242 -0.06087 -0.251364 0.021891 -0.291098 0.055672 0.759275 -0.067311 0.33087 0.455266 0.027544 -0.413063 -0.164195 -0.20833 -0.220051 -0.178453 -0.481596 0.536718 0.010158 -0.233478 0.621467 -0.036021 -0.048467 0.188653 0.108438 0.186544 0.19932 -0.173106 0.22575 0.360445 -0.123598 -0.373452 -0.128545 0.329559 -0.004023 -0.213848 -0.178586 -0.490813 0.596478 -0.151379
airport 0.123137 -0.182939 0.176925 -0.598266 0.102902 -0.015136 0.133064 -0.120017 -0.029021 -0.936331 -0.38243 -0.120512 -0.109224 -0.06571 -0.344079 0.869781 0.461469 -0.216965 0.374213 0.401603 -0.141315 0.295045 0.053936 -0.577765 0.054462 -0.413382 1.024921 -0.16819 -0.405116 -0.342933 0.748381 0.293981 0.013374 0.734654 0.0994 0.425345 0.205425 -0.168519 0.481843 -0.4185 -0.099773 0.596112 0.282821 -0.10203 -0.229318 0.471925 0.559526 -0.245899 -0.289051 -0.092242 0.237865 0.177801 0.075141 -0.383931 -0.202802 0.398375 0.012953 -0.244721 -0.08145 -0.103277 0.795989 -0.012935 0.520379 0.427731 -0.927846 0.441373 -0.072 -0.142656 -0.32232 0.476051 -0.555469 0.313901 0.093354 -0.122029 0.083192 -0.086286 -0.467731 -0.009795 -0.633392 -0.527914 -0.675187 0.261349 -0.654459 -0.23275 0.361929 -0.039044 0.412334 0.000248 0.725993 0.035061 0.220468 0.64313 -0.481817 -0.429811 0.444463 0.119213 -0.23226 0.428252 0.000248 0.373671
now 0.341871 -0.103154 0.219328 -0.262266 0.163749 -0.226332 0.040308 -0.28515 -0.192455 0.046966 0.065579 0.043355 -0.176029 0.434875 -0.063239 0.307171 0.416517 0.087084 -0.072555 0.331082 0.001537 -0.005522 -0.053343 -0.406703 -0.303464 -0.24223 0.028169 0.157421 0.111037 -0.12356 -0.283594 0.249565 -0.138759 0.1002 -0.400538 -0.265025 0.072358 -0.237224 0.156575 -0.326816 -0.25915 0.095564 -0.148565 0.05791 0.059169 0.160239 0.26281 0.0704 0.164343 -0.031285 0.340419 0.121204 0.195581 0.377807 0.019067 -0.278774 0.448829 -0.121059 -0.061807 -0.013276 -0.098936 0.307192 -0.139403 -0.13797 -0.146499 -0.066891 0.135601 -0.105583 0.265528 -0.050484 -0.17001 -0.011717 -0.147514 -0.213613 0.030495 -0.017195 -0.443449 0.043321 -0.0928 -0.161856 -0.102377 -0.258327 0.15389 -0.226998 -0.014001 0.04667 -0.003502 -0.016072 0.639317 0.258389 -0.112152 0.369018 0.404931 0.104796 0.282194 -0.303627 -0.111916 -0.046931 -0.185583 0.1896
rightnow -0.071022 -0.102064 0.036413 -0.134228 -0.138533 -0.113989 -0.153739 0.163655 0.090297 0.008063 0.350821 0.412241 0.075957 0.283625 -0.584617 0.092867 0.061023 0.492883 0.382862 0.086478 -0.151274 -0.821923 0.115347 -0.535158 -0.222875 -0.479484 -0.030333 0.751634 0.397506 0.302042 -0.01989 0.458207 -0.347776 0.211555 -0.073486 0.047622 0.003266 -0.612153 0.029824 -0.57018 0.20429 -0.614577 0.142685 -0.11069 0.552401 0.019481 0.271321 -0.361767 0.169093 0.174183 0.076891 0.446351 -0.162063 0.182284 -0.300085 -0.305925 0.295334 -0.298412 -0.422653 -0.136143 0.438594 -0.185708 -0.086996 0.224847 -0.247234 0.276536 0.401331 0.32517 -0.132433 -0.061665 -0.055734 -0.06472 -0.098857 -0.34052 -0.151059 0.569759 -0.721174 0.103733 -0.166648 -0.472748 0.407592 -0.003007 -0.200676 0.702432 -0.264701 -0.051225 -0.163616 0.206513 0.728672 0.069251 0.336431 -0.240494 0.286277 -0.104189 0.887123 -0.239638 -0.002057 0.549592 -0.387905 0.598197
sunday -0.319374 -0.450516 0.449646 -0.587259 -0.127817 -0.341654 0.058121 -0.444632 -0.417078 0.048564 0.138639 0.353687 0.089644 0.03952 -0.015743 0.383814 0.539711 -0.14264 0.478294 0.152282 -0.178378 0.191502 0.068308 -0.777638 0.264855 -0.079591 0.004216 -0.369157 0.000621 0.042456 -0.169321 -0.059761 0.055065 -0.175634 0.030095 -0.424757 0.628372 0.13829 0.10743 -0.590264 0.11605 0.178342 0.068552 -0.273319 0.016023 0.045746 0.235728 0.11407 -0.283889 0.073198 0.0552 -0.126679 0.096842 -0.072194 -0.051027 0.247172 0.139292 0.164963 -0.261737 -0.842289 0.240949 -0.174283 0.120014 -0.205008 -0.031928 0.316845 0.384374 -0.024063 0.053712 -0.073245 -0.248502 0.087345 -0.539795 0.073424 0.089231 -0.255376 0.139938 0.10821 -0.086067 0.106276 0.044621 -0.013706 0.051569 0.142841 0.5951 0.27796 0.009786 -0.216184 0.100423 0.43785 -0.770378 0.139873 0.342582 -0.036658 0.494578 0.207527 0.019342 0.2077 -0.428912 0.267832
permission -0.343921 0.084445 -0.117732 -0.04427 0.084191 0.12408 0.34907 -0.346557 0.465854 0.610822 0.504153 0.452002 0.111598 0.363773 -0.434945 0.597791 0.132645 0.077827 0.146747 0.346259 -0.666316 -0.186369 0.11271 -0.220386 0.268977 -0.649376 -0.644523 0.02873 -0.192583 0.045589 0.062557 0.180044 -0.109019 1.05251 -0.052808 0.115738 -0.189404 -0.19908 0.212944 -0.602854 -0.615256 0.275407 0.070022 0.640248 -0.067137 0.828372 0.399732 -0.349621 0.075408 0.703043 0.358182 -0.067303 0.367897 -0.514551 -0.527424 0.440586 0.167893 -0.444717 -0.183497 -0.285008 0.01977 0.273838 -0.450039 -0.171421 0.107604 -0.295643 0.170537 -0.344676 -0.207816 0.130469 -0.273945 0.479917 0.343211 -0.11316 0.720493 -0.492571 -0.24283 0.450868 -0.739658 -0.179396 -0.560446 -0.079135 -0.707862 0.125979 0.592463 0.153139 -0.446254 -0.279173 0.000396 -0.227801 0.347949 0.324292 0.165409 0.23853 0.115778 -0.096765 0.636721 -0.038464 6.3e-05 0.329023
newspaper -0.086108 -0.366993 -0.190056 0.053577 0.124943 0.21164 0.395022 -0.611585 0.186554 0.320938 0.560937 0.226569 -0.464858 0.420638 -0.325556 0.286054 0.468516 0.279559 0.520924 0.567863 -0.331764 0.240631 -0.253246 -0.721389 0.511031 -0.807092 -0.339911 -0.207121 -0.464089 0.17541 0.57093 -0.003733 -0.02701 0.404135 0.030578 -0.186076 0.864297 -0.253139 0.165946 -0.053805 0.309511 0.384742 0.113004 0.051987 -0.18057 0.438939 0.388132 0.161913 -0.066062 0.129672 -0.330617 0.032637 -0.139979 -0.093319 -0.265217 0.085362 0.282771 -0.366114 -0.075593 0.125076 0.061521 0.016584 -0.004137 0.106155 -0.187922 0.364115 -0.020327 -0.768154 0.036181 -0.118876 -0.087329 0.203693 0.068987 -0.018663 0.321693 -0.250467 -0.138756 0.444875 -0.305479 -0.470776 0.653024 0.436292 0.202684 -0.537258 0.744827 -0.157176 0.277191 0.099901 0.300529 0.043941 -0.161197 0.122685 0.50145 -0.19776 0.075708 0.658297 -0.287795 -0.269525 0.053192 0.147816
respect -0.16213 0.02 0.152747 -0.461061 0.137287 0.114914 0.056986 0.021392 0.069155 0.097894 0.236479 0.341376 0.216364 0.259003 -0.328463 0.369886 0.295856 0.496281 0.037618 0.03635 0.078309 -0.047469 -0.223714 0.037044 0.065931 -0.44132 -0.104931 0.133613 0.075255 -0.082618 -0.224569 0.377518 -0.324639 0.550634 0.072593 0.436738 -0.535435 -0.159301 0.021994 0.106043 -0.624373 0.213267 -0.369525 0.196227 0.709197 0.137136 0.220513 -0.29076 -0.777406 0.257019 -0.198879 0.246083 -0.12964 -0.087805 -0.29608 0.486704 0.262681 0.199748 -0.377428 -0.148053 -0.456 0.269971 -0.194923 -0.287496 -0.037813 -0.186669 -0.021364 -0.159112 0.233488 0.226193 0.37039 0.049 0.030511 -0.169837 0.174988 0.119398 -0.057525 0.21493 -0.216564 -0.11988 0.162516 -0.028394 -0.235042 0.564652 0.761833 0.353978 -0.115378 -0.197564 0.404891 0.414147 0.308211 0.239384 0.075799 0.256054 0.319778 -0.442029 0.066122 -0.283637 0.036548 0.11232
ginger 0.120674 -0.112332 0.079183 -0.5167 0.482479 0.22102 0.337241 -0.204977 -0.061612 0.630133 -0.038866 -0.023405 0.603964 0.464648 0.114121 0.029238 0.097327 -0.068649 0.415069 -0.031839 0.442794 0.585192 1.014615 -0.222096 -0.31772 -0.201191 -0.837174 0.221132 0.463005 0.276808 -0.374301 0.369616 -0.427382 0.239802 -0.596894 0.380135 -0.049134 0.004128 -0.229875 -0.564223 -0.145026 0.448768 0.191953 -0.019138 0.146183 0.710828 -0.01044 0.222331 -0.034676 -0.157621 -0.622355 -0.096562 -0.208689 -0.328469 -0.069909 -0.378651 0.153885 0.034468 -0.495194 -0.34658 0.375002 -0.113916 -0.1917 -0.706136 -0.162874 0.430352 0.292286 -0.566589 0.169295 0.080139 -0.184746 -0.124988 -0.050502 -0.061943 0.123129 -0.240055 -0.102454 -0.345009 0.033427 -0.188326 0.197582 0.163856 0.163245 -0.167936 -0.2091 0.020224 -0.299471 0.048882 0.5334 -0.014135 0.135779 0.226252 -0.070284 0.32125 0.505051 0.153424 0.033611 0.04358 -0.459965 -0.265064
teacher -0.027802 -0.155856 -0.036071 -0.253244 0.126821 0.348966 0.170633 -0.368464 -0.25626 0.348362 0.025874 -0.164569 -0.055435 0.244162 -0.197287 -0.159748 0.001667 0.765562 -0.047071 -0.150885 -0.047294 0.185047 -0.095863 -0.731793 0.069911 -0.361804 0.106747 0.103559 -0.056128 0.043039 -0.22727 0.334036 -0.050759 -0.388854 -0.239848 -0.307174 -0.084926 -0.098654 0.234177 -0.328945 0.003495 -0.027301 0.202934 -0.192949 -0.667704 0.667147 0.666201 -0.002616 -0.335463 0.466972 -0.127973 -0.040492 0.506874 0.045885 -0.238077 -0.016052 0.467228 -0.251116 -0.598143 -0.082615 0.07777 -0.229476 -0.058657 -0.149204 -0.282669 -0.036649 0.405239 -0.203485 -0.054942 0.200301 0.492601 -0.489631 0.257986 -0.270691 0.032341 -0.146634 -0.01593 0.645819 -0.199542 -0.153776 0.608211 0.304295 -0.369935 0.409494 0.473625 -0.016234 0.207266 0.221225 0.347764 -0.178946 0.035291 0.205841 0.093964 0.168177 0.699412 -0.25316 -0.240614 -0.167289 0.472531 -0.280581
use -0.040017 0.085471 0.183767 -0.182198 0.019059 -0.073293 -0.368161 -0.387577 0.269341 0.058867 -0.089274 -0.033011 -0.262409 0.092006 -0.258571 0.139728 0.385827 0.176047 0.166229 0.582412 0.034616 -0.093216 0.063143 -0.155059 -0.075114 -0.586658 -0.346543 0.120077 0.105687 0.214528 -0.434321 0.040089 -0.240631 0.378883 -0.403089 -0.048682 -0.302459 -0.095428 -0.189696 -0.265055 -0.419307 0.084501 -0.116911 0.246644 0.130277 0.370311 0.035254 0.097029 -0.124294 -0.23712 -0.075419 -0.265705 0.06658 -0.083116 -0.166563 -0.177849 0.083897 -0.126679 -0.062162 0.01391 -0.29341 -0.066031 0.000764 -0.189844 0.149326 0.069844 0.365471 0.051598 -0.138504 0.031476 0.01999 0.489128 0.369537 -0.513424 0.361858 -0.276514 -0.630573 0.526518 -0.29667 -0.125839 -0.036618 -0.478325 -0.037741 0.457907 0.047105 0.253392 -0.234206 -0.051598 0.104203 0.604889 0.403085 0.010375 -0.236641 0.342165 0.19052 -0.366717 0.0186 0.244463 0.015375 -0.039896
welcome -0.186087 -0.652348 -0.057491 -0.545136 0.091112 -0.219876 0.145979 -0.369654 0.219057 0.174374 0.133627 0.092877 -0.21418 0.312228 -0.216773 0.029971 0.261846 -0.190751 -0.358106 0.12116 -0.209762 -0.076492 0.112474 -0.174603 0.515376 -0.409176 0.005007 -0.303617 0.52901 -0.472893 -0.140592 0.436399 -0.217692 -0.057341 -0.229368 0.238269 -0.181223 -0.221879 0.147344 -0.465227 -0.182897 -0.014055 -0.150505 -0.398978 0.062887 0.250098 0.448629 0.020103 -0.494042 0.525724 0.478718 0.073505 -0.230725 0.042737 -0.049646 0.156165 0.447986 0.235316 -0.211145 -0.225696 -0.421138 0.550719 -0.099033 0.084183 -0.244734 -0.440672 0.080226 -0.254784 -0.220223 0.091086 -0.27118 0.04596 -0.017683 -0.212854 0.137825 -0.373527 -0.544823 -0.30107 0.131664 -0.307083 0.299257 0.327867 -0.053869 -0.250236 0.295614 0.267966 -0.463654 -0.291592 0.003199 0.393281 -0.015568 0.43307 -0.078222 -0.206317 0.613677 0.170727 -0.478182 0.27502 -0.108391 0.312348
islamabad -0.251562 -0.968743 0.517489 -0.229142 0.501315 0.765602 -0.489988 -0.333392 0.33784 0.49251 0.189214 -0.162421 -0.735882 0.200568 -0.56268 0.23215 0.263691 0.060997 -0.091902 -0.238013 -0.219411 0.154319 -0.05271 -0.326884 -0.458734 -0.36186 0.22908 0.140095 0.240611 -0.177043 0.392528 0.251002 -0.180121 0.538844 -0.194346 0.146555 0.753655 0.712672 0.899499 -0.39604 -0.200121 0.585711 0.067447 -0.746347 0.043277 0.14669 0.34936 -0.065323 -0.221009 -0.370945 0.129224 0.669846 -0.158537 0.199315 0.446524 0.081602 0.147511 -0.005416 -0.494671 -0.19233 0.537762 -0.017823 0.284326 0.231192 0.146972 0.13302 0.173099 0.063547 -0.226321 0.538976 -0.271592 0.871332 -0.250206 -0.350408 -0.385322 -0.5707 0.161132 0.059028 -0.600269 0.356187 0.082209 0.255845 -0.39266 0.43426 0.97222 0.331456 0.166308 -0.045888 0.255991 0.296228 -0.017163 0.569599 0.454141 -0.647272 -0.344653 -0.104442 -0.157343 0.349345 0.003866 -0.051073
islamiyat -0.361494 -0.297293 0.071437 -0.061177 -0.0385 0.377525 0.021801 -0.662009 -0.005023 0.729182 0.220943 0.015562 -0.14554 0.497698 -0.080992 0.051341 -0.160472 0.310629 -0.079482 0.166196 -0.61102 0.155812 -0.036398 -0.03709 -0.587438 -0.208105 0.114172 0.27931 0.261675 -0.049536 0.451364 -0.035529 -0.451192 0.0334 -0.257346 0.147494 0.361245 0.348553 0.617678 -0.508021 -0.370247 0.168949 0.265096 0.082232 0.106649 0.36644 0.300988 -0.046757 -0.245725 0.225637 0.228805 -0.066769 -0.163329 -0.103082 0.156858 0.066542 0.47231 -0.122887 -0.248944 0.041688 0.204963 -0.072311 -0.215243 0.122887 0.278823 -0.047519 0.49465 -0.140348 -0.161126 0.462126 0.223434 -0.131556 0.14139 -0.470856 -0.467352 -0.233068 -0.599857 0.599367 -0.093315 0.308678 0.492194 0.23163 -0.311684 0.540265 0.689464 0.486153 -0.047379 0.030787 0.320453 -0.195283 -0.023779 0.200634 0.395761 0.132774 0.324189 0.1151 -0.267012 -0.321785 0.678652 -0.585853
assembly 0.027965 -0.350226 0.459548 0.375787 0.038251 -0.246901 0.196897 -0.570144 -0.471437 0.16395 0.131668 -0.175788 -0.535787 -0.249311 0.7787 0.025217 0.450449 0.4011 0.299938 0.410315 -0.180113 -0.301819 0.213292 0.179248 0.08741 -0.176606 -0.234373 0.226353 -0.006531 -0.39177 -0.279303 0.082486 0.162007 0.446955 -0.162183 -0.502433 0.132639 -0.488373 0.365476 0.07181 -0.657001 0.406323 -0.255177 0.219691 -0.11611 0.573528 0.150575 -0.224651 -0.06539 -0.019326 -0.199685 -0.161885 -0.133479 -0.233712 0.320327 -0.079567 0.255887 -0.176801 0.42998 -0.139852 -0.08091 0.60773 0.131474 0.283547 -0.293446 0.1001 0.055526 0.433095 -0.035875 0.270219 0.262329 0.060808 0.550621 0.122976 0.165736 0.351077 -0.002717 0.122385 -0.110473 -0.402949 0.423845 0.507285 0.011169 0.551294 0.863533 0.355903 0.12451 0.264631 0.112796 0.270797 0.377126 0.792596 -0.032773 0.06781 0.402124 0.018508 0.187532 -0.110317 0.046583 0.236756
strawberry -0.015469 -0.411669 0.484163 -0.716806 0.324944 0.058996 0.288199 -0.301019 -0.162965 0.504819 -0.304714 0.177269 0.297008 0.006983 0.359187 0.182444 0.479102 0.08376 0.176019 0.268196 0.195894 0.593393 0.903183 -0.426944 -0.248248 -0.05456 -0.54212 0.218127 0.544188 0.145254 -0.286741 0.382436 -0.464379 0.058104 -0.795565 0.257281 -0.057924 -0.06495 -0.077337 -0.369707 -0.041643 -0.228328 0.019119 0.015743 0.019102 0.753366 0.04906 -0.236463 -0.07865 -0.185076 -0.497645 0.027022 -0.507422 -0.363619 -0.006741 -0.20905 -0.209823 0.475625 -0.269727 -0.194232 0.301411 -0.062726 0.013707 -0.683636 -0.132489 0.217457 0.194282 -0.394015 -0.120218 -0.083446 -0.10588 -0.431929 0.137177 -0.144447 0.219376 -0.330882 -0.538793 0.052212 0.142174 -0.051926 -0.032811 0.062839 0.315263 -0.464888 -0.420226 -0.178991 0.07047 -0.016834 0.480228 0.026091 -0.09339 0.20246 -0.327896 0.304836 0.512125 0.088074 0.256458 0.145533 -0.494433 -0.243003
advertisement -0.234139 -0.01638 0.017541 -0.572981 0.296985 0.132745 -0.126877 -0.175524 0.343862 0.17918 0.226455 -0.020739 -0.408625 -0.017291 -0.335854 0.528724 0.290605 0.202543 0.093783 0.4379 -0.247981 -0.356629 0.068123 -0.389783 0.192339 -0.884823 -0.386501 -0.178836 0.231636 0.528496 -0.005352 0.062887 -0.347878 -0.205969 -0.000461 -0.02913 0.620987 -0.305802 -0.135658 -0.171797 0.010448 0.169452 -0.338057 0.29615 -0.004758 0.318473 0.496095 0.103378 -0.065531 -0.101446 -0.039295 0.075298 -0.199924 -0.523347 0.139084 -0.363403 0.453741 -0.32441 0.371464 -0.298197 -0.136021 -0.245298 0.147945 0.244996 0.138634 0.229568 0.069965 -0.5818 0.074569 -0.099406 0.348311 0.009786 -0.088245 -0.099628 0.188473 -0.039615 0.058977 -0.039791 0.000766 -0.420873 0.569181 0.021625 -0.174242 -0.035205 0.172497 0.462193 -0.325442 -0.135234 -0.169725 0.072153 -0.0785 0.149415 0.316824 0.032679 0.148231 0.041331 -0.291075 0.389517 -0.1214 0.108465
obedience -0.180604 -0.445567 0.409253 -0.677086 -0.34371 -0.090011 0.543065 -0.487063 0.316526 0.069714 0.10274 0.672076 -0.285354 0.478107 -0.209255 -0.052141 0.354273 0.399566 0.569188 -0.279452 0.048842 0.033925 -0.151984 -0.541935 -0.319194 0.065959 0.295994 0.192299 -0.07983 0.462713 -0.242951 0.543924 0.442555 0.690206 -0.39284 0.144871 -0.147604 -0.221446 0.42411 -0.094641 -0.227997 0.147808 -0.47872 0.109436 0.410284 -0.340843 0.641454 -0.048214 -0.523485 0.344193 -0.406736 0.339772 0.424952 -0.328647 -0.307142 0.271618 0.149624 0.340458 -0.462436 -0.901866 -0.259267 0.339689 -0.807329 0.119587 -0.537453 -0.133496 0.252536 -0.123861 0.423086 0.321196 0.32048 -0.738024 0.337057 -0.255947 0.346997 -0.002645 0.086971 0.339081 -0.106915 0.146025 0.154827 -0.481149 -0.505775 0.50531 0.257529 0.806706 -0.298377 -0.118225 0.297689 0.58061 0.141373 -0.075217 -0.210296 -0.217877 0.343617 -0.734536 -0.052708 -0.254432 0.486308 0.128039
pity -0.050298 -0.026901 0.069887 -0.735568 -0.33243 -0.145595 0.12718 -0.424139 0.227239 0.39608 0.16318 0.496063 0.272923 0.116672 -0.177783 0.01871 -0.146372 0.739351 0.604909 0.378413 0.064769 0.139528 -0.529723 -0.500837 0.062672 -0.115814 -0.380258 -0.297645 0.303191 0.007715 -0.273495 0.403811 -0.240896 0.441487 -0.533032 0.17939 -0.105039 0.007094 0.181607 -0.06876 -0.129354 0.156547 0.147072 -0.019306 0.119525 -0.047364 0.478779 0.432126 -0.684433 0.123597 0.112425 0.097474 -0.017793 -0.471746 -0.12335 0.187154 0.400585 0.032286 -0.650808 -0.136898 -0.322138 0.097654 -0.228921 0.009621 -0.021995 0.276782 0.136441 -0.154776 0.131675 -0.073343 -0.123229 -0.370789 -0.065045 -0.358825 0.215342 0.23343 -0.151773 0.041649 -0.216937 -0.219818 0.144918 0.330156 -0.262084 -0.032128 0.346296 0.33592 -0.466276 -0.144996 0.554778 0.297906 0.12435 0.303848 0.008582 0.046523 -0.155475 -0.130496 0.039824 -0.642025 -0.577727 0.136851
sad 0.481731 0.126201 0.031125 -0.667514 -0.034577 -0.150229 0.192733 -0.356675 0.438582 0.374505 -0.050057 0.157023 -0.240703 -0.066134 -0.023854 0.272216 0.146024 0.367978 0.591164 0.060181 0.45195 0.117255 -0.496162 -0.542229 0.040935 -0.034288 -0.094588 -0.450345 0.294686 -0.066192 -0.191574 0.335346 -0.344406 -0.195721 -0.043708 0.176829 0.238248 -0.053732 0.54009 -0.577908 -0.506769 0.129701 -0.041202 0.010937 0.348073 0.159932 0.415162 0.090895 -0.506148 -0.064762 0.765313 0.08981 -0.318493 0.316735 -0.019079 0.032615 0.233045 0.349126 -0.480376 -0.08766 -0.115908 0.042204 0.025273 -0.152302 -0.267735 0.160793 0.265291 -0.218062 0.314826 0.176398 0.026355 -0.266503 -0.395731 -0.422252 0.436464 0.117337 -0.106826 0.242668 -0.007121 -0.265901 0.259912 0.806942 0.149638 -0.217365 0.163123 0.044353 -0.151078 -0.424992 0.597878 0.064149 -0.188905 0.116171 0.120464 -0.069841 -0.164668 -0.114992 -0.375651 -0.7931 -0.582077 -0.258832
afghanistan 0.109904 -0.526194 0.519599 -0.052339 -0.016313 0.181338 -0.306398 -0.408914 -0.229566 0.439126 0.406167 0.584825 -0.606504 -0.295363 -0.032207 0.512874 -0.214195 -0.072996 0.141562 -0.382088 0.205177 -0.289395 -0.077926 -0.441641 -0.498086 -0.523402 0.302858 0.165852 0.076649 -0.155714 -0.005933 -0.095742 -0.092115 0.401267 0.026679 0.025421 0.536337 0.488087 0.357121 -0.045707 -0.227072 0.816989 -0.225568 -0.269774 0.069533 -0.218483 0.609752 -0.490975 -0.218619 -0.314425 0.077166 0.48671 -0.279854 0.206853 0.381476 -0.169804 0.215849 0.02755 -0.864202 0.229566 0.107246 -0.024769 -0.418044 -0.276088 -0.096957 0.258288 0.195148 0.076143 -0.345279 0.39931 -0.362608 0.797263 0.039321 -0.548107 -0.291076 -0.425588 0.366644 0.160294 -0.299015 -0.470439 -0.117122 0.189363 -0.092658 0.321088 0.169666 0.509269 0.165506 -0.14333 0.26605 0.383878 0.691877 0.690575 0.633261 -0.549104 0.254703 -0.040277 -0.123597 -0.181095 -0.084118 -0.159775
rumor 0.100987 0.138773 0.460408 -0.490562 0.295209 0.224722 0.469827 -0.01737 -0.035128 0.191562 0.413002 0.401913 -0.010193 0.111822 -0.222574 0.525294 0.25017 0.058232 0.176622 0.111926 0.091067 -0.125338 -0.168497 -0.857249 -0.27189 -0.551629 -0.244729 -0.374904 0.463911 0.088045 -0.027246 0.529402 -0.579058 0.519914 0.131343 -0.325175 0.163134 0.212694 -0.177778 -0.226647 -0.085802 0.516013 0.369545 0.023762 0.153419 -0.155292 0.266256 0.135233 0.296178 -0.267241 0.54877 0.198506 0.297893 0.000371 -0.304534 -0.096029 0.336808 0.73036 0.08769 -0.317814 -0.161393 -0.003379 -0.228467 -0.167819 0.217073 0.408676 0.386273 -0.377864 -0.05276 0.012997 -0.252781 0.390775 -0.11774 0.243241 0.451428 0.033779 -0.697919 -0.424196 0.308452 -0.268994 0.283596 0.147539 -0.05628 -0.077502 0.221018 0.122893 0.145034 0.554852 0.3466 -0.06427 -0.445979 -0.228864 0.43664 0.455501 -0.027499 -0.156844 -0.223442 0.160704 -0.379998 0.3526
alarm -0.271791 -0.236126 -0.16643 -0.44267 0.126756 -0.138937 -0.315462 0.048565 -0.226349 -0.102957 0.03351 -0.47607 -0.262584 0.310125 -0.367714 0.336692 0.278771 0.284675 0.560912 0.454564 -0.084914 -0.09975 0.15633 -0.508404 0.268277 -0.105819 0.44121 0.061919 0.365138 -0.037412 -0.170124 0.336866 0.169034 0.465576 -0.12539 -0.169836 0.586282 0.578979 0.734842 0.122485 -0.192503 0.335413 0.227287 -0.064265 0.426793 0.292137 0.579669 0.292481 -0.335147 0.089094 -0.070336 0.151442 -0.112552 -0.218022 -0.70456 -0.462269 0.17421 0.434345 0.356046 -0.254764 -0.208289 0.346948 0.574305 -0.06434 0.012518 0.7457 0.869375 0.401971 -0.131651 0.064055 -0.088007 0.01906 0.360788 0.041251 0.327667 0.090994 0.031026 0.147735 0.228287 -0.402512 -0.362704 0.128493 0.10013 0.288025 -0.111966 0.229576 -0.201086 0.173054 0.307378 0.634747 0.105559 0.049808 -0.258383 0.034631 0.31 -0.260744 -0.729126 -0.055836 -0.058529 0.005109
alhamra -0.374516 -0.70118 -0.297693 -0.246533 0.000936 0.456116 -0.04921 -0.149926 -0.352669 0.678653 0.025893 -0.035384 -0.128391 0.044829 0.170347 0.142735 0.084013 0.316431 -0.18816 -0.078355 -0.413251 0.897314 0.152832 -0.642635 0.020424 -0.463234 0.261812 0.107505 0.273352 -0.134299 0.597854 0.359094 0.070307 -0.002788 -0.225488 0.421707 0.275203 0.395679 0.816478 -0.623078 -0.709218 0.652781 -0.134384 -0.23536 -0.100259 0.473935 0.249171 0.147619 -0.125512 -0.114891 0.363885 0.107171 -0.021279 0.146332 0.438032 0.142859 0.268437 -0.491625 0.084398 -0.104385 0.664065 -0.047053 0.231282 -0.049503 -0.019033 0.280055 0.343727 0.047906 0.066762 -0.105269 -0.550197 0.05667 0.09294 -0.231728 0.021691 -0.20213 0.065802 0.007713 -0.481584 0.080242 0.088344 0.104557 0.011205 0.437691 0.724456 0.199876 0.103342 -0.019219 0.473609 0.488413 -0.630121 0.643155 0.223066 -0.460247 -0.232761 -0.009608 0.338584 0.047221 0.104461 -0.271427
words 0.085551 0.698919 0.383801 -0.708637 0.051426 -0.16207 0.049091 -0.606079 0.230164 0.541386 0.35012 0.650063 0.41886 -0.401298 0.081926 0.000766 -0.276955 0.231984 0.574458 0.44153 -0.411306 0.495662 0.160073 -0.156579 -0.323481 -0.415379 -0.138962 0.215699 0.520969 0.125361 -0.450492 -0.130766 0.035896 0.614083 0.182422 0.031392 0.099355 0.296485 0.145174 -0.03324 0.112295 0.472095 -0.585937 -0.255216 0.003991 0.253012 0.427466 -0.005577 -0.12853 0.38011 0.141962 0.109689 -0.223108 -0.225034 -0.19517 0.041552 0.47536 0.224224 -0.247041 -0.049868 0.277606 0.110928 0.066955 -0.049696 -0.033208 0.071608 0.765626 -0.023056 0.262574 -0.022817 -0.156457 -0.457982 0.020654 -0.202852 -0.156026 -0.003745 -0.25891 0.553635 -0.47149 -0.234355 0.43399 -0.315513 0.075713 -0.012256 0.528312 0.198541 -0.041794 -0.38985 0.261069 0.045233 0.579894 -0.27684 -0.096715 0.294803 -0.027345 -0.068731 -0.625732 -0.400761 0.474968 -0.299947
word -0.309341 0.231017 0.304097 -0.411183 0.095253 -0.419043 0.201644 -0.523345 0.040276 0.484869 0.501629 0.582901 0.08778 0.019189 0.103833 0.164456 0.084717 0.616943 0.541953 0.51637 -0.325551 -0.016676 -0.11462 -0.411637 -0.19056 -0.479066 -0.237324 0.084135 0.258252 0.152625 0.015458 0.02203 0.193822 0.241468 -0.090508 0.082535 0.15179 0.200077 0.035107 -0.385847 0.169439 0.187885 -0.190668 0.085796 0.249408 0.327939 0.884873 0.162185 -0.208759 -0.039761 -0.05195 -0.019128 0.200885 -0.202238 -0.19056 -0.314955 -0.029392 0.068996 -0.001463 -0.237161 0.146456 0.148622 -0.21108 -0.360717 -0.304184 -0.050266 0.417068 -0.100971 -0.079354 0.052055 -0.138099 -0.357329 -0.067885 -0.246897 -0.039795 -0.26114 -0.536156 0.751228 0.005783 -0.123352 0.525502 -0.146825 0.093175 0.120426 0.221329 -0.018749 0.134485 -0.328639 0.193057 -0.061156 0.31252 -0.32771 0.189356 0.470663 -0.086526 -0.190363 -0.256019 -0.111394 0.452649 -0.084215
allah -0.756877 -0.218523 0.274069 -0.463731 -0.299711 0.234232 0.315215 -0.499629 0.576148 0.435396 0.170668 0.680189 -0.135956 -0.583449 -0.062711 0.396 -0.138461 0.621624 0.330756 -0.240525 -0.031707 -0.338954 -0.226157 -0.862581 -0.841312 -0.15642 -0.214001 0.524852 0.414204 -0.159951 -0.112893 0.677402 0.863242 0.624189 -0.14811 0.373997 0.16254 0.987224 0.750365 -0.345634 0.360386 0.596336 -0.248267 -0.085576 0.606364 -0.10871 0.437387 0.377378 -0.625263 0.171866 0.28535 0.779049 -0.021975 -0.527694 -0.070428 0.117445 0.059725 -0.168003 -0.499952 -0.233507 -0.332501 0.49307 -0.63542 0.311824 -0.537844 -0.048571 0.577306 -0.24693 0.193255 0.479361 -0.43823 0.209123 -0.033196 -0.411187 -0.287552 -0.029706 -0.174623 0.273236 -0.535684 0.176696 0.323534 0.208673 -0.232299 0.163837 0.431771 0.452516 -0.19822 -0.385217 0.650559 1.043579 0.245951 0.248629 0.054948 -0.096206 -0.031312 -0.479208 0.192127 -0.093165 0.356027 -0.26828
cupboard 0.213373 -0.243307 -0.136514 -0.284735 0.335065 -0.158371 -0.096324 -0.525345 -0.014932 0.842977 0.311429 0.306768 -0.112087 0.556583 0.393727 0.381211 0.306875 0.101831 0.202922 0.333052 0.119346 0.381168 0.276503 -0.849594 -0.224175 -0.006637 -0.324331 -0.221002 0.578759 -0.544815 -0.005785 0.557605 -0.104099 0.699644 -0.938008 0.040726 0.361602 0.004961 -0.088225 0.013685 -0.126789 0.540049 0.568313 0.087203 -0.140055 0.330596 0.088993 -0.04957 -0.362632 0.274918 -0.100581 -0.37379 0.09723 -0.117935 -0.201085 -0.481048 0.216231 -0.146697 -0.214743 0.030252 -0.414427 0.287753 0.221732 -0.309753 -0.079397 -0.046596 0.294261 0.542027 0.014017 -0.083324 -0.215262 0.063548 -0.124293 0.160021 0.08849 -0.320655 0.255725 0.341174 0.057579 -0.263235 0.162082 0.298267 6.7e-05 -0.322927 -0.259301 -0.132422 0.01562 0.018984 0.391384 0.571334 0.114715 0.117348 -0.11852 0.455114 0.612488 -0.210013 -0.127456 0.116346 -0.316902 0.065524
closet 0.460187 -0.332281 -0.043998 -0.660238 0.074362 0.013125 -0.510969 -0.4135 0.485715 0.67618 0.527798 0.448594 -0.246161 0.319547 -0.035997 0.456506 0.247067 0.418857 0.044102 0.383732 0.099582 -0.008841 0.101736 -0.916156 -0.226573 0.101844 -0.135909 0.013928 0.416324 -0.662611 0.110719 0.825534 -0.061272 0.470103 -0.630114 -0.15008 0.048689 -0.012342 -0.137473 -0.072427 -0.270926 0.385843 0.260515 -0.058713 -0.377225 0.179432 0.024813 -0.075975 -0.51859 0.201328 0.007708 -0.059948 0.032481 -0.281446 -0.359572 -0.078549 0.508027 -0.465801 -0.556044 -0.34118 -0.452546 0.492726 0.171138 -0.006188 0.089716 0.167038 0.248176 0.675309 0.086977 -0.398225 -0.356893 -0.125988 0.005604 0.341273 0.201182 -0.142848 0.419528 0.333297 0.157558 -0.247516 0.21202 0.30873 0.070974 -0.21996 -0.443541 0.152281 0.069092 0.568463 0.397196 0.422511 0.044232 0.199481 -0.054125 0.488177 0.308238 -0.043635 -0.089848 0.218483 -0.1923 0.20932
election 0.076349 -0.094987 0.344905 0.227287 -0.116463 0.274485 0.524362 -0.827552 -0.200517 0.467422 0.570584 0.714086 -0.163179 -0.09187 0.737242 -0.018933 0.588176 0.286138 0.44985 0.693789 -0.35263 -0.522721 0.170365 -0.383076 0.211962 -0.667876 0.205431 0.170692 -0.11062 -0.006309 -0.472672 -0.191397 -0.383884 0.583119 -0.064232 -0.779637 1.028275 -0.1675 0.594703 0.192455 -0.341552 0.720688 0.113922 -0.057121 -0.443433 0.461325 0.36501 -0.347582 -0.69603 -0.295899 -0.111352 0.451513 -0.542426 -0.307196 0.240663 0.368094 0.760189 0.100593 -0.251523 -0.130023 0.512379 0.416862 0.465732 -0.106983 -0.534143 0.460924 0.061327 -0.2115 0.227459 -0.278089 0.142667 -0.359548 0.024294 -0.38512 -0.167533 0.482341 -0.066856 0.040973 0.098217 -0.595393 -0.021586 0.317202 -0.099745 0.212646 0.532079 0.023072 0.224984 0.253635 -0.394678 0.077981 -0.055525 0.80939 0.404183 -0.545288 0.301176 -0.088728 0.429468 -0.320258 0.398435 0.344464
imam -0.425095 -0.676267 0.422692 -0.36772 0.221462 0.520899 0.023477 -0.164529 0.51819 0.398466 0.190064 0.322731 -0.436367 -0.311187 0.147932 0.313933 -0.139426 0.351117 0.187908 -0.485599 0.020795 0.13394 -0.476127 -0.667418 -0.98109 -0.079273 -0.069204 0.281529 0.094502 0.022281 0.453355 0.623666 0.748606 0.296678 0.214152 -0.097754 0.676145 0.968388 0.881295 0.04651 0.197984 0.518055 -0.023839 0.066674 0.039605 0.130215 0.301385 0.196163 -0.377757 -0.23607 0.457535 0.20245 -0.144087 -0.265888 0.081348 0.119267 0.36265 -0.229251 -0.278109 -0.413313 0.275819 0.026242 -0.096617 0.087436 -0.578771 0.288473 0.438439 -0.324888 0.010202 0.438127 -0.772969 0.459061 -0.008925 -0.432496 -0.094941 -0.451473 0.088372 0.143737 -0.552525 0.026616 0.345722 0.421902 -0.213955 0.606004 0.563166 0.704398 -0.03691 -0.148196 0.44737 0.629946 -0.19755 0.725876 0.23947 -0.110709 0.168033 -0.401731 -0.243484 -0.158314 0.719946 -0.191586
guardianship 0.500824 -0.419915 -0.183542 -0.205114 0.040917 0.202833 0.513348 -0.142751 0.297168 0.620817 -0.047123 0.308549 -0.24574 0.387904 -0.648655 0.643391 0.285738 0.55381 -0.109851 0.057958 -0.599639 -0.108479 0.260037 -0.409111 -0.029962 -0.256545 0.124581 -0.065047 -0.231103 -0.108551 -0.451509 0.347124 0.056867 0.316068 -0.21436 -0.410943 -0.206046 0.026694 0.415835 0.664467 -0.394474 0.862248 0.44582 0.369659 0.076603 -0.28978 0.069546 -0.380736 -0.3299 0.118765 0.504249 0.654685 0.078836 -0.095634 -0.205058 0.428782 0.089018 -0.249453 -0.503293 -0.84063 -0.112172 0.194066 -0.245648 -0.060727 -0.911077 -0.163855 0.361936 -0.421781 0.123575 0.287426 0.159998 -0.045232 0.752349 0.194676 0.385912 0.147314 0.206901 0.635909 -0.223186 -0.312141 0.152513 0.197077 -0.68784 0.164603 -0.079058 0.173278 -0.410809 -0.079845 0.435121 0.371884 -0.038877 0.0919 0.073629 0.061981 0.451123 -0.491505 0.357424 -0.712224 0.914676 -0.389863
examination -0.163869 -0.355763 -0.357373 -0.026235 0.161268 0.398469 0.121785 -0.663648 -0.042646 0.416095 0.056698 0.203283 -0.140487 0.256268 -0.026371 0.319838 0.191575 0.401565 0.055566 -0.200063 -0.125804 -0.171963 0.177448 0.104666 -0.112874 0.017542 0.389111 -0.35396 -0.243972 0.036037 -0.179178 -0.228575 -0.187894 0.620542 -0.500356 -0.295159 0.121351 -0.189776 0.424433 -0.083784 -0.210275 0.065868 0.239166 0.049776 0.429476 0.391618 0.545713 -0.675317 -0.56237 -0.166462 -0.146816 -0.230337 0.66183 -0.492102 0.360775 -0.015943 0.527468 -0.2174 0.317051 -0.217531 -0.080121 -0.34715 0.28304 -0.147819 0.043637 0.141005 0.579522 0.040543 -0.292402 0.279986 0.193078 -0.250805 0.285345 -0.242951 -0.199176 -0.412478 -0.176393 -0.063228 -0.329802 -0.022742 0.502731 0.011593 -0.583655 0.630885 0.509308 0.023572 -0.006197 0.143592 0.105497 0.261791 -0.208611 -0.03001 0.337261 0.225535 0.355397 -0.269406 0.072998 -0.284346 0.600928 -0.351278
exams -0.125855 -0.140376 -0.176327 -0.171596 -0.036162 0.320702 -0.115129 -0.609688 -0.026746 0.592762 -0.516295 0.000883 0.027236 0.676486 0.201014 0.057045 0.224486 0.324731 0.077547 -0.037094 -0.833811 0.179046 -0.104056 0.127631 -0.391718 -0.450947 0.366564 -0.591112 -0.263134 -0.004262 -0.783011 -0.70394 -0.278636 0.567561 -0.500877 -0.643056 0.072406 -0.246855 0.328937 -1.049422 -0.186631 -0.374704 0.097735 -0.712262 0.232616 0.620119 0.484031 -1.023409 -0.284271 -0.08478 -0.070886 0.211158 0.449648 -0.579365 0.146933 0.501001 0.870458 -0.051371 0.04973 -0.040371 0.444075 -0.560032 -0.172056 -0.080127 0.290292 0.075629 0.603932 0.279026 -0.522889 0.41806 0.155692 -0.83547 -0.298613 -0.245772 0.015647 -0.384845 -0.47665 0.238582 -0.467011 -0.171899 0.233453 -0.454074 -0.739901 0.386489 0.657953 -0.185619 -0.341374 0.234247 0.650571 0.526082 -0.024418 0.352793 0.409179 -0.171485 0.889598 0.041611 -0.147179 -0.064466 1.044768 -0.46209
exam -0.072616 -0.454711 -0.193773 0.1159 0.217631 0.247809 0.028062 -0.523236 0.024526 0.872159 -0.420173 0.306386 -0.13677 0.278093 0.066599 0.157698 0.248343 0.390947 -0.208009 -0.04685 -0.37724 -0.23736 0.105332 -0.068623 -0.306293 -0.00872 0.354074 -0.456517 -0.060159 0.053896 -0.529966 -0.097936 -0.474867 0.545119 -0.518684 -0.292809 0.011649 0.120147 0.393865 -0.466382 -0.122496 -0.142906 0.139529 -0.39268 0.121345 0.963522 0.712169 -0.672406 -0.167215 -0.216 -0.122877 0.030374 0.644224 -0.729569 0.255922 -0.034477 0.792746 -0.164379 0.097448 -0.10117 0.263785 -0.295046 0.290881 0.093819 0.102658 0.174545 0.714623 0.263394 -0.460728 0.232849 0.195366 -0.462948 -0.244922 -0.356017 -0.181305 -0.279861 -0.288541 0.323802 -0.258428 0.199071 0.503401 -0.008617 -1.127581 0.519163 0.330047 -0.44472 -0.223599 0.117132 0.042654 0.266529 -0.228432 -0.14146 0.511001 -0.109743 0.815098 0.081408 -0.004838 0.22456 0.860208 -0.298405
guava -0.006747 -0.258374 0.543913 -0.888022 0.319923 0.001532 0.276947 -0.105054 -0.217267 0.240649 0.103018 -0.036568 0.584654 0.31206 0.255766 -0.02983 0.27791 0.390266 0.496047 -0.000443 0.201818 0.337863 0.637523 0.025279 -0.237503 0.172599 -0.689157 0.145285 0.813615 -0.052827 0.127504 0.107967 -0.418846 0.591566 -0.530832 0.647988 0.120878 0.232701 -0.145731 -0.771058 0.044388 0.184878 0.009829 0.759659 0.106023 0.642423 -0.099806 -0.397504 0.274289 -0.394112 -0.684852 -0.034057 -0.701003 -0.213942 -0.225819 -0.13666 -0.501829 0.213147 -0.300843 -0.267313 0.645276 -0.165189 -0.119707 -0.565387 -0.149328 0.407227 0.43282 -0.445324 -0.338029 -0.02525 -0.056965 -0.187664 -0.032484 -0.234892 -0.047371 -0.259355 -0.5106 0.142484 0.068103 -0.114227 0.532436 -0.109645 0.36339 -0.403724 -0.402501 -0.033192 -0.249276 -0.086201 0.634725 0.476457 0.06837 0.363964 -0.246526 0.355033 0.50977 -0.043157 0.427749 0.249136 -0.093955 -0.53535
america 0.018794 -0.271977 0.121487 -0.418423 0.494103 -0.03559 -0.116125 -0.38854 -0.655025 0.151201 0.310547 0.750913 -0.206917 0.054848 -0.292899 0.625637 0.41103 0.338439 0.350508 -0.392535 0.470204 -0.24701 -0.231863 -0.55733 0.03508 -0.457865 0.208721 0.041742 0.017521 0.223158 -0.141808 -0.312362 -0.322114 -0.23986 -0.342821 -0.046164 0.208566 -0.212622 0.142992 -0.02234 -0.262577 -0.027933 -0.500635 -0.394645 0.316927 -0.402406 0.170849 0.045793 0.192863 0.063988 0.272367 -0.050524 -0.206767 0.020245 0.404674 -0.187123 0.169704 -0.074614 -0.310395 -0.143264 -0.030619 0.165367 0.046201 -0.058356 0.298629 -0.089532 0.065734 -0.02015 -0.338186 0.249368 -0.013211 0.024383 0.324905 -0.246463 -0.175752 -0.167002 -0.161127 -0.058445 0.113392 -0.317146 0.378988 -0.466593 0.141478 -0.413517 0.453009 0.455034 -0.217516 0.116151 0.264927 0.185272 0.687092 0.421109 0.320288 -0.024603 0.217631 0.345666 0.006919 0.077287 -0.239146 0.104554
rich -0.055748 -0.242949 -0.065735 -0.671569 0.245486 0.031624 0.109172 -0.021867 -0.114366 0.53872 0.493462 0.087561 -0.145426 0.090226 0.02676 -0.136368 0.047426 0.364952 0.272896 0.289997 0.820687 -0.092034 0.571018 -0.145868 0.233752 -0.213473 -0.467048 0.122287 0.108708 0.031071 -0.140834 0.198645 -0.300464 -0.227364 -0.473639 0.409428 -0.151098 0.361493 0.054831 -0.233915 -0.402219 0.186253 -0.445194 0.095599 0.162163 -0.110502 0.036855 -0.14521 -0.232681 -0.025742 -0.167781 -0.068205 -0.259287 0.328104 -0.081151 -0.03278 0.078618 -0.186187 -0.378892 -0.207337 -0.419135 -0.194686 -0.081607 -0.284975 -0.070215 0.2108 -0.029774 -0.452993 -0.01638 0.147443 0.140952 0.013743 -0.00698 -0.13948 -0.106923 -0.318429 -0.464369 -0.216037 -0.201843 -0.397673 0.393086 -0.111713 -0.348657 -0.367305 0.02901 -0.3038 0.006761 -0.036117 0.515783 0.424546 -0.06654 0.319351 -0.054575 0.240867 0.09453 -0.012214 -0.109894 -0.028063 -0.094913 0.192712
anarkali 0.073141 -0.67155 0.519723 -0.239019 0.086572 1.112084 -0.309857 -0.237492 0.717034 0.51185 0.984752 -0.242208 -1.071266 0.132667 -0.512019 0.634943 -0.365291 0.431274 0.098812 -0.323292 0.126026 0.548736 0.185161 -0.822191 -0.476709 0.218072 -0.094335 -0.021907 0.805289 -0.614568 0.147574 0.441657 -0.193086 0.388425 -0.122488 0.492696 -0.096232 1.180874 0.501884 -0.043773 -0.209957 1.234151 0.006462 0.303276 -0.601515 0.905044 0.438895 -0.271248 -0.168627 -0.586106 0.551437 0.754746 -0.74236 -0.426432 0.652022 -0.495025 0.3575 -0.063098 0.00961 -0.133267 0.301856 -0.195354 -0.509398 -0.08968 -0.298134 0.68893 -0.179027 -0.100295 0.649224 0.041466 -0.009619 0.148952 -0.357393 -0.472094 -0.682756 -0.207799 0.725064 0.231293 -0.836966 -0.159504 0.375223 -0.168762 0.376499 0.212503 0.122618 0.064204 -0.602957 -0.495886 0.386715 -0.070502 -1.009672 0.346212 0.075329 0.244267 0.106153 0.442481 0.851149 0.580951 -0.039614 -0.899079
pomegranate -0.008426 -0.337354 0.121799 -1.093737 0.003784 0.166187 0.240264 -0.204893 0.124369 0.866723 0.169316 0.151246 0.128377 0.178773 0.746774 0.185026 0.264706 -0.195183 0.675865 -0.172623 0.241968 0.50603 0.87276 -0.012693 -0.484437 -0.338015 -0.855136 0.064099 0.566296 0.047745 -0.280402 0.234905 -0.20589 0.288318 -0.445445 0.252627 -0.004655 0.170506 -0.065179 -0.317559 0.115437 0.331166 0.085561 0.519725 0.763234 0.656738 0.014659 -0.08083 0.313875 -0.034241 -0.713024 -0.140248 -0.625119 -0.164872 -0.290252 -0.291759 0.072765 0.07006 -0.272908 -0.20099 0.3924 -0.23144 -0.090528 -0.961532 -0.263072 0.379659 0.448875 -0.259315 -0.420273 -0.048071 -0.336982 -0.230953 0.013923 -0.019752 -0.04126 -0.17702 -0.087044 0.105255 -0.006076 0.262054 0.217551 0.130184 0.551982 -0.387875 -0.271834 0.05071 -0.337964 0.098862 0.870172 0.207944 0.15152 0.33761 -0.446669 0.319044 0.469927 -0.111057 0.360383 0.139488 -0.203246 -0.32799
wait 0.188089 0.009897 0.160491 -0.222587 0.323784 -0.553846 -0.063144 -0.123389 -0.004602 0.02133 -0.106923 0.228634 0.25517 0.383012 0.072769 0.798334 0.362076 -0.314282 0.127215 0.497206 0.144453 -0.025701 -0.307735 -0.529221 -0.116155 -0.132703 -0.232149 -0.04646 0.541592 -0.160605 -0.604062 -0.157893 -0.654596 0.413141 -0.56351 -0.399531 -0.088407 0.222254 0.189241 -0.575846 0.136167 0.178302 -0.122061 0.202533 0.122812 0.366345 0.770475 0.483861 -0.55957 0.187597 0.382337 -0.022733 -0.051338 -0.261325 -0.096076 -0.242575 0.533533 0.410443 -0.463808 0.030265 -0.242095 -0.110457 -0.308581 0.115505 0.170491 0.094403 0.014112 0.145865 -0.083175 -0.084039 -0.227417 -0.176746 0.012313 -0.228736 0.43041 0.35112 -0.176581 -0.044544 -0.348466 -0.069926 0.034815 0.217769 -0.13328 0.275072 -0.093617 -0.082368 -0.081158 -0.34677 0.343342 0.684426 -0.539552 0.500771 0.066972 0.141255 0.188505 -0.046685 0.216027 0.099008 -0.093213 0.234273
pineapple 0.134498 -0.235945 0.336067 -0.80247 0.360019 0.01241 0.548834 -0.253028 0.01694 0.320106 0.229555 -0.047484 0.780346 0.448715 0.568671 0.224221 0.344402 -0.341723 0.370015 0.132356 0.338633 0.65626 0.889976 -0.27849 -0.299705 -0.103473 -0.753162 0.082333 0.921484 0.042904 -0.091032 0.157584 -0.385776 0.24955 -0.647267 0.692012 0.053994 0.073481 -0.010019 -0.395528 -0.277858 0.355688 -0.149512 0.340345 0.303252 0.837054 -0.068411 -0.404615 -0.157598 -0.2911 -0.266663 -0.029084 -0.635469 -0.532001 -0.199191 -0.182652 -0.250783 0.202981 -0.332587 -0.279929 0.439965 -0.338174 -0.150374 -0.643065 -0.091612 0.62673 0.08986 -0.231788 0.058217 0.027211 -0.194897 -0.180603 0.04746 -0.187548 -0.188091 -0.476153 -0.318557 0.132459 0.239326 -0.082791 0.292231 0.129896 0.162222 -0.461326 -0.39571 -0.039833 -0.134073 0.055944 0.633426 0.093043 0.187838 0.366514 -0.055939 0.464762 0.45733 0.133451 0.126317 0.352932 -0.60345 -0.147568
egg -0.209235 -0.325407 0.387124 -0.497352 0.305537 -0.267513 0.263413 -0.316525 -0.187984 0.683894 -0.062067 -0.32842 -0.017164 0.432218 0.25523 0.207168 0.309115 -0.338163 0.516404 0.294314 0.044123 0.142113 0.979445 -0.227185 -0.39865 -0.066553 -0.760187 -0.20671 0.232843 0.134863 0.034281 0.063602 -0.501478 0.36194 -1.281993 -0.02557 0.162357 -0.168045 0.037022 -0.386886 -0.143715 -0.158404 -0.180587 -0.054253 0.424644 0.276611 0.271414 0.106548 -0.352788 -0.177923 -0.166797 0.140426 0.293933 -0.537475 -0.245857 -0.376104 0.277673 0.145276 -0.080239 -0.33474 -0.182754 0.04301 -0.177043 -0.560683 -0.246376 0.452156 0.070632 -0.181886 -0.094991 0.018726 -0.015531 -0.242963 0.015707 -0.258201 0.130569 -0.305058 0.231831 0.036502 0.654676 -0.434632 0.507781 0.107699 0.227251 -0.086092 -0.146514 -0.002286 0.190523 0.259159 0.695422 -0.27197 0.00188 0.234362 -0.417366 0.129586 0.111256 -0.099237 0.245701 0.34946 -0.189534 -0.342795
india -0.432506 -0.389889 0.418317 -0.05383 0.341524 0.67895 -0.219105 -0.31533 -0.214929 0.61899 0.366667 0.012169 -0.560205 0.492231 -0.376233 0.492702 0.191352 0.324641 0.070823 -0.567426 0.085937 0.059618 -0.043554 -0.377871 -0.350853 -0.30744 0.014159 0.003122 0.357305 -0.015184 0.002059 -0.279407 -0.094356 0.191911 -0.186811 0.279132 0.370656 0.270798 0.396006 -0.319127 -0.302405 0.469902 -0.19183 -0.076777 0.247075 -0.036829 0.519316 -0.188775 0.383359 -0.26188 0.192753 0.033702 -0.14964 0.049444 0.34035 -0.201313 0.153229 -0.030939 -0.296595 0.021173 0.417571 -0.015979 0.115832 0.064456 0.301793 0.043968 -0.309684 0.124319 -0.199542 0.328493 0.415491 0.604096 -0.300558 -0.429715 -0.818316 0.097066 -0.28855 -0.122025 -0.359059 -0.010032 0.435522 -0.136975 -0.112768 0.084626 0.450825 0.404321 -0.423477 -0.337906 0.262037 0.289256 0.309106 0.515193 0.18909 -0.156388 0.097694 0.16099 0.465646 0.193277 -0.22472 -0.31807
english -0.171322 -0.379607 0.286929 -0.148108 0.147179 0.000754 0.112545 -0.341556 -0.036972 0.762338 0.432252 0.376257 0.240406 0.225226 -0.182585 -0.2132 -0.230333 0.053398 0.201067 0.305445 -0.189788 0.812065 -0.075738 -0.266652 -0.040546 -0.520839 -0.169974 -0.085205 -0.131808 -0.056561 -0.051539 0.021956 -0.259301 0.346869 -0.10519 -0.011277 -0.008295 -0.000933 0.26158 -0.341353 0.139916 0.415401 -0.439375 -0.420177 -0.261891 0.29244 0.398261 0.278408 0.309795 0.099139 0.440005 -0.2351 0.193765 0.082657 0.196387 -0.512132 0.071188 0.138368 -0.448196 0.046582 0.260458 0.10182 0.088525 -0.261334 0.156733 0.087218 0.398505 -0.394961 0.149165 0.052858 0.26924 -0.430172 0.522364 -0.492392 -0.444114 -0.589968 -0.480169 0.5005 -0.166039 -0.398336 0.340043 -0.375241 -0.127282 0.11071 0.030658 0.473241 -0.443276 -0.073968 0.135914 -0.281472 0.230375 -0.140806 0.068932 0.253222 0.477084 -0.077252 -0.440844 -0.454498 0.67253 -0.191407
england -0.196792 -0.345413 0.608288 -0.014527 0.519324 0.467864 0.085881 -0.315168 -0.35952 0.496905 0.03042 0.582666 -0.744622 0.549327 -0.386633 -0.032998 0.250026 -0.349126 0.33472 -0.037023 -0.048582 0.381425 -0.15922 -0.802908 0.187212 -0.084329 0.051696 -0.048089 -0.192377 -0.08293 -0.618317 0.092489 -0.374162 0.425621 -0.24334 0.306221 0.787636 -0.346915 0.146176 -0.234061 -0.442839 0.455244 -0.093784 -0.335823 -0.073377 -0.370228 0.013318 0.163372 0.197391 0.136002 0.238595 -0.318675 -0.192222 0.167198 0.244748 -0.030771 0.241295 0.08025 -0.33416 -0.426138 0.137792 -0.057454 0.016359 -0.021469 -0.047232 -0.057621 -0.001119 -0.0726 -0.203902 0.247905 0.171949 0.064503 0.300523 0.058121 -0.254142 -0.265971 -0.18032 -0.520247 0.113312 -0.066382 -0.04112 -0.699066 -0.249511 0.168409 0.151991 0.656993 -0.383623 -0.107534 0.514496 0.03384 0.178539 0.400783 0.142955 0.237891 -0.115544 0.110924 0.144727 0.006724 0.207126 -0.123733
grape 0.320546 -0.592835 0.218783 -0.681428 0.160143 -0.195169 0.408904 -0.051916 0.003603 0.732431 0.168711 0.311104 0.181064 0.266724 0.526097 0.323554 0.293773 0.040194 0.592633 -0.170896 0.901129 0.013813 0.532231 -0.393518 -0.072083 -0.046673 -0.384544 0.078274 0.690987 0.208073 0.038676 0.193305 -0.234098 0.349937 -0.321021 0.119534 0.245021 -0.144578 -0.193502 0.044817 0.130619 0.156176 -0.195138 0.575494 0.116371 0.460341 0.115363 -0.177292 0.147857 -0.041388 -0.374004 -0.018299 -0.406012 -0.080269 -0.148243 -0.245697 -0.521732 0.185033 -0.108031 -0.108722 0.235485 -0.452689 -0.109099 -0.651239 -0.192418 0.412425 0.670579 -0.624292 -0.258004 0.098055 0.144407 -0.46779 0.288382 0.40272 -0.121955 -0.320967 -0.459135 0.266529 0.057582 0.06609 -0.036959 -0.3245 0.662323 -0.435595 0.039358 0.065219 0.076498 0.05526 0.657756 0.157286 0.271103 0.431732 -0.693988 0.149752 0.504273 -0.231048 0.126182 0.135337 -0.231135 -0.23041
and -0.012917 -0.072236 0.153872 -0.080651 0.380223 0.215974 -0.132731 -0.314404 -0.39089 0.017381 0.496787 0.126454 -0.010965 -0.137246 -0.347931 0.031628 0.221417 0.322156 0.12157 0.231264 -0.104375 0.208468 0.358592 -0.070797 -0.030811 -0.316873 0.024779 0.273357 -0.273406 -0.245556 -0.027124 0.105596 -0.112248 0.042952 -0.458354 0.344185 0.082812 -0.172277 0.001535 0.14176 -0.197584 -0.008351 -0.437901 -0.286732 0.05183 0.219029 0.263583 -0.176496 -0.162604 -0.047949 0.027981 -0.186951 -0.209829 0.393807 -0.210327 0.196079 0.448032 0.05511 -0.256761 -0.268089 -0.031443 -0.177367 -0.008331 -0.218161 -0.056748 0.321928 0.23802 -0.103887 0.423208 0.03791 0.192329 0.077386 0.202104 0.033522 -0.105186 0.139174 -0.281777 0.157436 -0.246509 -0.088321 -0.305879 0.052574 0.16912 0.060307 0.013526 0.315663 0.168656 0.321995 0.342573 0.167171 0.044219 0.290613 -0.303087 0.057593 0.208395 -0.137061 0.042971 -0.000409 0.249518 -0.195118
illiterate 0.03946 -0.048135 0.338507 -0.309339 -0.19253 -0.369051 0.038162 -0.47125 0.257413 0.63155 0.648922 -0.007878 0.069381 0.461231 -0.315357 -0.293339 -0.337183 0.830375 0.305784 0.609333 0.199651 0.122333 -0.364833 -0.356461 0.106595 -0.216616 -0.166814 -0.405481 0.076454 0.20339 0.019504 0.201905 0.030358 -0.172932 -0.618294 -0.277575 0.430717 0.226733 0.30509 0.139869 -0.16867 0.083295 -0.501929 -0.165809 -0.006361 0.233493 0.63135 -0.391689 -0.448445 0.056472 0.524479 0.192632 0.268183 0.087638 -0.444179 -0.374793 0.250765 0.142075 -0.695147 0.030083 -0.511895 -0.040243 0.02128 -0.360954 -0.144316 0.142231 0.39904 -0.238029 0.468775 0.279022 0.066065 -0.146059 0.146471 -0.357761 -0.340254 -0.246507 -0.236672 -0.114738 -0.354579 -0.575517 0.29766 -0.158756 -0.534016 -0.607208 0.301407 0.397234 0.449288 0.024194 0.39195 0.079141 0.232994 0.408874 0.206454 -0.227872 0.080728 -0.356472 0.040817 -0.267492 0.805985 -0.387419
loan -0.027915 0.034342 0.040046 -0.521467 -0.224253 0.100388 -0.506898 -0.085734 -0.351512 -0.08476 -0.22496 0.045445 -0.206702 0.465738 -0.060514 -0.400059 0.507602 0.222411 -0.079213 0.224112 -0.248561 -0.312648 -0.075767 -0.380911 0.374102 -0.744009 -0.097836 -0.100265 -0.191535 -0.258514 -0.373899 -0.629573 -0.424652 0.600341 -0.345142 -0.075832 -0.172435 -0.367302 0.421002 0.170023 -0.172865 0.805625 -0.001172 0.43421 -0.084801 0.156694 0.179864 0.094507 -0.636497 0.145187 0.771595 0.745614 0.032161 -0.028616 0.196012 0.229416 0.572848 -0.690986 -0.090935 0.259099 0.501188 -0.802107 0.386541 0.165425 -0.651807 0.199448 0.46409 -0.700883 -0.187265 0.157852 0.180287 -0.34497 -0.052383 -0.197782 -0.104666 -0.13949 -0.391706 0.620717 -0.197912 -0.04363 -0.363976 0.17431 -0.920912 -0.093705 0.156096 -0.052614 -0.075096 -0.436614 0.864226 -0.324444 0.128909 -0.296163 0.322033 0.295364 0.301868 -0.174318 -0.468866 0.190263 0.248356 0.319497
urdu -0.555996 -0.877763 -0.058119 -0.07922 0.071743 0.466998 -0.31764 -0.450505 0.706522 1.062082 0.576324 -0.003277 -0.528534 0.007209 -0.301184 -0.157051 -0.093299 0.40001 0.326916 -0.009933 -0.32717 0.964221 -0.183689 -0.388671 -0.660861 -0.849083 -0.24839 -0.128072 0.26665 0.099984 0.359263 0.093246 0.421828 0.162277 -0.231168 0.071198 0.383613 0.99073 0.684652 -0.681441 0.1649 0.727604 -0.247129 -0.143044 -0.158312 0.599794 0.595882 0.497386 0.010438 -0.305162 -0.020555 0.276389 -0.323576 0.167801 0.429978 -0.641551 0.296565 -0.217167 -0.58658 0.230844 0.838492 0.420899 -0.327951 -0.09752 0.107752 0.423422 0.432392 -0.328062 0.451369 0.025953 0.148875 0.318228 -0.270506 -0.67667 -0.648349 -0.345352 -0.259446 0.751892 -0.73593 -0.130015 0.733623 -0.047557 -0.102719 0.031479 0.860479 0.271713 -0.197666 -0.335788 0.134629 0.22252 -0.093295 0.024607 0.521403 -0.137882 0.28224 0.329134 -0.334564 -0.240539 0.978554 -0.868724
principle -0.229233 -0.028394 0.399098 -0.702911 -0.069419 0.100162 0.398829 -0.413937 -0.005846 0.05778 0.183909 0.250912 -0.138334 0.274428 -0.311609 0.163361 0.418721 0.711129 0.588721 0.04598 0.134497 0.008703 -0.020939 0.021881 -0.173599 -0.237513 0.106402 0.282335 0.132888 0.099997 -0.208903 0.179426 -0.14157 0.514083 -0.078877 -0.016215 -0.317697 -0.45666 0.120512 0.13879 -0.28088 0.240886 0.073789 0.515349 0.226023 -0.385289 0.154217 -0.03367 -0.441071 -0.00966 -0.094352 -0.025622 0.437791 -0.324596 0.130965 0.222291 -0.049115 -0.146383 0.212446 -0.418788 -0.265953 0.579582 -0.042273 -0.110683 -0.043507 -0.246579 0.099275 0.214566 0.209724 0.152697 0.116652 -0.080408 0.133652 -0.623982 -0.149194 0.19124 -0.429174 0.233765 -0.119647 -0.196631 0.476006 0.041238 -0.158361 0.529382 0.521572 0.394653 0.361881 0.278423 0.416906 0.337426 0.308639 0.052868 -0.018789 0.26538 0.135541 -0.709421 0.244236 -0.10161 0.234056 0.023391
