763 300
ؑ -0.14458887 -0.14125255 1.201933 -0.19807513 0.20571646 -0.14401586 0.708721 -2.8945687 0.26116216 -1.620129 0.28997967 -0.4949241 0.2524305 0.74839747 -0.35135344 -0.64004666 0.5746029 0.027237367 1.2105811 0.6288235 0.20858528 0.21018505 -0.74243593 0.7765546 -0.9659168 1.3107718 0.4579961 0.5922236 -1.8157185 0.07866137 0.30857596 -0.47354478 0.055551812 0.28567016 -3.1986187 -0.57502365 -0.64316237 1.3500651 2.2448442 -1.2006625 0.7634946 2.734645 -0.13055715 2.6133904 1.2398127 -1.9450853 -1.4301797 0.50181544 1.8281324 3.918545 1.9849918 2.5184398 -0.7848634 -0.45005858 -0.1939824 1.3226701 2.8693933 0.1173131 -1.8271238 0.39713222 -1.6157452 -0.7615847 -0.59269243 0.91824657 -2.8972857 0.82559896 -1.3245319 -1.1503608 1.2016715 -0.11906491 -0.1306789 -1.0990092 0.28286338 -1.4153485 0.5606488 0.2849275 0.6955112 1.3896773 -0.3694316 -0.9790617 0.3972813 0.6413041 2.9890938 0.82998335 0.6788148 -0.122134484 0.14132199 2.1639035 0.24218583 0.8221047 0.05646049 -2.8215063 1.1506456 1.2481385 0.022268347 0.8448604 -0.54277533 -1.2970059 -0.49514467 -0.096717395 -1.731546 3.0177495 -0.4803161 0.6062348 0.44077957 0.4142041 -0.9760683 2.459404 0.43033528 0.4056835 2.0111835 0.32303336 -1.1430819 -0.48106086 0.9299687 0.99453884 0.93890554 1.0208439 1.0329622 -0.47995114 -0.75361496 -0.13882592 -0.47341475 -1.8975631 1.297853 0.42828986 -1.1199878 -0.00809852 0.33525804 0.121883206 1.2823628 -0.32400808 0.25791577 -0.38549072 -1.5092262 -0.19754973 -0.0644769 -2.1728897 0.34845608 -1.5307025 0.670856 -0.24855053 -0.1246981 -0.21639162 -0.20166488 -0.9621565 0.2897472 0.028134542 2.143287 -0.20277873 0.5153896 0.88965946 0.39578807 1.8516011 2.251017 0.17038293 -2.152346 -0.88420707 0.9803548 -1.014122 -1.5532078 0.85571146 2.487129 -1.7841778 -0.9600749 -0.22447263 0.772538 -1.4493024 -1.210676 1.3503557 0.6216392 0.33070967 -0.7030537 -0.24796169 -1.3777837 0.9926977 -0.22840028 -1.0278182 -2.873104 0.39862293 -0.110431254 -1.2878557 0.16785866 -0.089144535 -0.46401516 -0.6738124 1.8613303 -1.5654532 -0.9710352 -0.33620512 -0.5742463 0.15688926 1.5608641 -0.30250576 0.4338217 -0.9016625 0.23661157 1.1399491 -0.36865443 -0.536439 0.6369447 -1.6261522 1.0441546 0.5960178 0.1351372 0.35588717 1.4095534 0.6729125 -0.064070895 -1.0905098 -1.6132587 -1.1010358 -1.2485312 -0.3971808 -0.062999494 -0.2907948 0.36331034 0.45308244 1.530708 -0.5398166 0.4200995 -0.83924234 -1.6406962 0.40348354 0.11620967 -1.7293549 -1.1395104 -0.87859726 -0.33291566 -1.1267822 0.07224566 0.9104027 1.0733305 -0.8031822 1.7552671 1.4915209 -0.08653171 -1.2236977 0.12624146 -0.07629662 0.037985697 0.12686124 0.13385636 0.305146 -0.41091383 0.3294256 0.4625632 1.6500305 1.3339453 0.41712388 0.34581402 -0.1953061 -0.66899157 1.8772948 2.0519526 0.49973443 1.1445036 -0.7995465 0.54685277 -0.48257565 -0.49348006 1.021456 -1.2520548 -1.031586 -0.97125036 0.38256228 1.4464567 0.8461555 1.0039483 0.6722425 -0.395189 0.13422148 -0.81546193 0.53064275 -0.8752143 -1.3156047 0.5678993 -0.19803345 0.2952494 -1.0375577 0.048113845 0.48131746 2.2509172 -2.1687367 0.7822011 0.74586725 2.0331442 0.5939614 -0.32002252 -0.5472344 0.14979602 0.33490703 0.048929766 0.045852456 -1.7280141 0.21922901 0.028414242 -0.8717476 -1.4041449 -1.4463614
آ -1.9090868 -1.1236236 -0.33272505 -2.038009 0.63087475 -1.2455658 0.5637089 1.0941333 1.3818123 0.32355496 0.89208454 -0.63276184 -0.008233824 -1.1391233 1.0842277 1.0696859 1.0584706 -0.30589524 -0.33388576 3.0336869 0.36522746 1.2901868 -1.6224091 0.07679976 -6.465219e-05 1.2102187 1.4629209 -0.56653655 0.68854135 -0.41372043 -1.4349322 0.13223018 -1.7043177 -0.8265591 0.6174513 1.1651788 -1.3159463 1.467638 -1.9661782 -1.2870638 -0.12244966 0.11618247 0.57577837 -0.5156244 0.74388397 -0.28488567 0.2403713 -0.3038914 -1.1514326 -1.0613154 -0.016932115 -0.47652614 -1.0309767 -1.8835291 2.3516045 -1.403732 0.9147879 -0.13336259 0.03080681 -0.010241191 0.7393418 -0.22301495 -1.8524024 1.8622701 2.3781257 0.16839448 0.7208119 1.5575923 0.1596859 -0.8309746 -0.19753902 0.26103324 0.16833745 -0.027813386 0.3130636 -0.6707414 0.2160464 0.21248426 -0.42323434 -1.1960065 -0.5271941 0.0855159 -0.0027798275 -0.21360654 -0.9886229 0.6350101 2.2767837 0.23668168 0.9448766 0.015855964 -2.4006426 -0.9181393 1.6975757 2.2618196 -1.903525 0.27072826 -1.0910721 -0.8927341 -0.018493127 1.147337 0.626667 -0.51275307 0.944974 0.3150009 0.6832957 0.5792879 -0.14366834 -0.6428729 -0.686737 -0.111874074 0.32129472 -0.9330081 0.34738734 -0.17158455 -0.56599504 1.5531198 0.71806467 0.68765086 -0.431399 2.3673322 0.42632774 2.1556084 -0.07582922 -1.1756123 0.6119478 -2.521387 1.8445641 0.5359947 -1.351394 0.97499835 -2.059678 0.43723506 -0.89625573 0.97777635 -0.62368333 -0.9916854 -0.41409096 1.8407465 0.82565373 -0.70907444 0.4933029 -0.1513465 0.92262554 -0.6277263 0.0026485086 -1.8445854 0.73710996 0.30941215 -0.5711684 0.272541 -1.1929138 0.14137366 -0.7638378 -0.86047673 0.54805815 2.2016344 -0.46939406 -2.4871175 -0.14198935 -0.38035396 -0.20920317 0.15846395 0.6189358 -1.1653321 -0.35671026 -0.30527753 -1.8005867 0.54378307 0.16648954 -1.8473234 0.9917442 0.059988458 -0.7629691 1.530176 0.7086005 0.86728203 0.2565127 -1.3756609 0.69784576 -0.96582675 -0.78475153 -0.20177533 1.3042973 0.5904418 1.684472 2.9163077 1.3464053 -0.26352087 -0.088424526 0.3830475 1.144774 0.05095834 -1.2594316 1.31146 0.7652068 0.30725968 0.27010068 -0.4667951 -0.84916836 -0.5670242 1.5822144 -0.4965349 -0.6531899 3.125853 -0.58740216 -0.7610917 -0.61138123 -1.332098 0.57778275 0.2598759 1.6834875 -0.62075084 0.7702255 -0.9471389 -2.5806472 3.411095 1.2656528 -0.06441686 -1.6234499 -0.442223 0.7302682 0.62630254 -0.7983142 -0.07416846 0.056699067 -2.4187143 0.50699985 -0.26474985 -1.5451268 -0.25531772 1.4468929 -1.132478 1.2154021 2.0562015 3.0971448 0.13747554 -1.2329816 -0.25697616 1.4578695 -0.7815266 1.5645343 -0.15063496 0.6838635 1.1144301 0.25601876 0.08351966 -1.2884058 -0.13650188 1.5744479 -2.2778692 -0.6742199 -1.8411682 -2.4211864 -0.08562656 0.47058108 1.6814417 0.4800422 1.4950511 2.513891 -2.2703824 -0.11398564 0.30165577 1.1793627 1.227688 0.45481324 -1.0271658 -0.4761038 0.5658205 -0.009008235 -1.5682032 -1.7397475 -1.8481632 0.17858645 0.7180253 -2.0024097 1.2036302 -0.21301049 -2.4415314 0.34576842 0.6880906 2.0013933 2.4599392 1.5890683 0.12574562 -0.75301534 1.0749549 -0.72876513 -0.92370737 -0.8924535 1.0557609 0.89432174 -0.40151775 0.74211055 -0.6920247 0.7276761 0.10769727 1.3504429 -1.0437642 -0.7105459 -0.15248135
آؤ 1.7869469 -0.29332352 0.38167098 0.38509375 1.057849 -0.25266948 -1.1039636 -1.0514165 0.051996604 -1.134774 -0.033649158 1.1049062 -0.94641227 -1.5330722 -0.35164103 0.29511315 0.30370134 -0.21073082 -0.20736846 0.0013788899 -0.09263731 0.25044146 0.84958845 2.1613762 0.76779526 -0.78892374 0.3924801 -1.2376009 -0.5933719 0.37727645 -0.63190967 0.667646 0.97361064 1.3064437 0.6011034 0.41905776 -0.043824323 0.13584405 0.5669009 0.9553534 -0.48596424 1.0096308 -0.6603742 1.3360564 -0.96296746 -0.4869157 -0.018283527 0.146575 0.22415948 -0.52531606 1.3341303 0.4265442 0.6869787 -0.07397033 -0.6697717 0.18433487 -0.8286343 -0.063412465 1.025541 0.9077209 0.42514646 0.062100258 -0.29683456 0.7190125 0.68091744 -0.56478935 -0.5750729 0.0653611 0.5761328 -0.04160324 -1.1256037 2.0936182 0.16392006 -0.63985664 -0.035327 0.82851803 -1.3989568 0.36346704 0.3746412 -0.149724 -0.3387994 -0.7458405 -0.07437893 0.9763301 0.34927675 -0.15519068 1.1283393 -0.32712632 -0.5155317 -1.1555165 -0.77515846 0.13052891 0.4062094 0.6418632 -0.15454748 -0.07970813 -1.4030573 0.5421393 -0.25297603 1.2602396 -0.25527155 0.9874429 -2.1862485 -0.8390703 1.0407985 0.9861558 -0.5552381 -0.61079323 0.03700372 -0.59187245 1.2860367 -0.49414414 0.105447106 1.4728386 0.5263382 -0.93567234 -0.23825295 -0.37618688 -0.102621704 -1.2606844 -0.4896666 1.6282609 0.41278866 -0.33296114 -0.490996 -0.56496674 -0.14884846 0.17176265 -0.39210406 -1.6230946 -0.09903123 -0.095622726 -0.8106809 -1.1718892 -0.35281515 0.14443399 -0.7771348 -0.20743608 1.7891098 0.75731814 -0.12163933 0.35758057 0.47292432 -1.3022914 0.42724004 -0.23672704 1.6564908 -0.15771951 0.50922906 -0.15388611 -0.51875997 -0.84486353 1.0643271 0.74204814 1.1131288 1.384311 -1.1847376 -0.13854106 -0.4951013 0.6929609 0.8819161 0.8608739 0.28572342 -0.56258565 1.3331068 0.6644243 0.65136427 -0.35624883 -0.706766 0.46589068 -0.145143 0.025639528 -0.3770601 1.318471 -0.47830316 0.17983992 1.4582672 -0.3137809 -0.07230197 -0.66213834 0.5112058 0.15675168 0.095527954 0.48591673 -0.42055428 0.9415872 -0.60730845 0.4263769 0.27648476 -0.19831051 -1.0947846 -0.9153813 -1.3991724 -0.04589018 -0.52813864 1.8387508 0.27616954 0.0040323227 0.48163608 -1.0118482 1.5964143 1.5011123 0.49527088 1.1356069 -0.3164583 0.48148265 -0.25353435 0.66598 0.70112896 1.0925351 0.6661461 0.585829 -0.28797382 -1.6607153 -0.1374994 0.8315092 0.8072518 1.6183114 0.5779904 0.5299398 0.16388933 0.10111611 0.946926 -0.45845044 -0.94064707 0.9900345 0.88861746 0.2472199 -1.0225996 0.6368143 -0.07902063 0.5047563 0.37897015 -1.114806 0.037837356 0.57301605 0.43096527 1.0704765 -0.0859049 -0.73937786 -1.0525727 -0.47352496 0.02773349 -1.268774 -0.6906494 -0.49422643 0.22257061 0.3088466 -0.026355099 -0.833308 0.76416993 -1.0340471 -1.2924125 -0.4865047 -1.01658 -0.8784998 -0.19105063 -0.31280926 0.8787872 -0.53055876 -0.49553338 0.79591674 0.42312133 0.26169893 0.18835293 -1.052439 -0.41556066 0.4953689 0.5040818 1.116008 -1.7670728 -0.4326395 -0.12798068 0.00149082 -0.15299618 -1.6447414 -0.059484307 1.6334307 -0.7496345 0.2853359 0.32204834 -1.8975865 -0.12329544 -0.35063997 -1.5170411 1.2240398 -1.1174021 0.16449213 0.011363243 -0.44760707 -0.36370713 -0.40899742 0.8017155 0.0961446 -1.765871 -0.97200876 -1.0994966 0.7336394 -1.8641185 -0.30110812
آؤں -0.15335856 -0.4232371 0.3268851 1.567026 0.8902708 0.015659539 -0.38532093 -0.2711302 -0.5674998 -0.112982504 -1.4033649 0.73813605 1.1364591 -0.50894403 0.611729 -1.268092 1.4756353 0.56946135 0.47583634 0.21049428 -0.43133095 1.4642404 -0.6883029 -0.1002114 0.04244763 0.99537814 -0.4336439 0.27284127 -0.34640715 -0.1794794 0.5018342 -0.9103108 0.30824086 0.4475776 0.34187838 0.62462246 -0.4324733 0.33030045 -0.18825553 -1.1638285 -1.4310548 -0.5157172 0.03880737 0.4770408 -0.75064373 -0.668117 1.0187322 1.2077117 -0.3553691 -0.19857255 0.50563306 1.0551678 -1.8900247 -0.91312283 -0.4555681 -0.8419662 -0.76158476 0.6683738 -0.81353974 1.0607634 -0.38803825 -0.04826102 -1.4164114 0.87029225 0.30543104 -1.8326194 -0.07750426 1.5590477 0.19762188 0.49476814 -0.9914589 1.8681153 -0.60526437 0.16208857 -1.3833506 -1.3141063 -0.27293643 0.5725569 -0.92068374 0.72027916 1.0497015 0.60739744 0.9543933 -0.3461748 -0.72004735 -1.2389758 1.1420554 -1.1318939 -0.31921464 -1.1273339 1.0219136 0.80840147 0.5270464 0.85746604 0.6491211 -0.1703943 0.60224867 1.1386405 0.39626476 1.2917418 -0.30424535 1.0517834 -0.837881 -0.90984285 0.5294532 -0.3653423 1.1342713 -1.1625032 -0.6645807 -0.41371885 -0.2002552 0.023463462 0.41647604 1.5659839 1.4216377 -0.95895076 0.11689111 -0.39669546 -0.111414365 -0.834611 1.9592991 1.6190071 -0.38382658 -1.9419549 -1.7894367 -1.2993273 -0.42200893 -0.32486922 -1.0834103 0.33451283 0.58623743 0.6147128 -1.8758835 -0.3411241 -1.3506222 -1.2304807 -1.1049949 1.0446161 1.8026805 0.28365877 -1.3382816 -0.0706183 0.6953808 0.37325642 0.05371219 -1.745224 0.43215987 -0.47257364 2.1857634 -0.5467606 -2.2211127 -1.8731779 0.13572057 0.7606654 -0.84849536 -0.08345871 -1.3999574 0.04577242 0.39677835 -0.4036693 0.22776264 -0.095804095 0.46572053 0.9550345 0.6451007 1.584804 1.4948941 -0.42808005 -0.034692854 1.183253 -0.56498784 0.09380088 0.38911036 0.31150246 1.3130851 -0.8865442 0.57761 0.03891965 1.1049707 -0.5021189 0.1909917 -0.20980744 -0.20549369 0.76867515 0.14204101 0.39251587 -1.086753 0.63520074 0.16619752 0.20469882 -0.8506661 -0.8651157 0.5422695 -0.32987297 -0.7623964 0.27372012 -0.7264774 -0.7472775 -0.755167 -1.1919805 -0.24691722 0.7869011 -1.0405052 1.3696707 0.06584969 -0.49898344 -1.015716 0.5585533 -0.48765326 0.22419876 0.7941324 -1.3550271 0.01399041 -0.7858404 -0.65695345 1.3651959 -0.42642537 2.0799298 -1.17698 -0.055851936 -0.022150777 -0.03364493 0.48274407 1.0485456 -0.3724588 -1.2231187 1.6620984 -0.3119245 -0.15144347 -0.11184516 -0.861899 -0.46491146 1.1751542 -0.6291054 0.4320389 1.2801688 -0.34406158 -0.02467247 1.9055461 1.1085936 -0.1540344 -0.5289222 0.98409307 0.0754797 1.2318193 -0.955191 0.53619885 -0.59252566 1.0682423 -0.14011447 -1.1526666 -0.3540656 0.108725965 -0.85062826 0.46745604 0.73572177 -0.061452176 0.15689564 0.5923376 -0.48727897 -0.7039016 -0.38687277 -0.73596615 1.2091696 -1.1122333 -0.6244232 0.08155773 0.0010573945 0.24313803 -1.4270782 1.2144605 -0.9676489 1.5262854 -0.04298646 -0.14126734 0.33876026 -1.2868663 -1.9037663 0.06057608 0.89259434 2.0402722 -0.029554334 0.30104202 -0.3812076 -0.1301573 0.65997046 0.24190229 1.3402803 -0.70788264 -0.15170944 0.085078545 0.0021236138 -1.2785445 0.74487615 -0.57538897 -1.1470419 0.24102072 1.1301211 0.5043303 0.47213253
آئسکریم 0.017117294 0.8673146 -0.82753 0.37075484 0.15916365 0.13458493 0.13517924 0.20030847 -0.33614707 0.53716856 0.41734657 0.1403152 -0.72374684 -0.10682461 0.0027998036 0.3617642 -0.18704753 0.35836527 0.3239139 -0.0716326 0.25889075 -0.15946826 -0.24406146 -0.14270848 0.27997133 0.13069475 0.48760423 0.3150936 -0.33601153 0.4244956 -0.019050824 0.08090887 -0.57696265 -0.15882118 0.28527603 -0.14652023 -0.06424722 -0.0074392334 -0.25744706 -0.5741584 0.1370931 0.08345465 -0.017922051 -0.48479882 -0.6973301 -0.24919182 0.14949109 -0.3235235 0.20956552 0.15277652 0.059526864 -0.21463226 -0.23774849 -0.26084495 0.46855178 0.025525674 -0.44257724 0.0718849 0.2910838 0.03769346 -0.32622412 -0.08253974 0.38769966 0.34765482 0.03198019 -0.2911246 0.43200266 0.65231395 -0.19328299 -0.13430434 -0.38559648 -0.0019747817 0.11784193 -0.2964027 -0.68845 -0.09199373 0.19703992 -0.14471304 0.13418417 -0.12972806 -0.24907768 -0.14548013 0.20996161 -0.64925796 -0.42364785 0.02139459 -0.17550829 0.65032744 0.43000567 0.04793807 -0.121030584 0.1743187 0.111616924 0.21913944 0.10483903 -0.09416273 -0.37067443 -0.1657464 0.03394301 0.43045554 -0.22651096 -0.45338327 0.20369706 0.15820736 0.008166742 0.37828994 0.4076253 -0.35715824 0.33308128 -0.18744807 -0.008793142 -0.37224248 -0.108210996 0.067697324 -0.096757166 -0.2119322 0.12567379 -0.5145824 -0.2975017 0.030405683 0.4022057 -0.1335439 0.32518363 -0.08786089 -0.18052872 0.12429086 0.08899652 0.024541559 -0.09664827 -0.39720538 0.070847794 -0.2504176 -0.19508076 -0.0069669476 -0.14238635 -0.24497107 0.025295224 -0.58698326 -0.4058448 -0.08337986 0.47748494 0.15769498 -0.13028088 -0.20655452 -0.016239055 0.18106481 -0.13275509 0.34416813 -0.07852896 -0.17962128 0.098671146 0.113255076 -0.31370202 0.44077772 -0.55988884 0.29285038 -0.08588915 0.3099955 -0.116242416 0.25084165 0.33872753 0.3771441 0.22774263 -0.32961902 0.5614682 0.1225387 0.20581923 0.635967 0.3692441 -0.16637704 0.44055372 0.06332894 -0.49486673 -0.71806 0.24444292 -0.25003648 -0.17478624 -0.7637988 0.4856503 -0.5726505 -0.12399994 -0.9202153 -0.30406746 0.36512226 -0.20646615 0.26842603 0.14433923 -0.29391158 0.08371174 -0.005495304 -0.24892898 0.28698996 0.2756336 0.22636479 0.18495627 -0.012741587 -0.2650444 0.3138111 0.25336963 0.578234 -0.2622696 -0.4801434 0.18568888 0.043194335 -0.00030996557 -0.2695589 0.051256314 0.5917214 -0.07872623 0.18438652 0.16974461 0.22979367 -0.17583671 -0.5042785 -0.16250506 -0.181084 0.45241743 0.0041110725 -0.8830532 -0.43812943 -0.12044677 -0.39349017 -0.22123638 -0.13358352 0.15192387 -0.027505722 -0.22603786 0.4899223 -0.054797117 -0.003076383 0.07693316 0.19718018 -0.50937337 0.38025773 -0.33176935 0.0120585915 0.06973159 0.32224837 0.22003473 0.598552 -0.4436531 0.49942002 0.28935814 0.055441815 -0.3902892 0.40524885 -0.10952738 -0.42255303 -0.22818756 -0.32455882 0.2269488 0.15275103 -0.44186294 0.14664094 -0.7614486 -0.66791123 -0.02531103 0.19693667 0.03101131 0.02192347 -0.5461555 -0.0040891487 0.37904495 -0.4546967 0.17843658 0.17711951 0.038142536 -0.56804824 -0.37865368 0.43603942 -0.038204487 -0.2645508 -0.119190656 0.46326 0.0591175 0.08157705 0.3756229 -0.38440028 -0.27926964 -0.108522326 0.051202923 -0.48632935 0.26347223 -0.013155155 0.33411798 -0.39817637 -0.093526565 -0.10719612 -0.5235903 0.15771383 -0.13546135 -0.18051043 0.42277384 0.12916449 0.04667808 0.28683263 -0.41651526 0.21995513 0.19689485 -0.4394952
آئی 1.1903173 0.027227443 0.9069586 -0.6750861 0.10807944 0.31836927 -0.5750322 0.35406196 0.07597785 -1.6671803 -0.09489335 1.0209298 1.1982981 0.6547995 0.7694764 -1.7114285 -0.07450108 -0.49605298 0.5587637 0.3763764 1.093175 1.1619053 -1.8507692 1.479066 -0.67370766 0.576977 0.64679104 -0.58877784 -0.57143176 -1.1977125 -2.501593 0.28491482 -0.4812708 0.24067718 -0.7167996 1.5163513 -0.03990779 0.763957 -1.3905973 0.96288514 0.577196 -0.90140265 -0.55066985 1.0867801 -2.7514412 0.6762539 -0.24540924 0.75727403 0.3563872 -0.8379393 0.9224407 0.3940317 0.0686156 -0.08448288 1.3647466 0.8092428 -0.19558604 -1.1842122 2.4409068 -0.50648516 -1.0459683 -0.12294247 -2.357571 -0.77770734 -0.54160494 0.80167353 -0.9299055 0.74838006 0.40654585 0.05767995 0.70557463 1.4640725 -0.49715406 0.25176096 -0.2664526 0.09510337 0.40617692 -0.20475477 -1.9878616 -0.7676448 0.14684565 1.445487 1.1681397 0.54549396 0.7034647 0.90052587 0.96508574 -0.6994509 0.18033412 1.2349371 -0.49892536 -0.7184352 -0.5159354 0.78858584 0.9273497 -0.14529468 -0.28477877 0.6630334 -2.115086 0.6160508 0.36955363 -0.47577065 -2.1931913 -1.3980764 -0.43142492 0.4760006 -0.9563109 -2.135776 0.5177213 -0.6748253 -1.25083 -2.9222803 -0.061329387 -0.38496384 -1.6738268 -1.6824665 0.06886473 0.78733397 -0.25680795 -0.13445133 0.64328694 2.4804392 0.7654464 -2.5420656 0.47910708 -0.88593125 -0.8053713 0.44962633 -0.09647714 -0.15676524 -1.3731024 0.52638084 0.0028255866 0.9635227 -0.20762074 -1.0771215 -0.17312154 -0.57394654 -0.16457279 -2.2208302 -0.45132667 -0.33100432 0.5816775 -0.49206334 -0.09208257 0.25991797 0.13670553 0.5437995 -1.4204253 -1.3997642 0.45779815 -0.6980538 -1.8332778 0.22779886 -0.31068593 1.985194 0.14418651 -2.203386 -1.4945886 -0.03144485 0.32027987 -0.07199869 0.005715559 -0.12752324 -1.0922596 -0.14407074 -0.18105726 -0.7408045 -0.117859066 -1.933776 1.0786147 -0.01565519 1.5522392 -1.114263 0.88860947 -1.5159885 -0.79711604 -0.20627686 1.4067408 1.555088 0.5520589 -0.55174625 0.38495976 1.1486902 -0.852975 0.87219626 -1.5251963 -2.7352564 -0.7907609 0.21553545 1.2151638 0.38951007 -0.4408466 -1.4363836 -1.1269401 0.8213273 -1.0936841 -1.4073517 -1.3619053 -1.2177023 -0.54822606 0.685257 -0.6661759 1.1822543 1.3035934 -1.4907044 -0.67051876 1.7150766 0.38925213 0.59354144 0.72194797 -0.002067316 0.34592173 -2.6067436 -0.07046159 0.9595632 -1.4432255 -2.0768235 0.5884488 -2.0948672 1.9325048 1.8233829 -1.8520646 -1.706451 0.99775046 -1.2975122 0.4746617 -1.7890309 1.17048 0.51261795 0.96324587 1.6227598 0.28582197 0.047135115 -0.33532283 -0.71591294 -1.2273128 -0.85748017 0.61117023 1.5249981 0.5955155 0.39941528 -0.030138489 -2.1011865 0.61994773 -0.81411386 -0.68061763 -0.027964815 0.009627849 -2.7349048 -3.0758011 1.5296218 -0.40162194 0.1228941 0.14301638 0.7528999 -0.683324 0.3078542 0.1354321 0.4587962 0.37623498 0.057910513 0.29725718 0.08620563 -1.1671672 -0.92023414 -0.49625358 -0.089432575 0.361775 1.7244152 -1.4255933 1.1641896 -0.9691097 0.8616205 -1.2509996 2.1038969 -2.2610912 -1.8111479 1.3997624 -0.4374214 0.62528044 1.2222812 0.9409425 0.63390803 0.29952416 0.9648686 0.8641946 0.716646 -0.38841033 1.1194866 0.472576 -0.45146793 -0.43188298 0.41047692 0.60521275 1.101215 -0.6286695 -0.11405422 1.0549853 -0.34844834
آئیں 0.44312394 -1.984887 1.4402647 -0.79565394 1.7839936 -0.2646769 0.55753946 2.5887392 0.9830004 0.7272759 0.9919783 2.2857146 -1.72655 0.17962903 1.1742598 -1.5066812 -1.2121596 0.55220425 1.5221686 1.8096597 -0.4947476 1.3095946 -0.06631265 2.166992 0.19796257 1.6054832 -0.101270765 -2.3668146 0.7119649 -1.9125677 -0.09820111 -1.427325 -0.031512603 0.10998734 -0.6853948 0.6246009 -0.5816776 1.0057704 0.8199116 -0.8803352 -1.6254548 0.55619293 -1.2676779 2.1577146 1.4501456 -0.7943497 1.1317368 -0.19247334 -1.4675972 -0.66803634 2.3327355 -1.8777528 -1.0301363 -0.83484477 0.33887488 -0.72288007 -0.85600615 0.8013517 0.45839903 -0.85724413 -1.7064327 0.0035728833 -1.8956496 0.37769252 -0.46363363 -0.394477 0.22898334 1.6770301 0.7009659 -1.3813716 1.5573397 1.7972693 -1.3892726 -0.41873336 -0.7181525 0.025113285 1.0546852 -0.13166781 -0.22144777 -1.0565251 0.19136362 -0.13666691 -0.7627555 0.3254415 -0.13864884 0.25164244 1.5780503 0.12822352 -0.4855203 -0.5537343 -0.36335996 0.37636617 -0.0035096817 1.8339235 -0.6710553 -1.9903197 -0.068442434 -0.77044296 0.46938962 2.0088356 -0.9252478 0.6835055 -1.0752913 -0.5967904 0.12303608 0.3674729 -1.0914516 -1.0361172 0.31810576 -1.8073881 -0.43402147 0.03907603 1.8898115 0.8012413 0.30012828 0.35249266 1.3577338 0.4972438 0.92776287 0.058807228 1.1924101 1.012566 1.8485137 -2.7806857 -2.551539 -2.3919144 -0.87463874 -0.22296004 0.5336436 -0.6674064 -0.939045 -0.6070289 -1.102094 -1.233548 -1.4594032 0.45059472 -1.7570803 1.0082809 0.5291318 0.7634559 -0.5754472 0.47951427 0.7224737 -2.3982687 0.47287762 -1.3940372 -0.20791657 0.39024204 1.4286385 -0.15163222 -3.6144218 -2.122594 1.4817605 1.4508721 1.9152133 0.61852896 -1.3212086 0.07248311 -0.32130432 -0.015420845 -0.08772964 0.85100293 0.4121057 -0.62298965 2.1439707 -0.4888982 -0.6069547 0.62681293 -0.91856885 -0.41554454 0.074039854 0.77748185 1.7703402 -0.57960296 -1.7248666 0.94892466 1.204364 -1.429108 -0.72240335 0.3647434 -0.57143265 -1.624518 0.73666537 1.8624469 -1.571006 1.8372097 -1.2115195 -0.39867398 1.4098284 0.5962467 -0.63511646 -2.2989159 -0.84970886 -0.17079017 -0.4444467 0.5785674 -0.84523726 -1.5264381 -1.2909946 -1.4628515 2.396092 1.4908645 -1.246178 -1.0533512 -0.92354804 -0.67545384 -1.624584 0.30335367 -0.0072377343 0.7347468 2.6461635 -2.1067595 0.24261314 -1.1543026 -1.0713952 2.5351043 -0.6388224 0.98127735 -2.1914587 0.33393094 0.781152 2.0965312 -0.21371949 0.061132498 -1.064996 -0.48419362 0.7237628 1.6791732 0.8097446 0.096128225 0.06875691 2.100151 2.672926 -0.0077206353 1.1451218 -1.0161749 -1.7874233 -0.013475422 2.3523123 1.7493755 1.6842557 -0.11165243 0.6272838 -1.1477783 0.9544605 -1.4536752 -0.7373812 0.8759324 0.37229466 -0.9717165 -2.0947466 -0.24895723 0.23173925 0.40753746 -0.7132222 1.3521289 1.0495164 -1.3819984 0.12887116 -0.637147 -0.039784364 -0.28807524 1.2555224 1.3771706 -2.6250682 -2.5033386 -1.4230844 -0.742901 1.178683 0.9248292 -1.9436301 -0.833104 1.1186949 -0.941614 -2.7896662 0.8157679 0.32109356 -0.97712255 1.8657348 -0.48410127 2.6324692 0.31726056 1.5273159 -1.131754 -0.64441293 2.640258 0.20876192 -0.50792253 -1.6491966 -0.6925341 -0.8705404 -1.0565435 0.16796292 -0.11671699 -0.46180338 0.020101171 -0.90199065 1.5915298 -0.70383215 0.37270877
آئے -1.1564798 -1.4408604 1.7024555 -1.3218269 0.41453934 -0.34607267 0.5989014 1.1907654 -0.083590366 0.4576981 -0.35021988 1.5960209 -0.4957929 0.10266051 0.76396036 -1.2609321 -0.34026295 -1.2052522 -0.3448428 0.6795152 0.41911885 0.5630997 -1.7169033 1.6694875 1.5797206 1.4102151 -0.33800703 -0.5281729 -0.013474248 -0.7777983 0.81648266 0.3605567 0.89041173 -0.20613839 0.44742242 1.738778 -1.4520401 1.095476 -1.0225601 -0.97587293 -1.3271921 0.03372503 -2.2621539 1.1348267 1.2348863 -1.3556654 1.2811606 -0.6191998 -2.079166 0.24302942 2.5322514 -0.20137279 0.024735084 -0.83406174 -0.2140752 -1.0101395 -1.155503 0.920005 1.5562831 -0.26776892 -1.3885312 -0.028876644 -3.7691221 1.8569739 0.14640436 -0.56435287 0.044232264 1.3223705 0.4043859 -1.008196 0.39076895 0.7077614 -1.0025318 -0.33776113 -1.6255083 -0.6099196 -0.5243558 0.05450543 -0.70868623 -0.9878032 0.4507959 1.0601087 0.39006072 0.9177897 -0.7564205 0.5884157 1.7828573 0.5338158 -0.8147306 1.1937656 0.5159171 0.23653427 0.12667443 0.6652601 1.0405995 -0.5415752 -0.1570629 -1.2728722 1.6473207 1.8627404 -1.5479797 -0.6283322 -0.19367361 -0.58847463 -0.31176203 -0.1405204 -1.3575113 -0.7224946 0.15151846 -2.0451248 0.52302504 -0.960978 1.9366972 0.09944923 0.9769923 -0.3740986 1.8629946 1.2254664 -0.16776873 0.4393257 -0.43903303 0.3792457 0.8144534 -2.7159655 -2.4963708 -1.0587255 -1.6181989 1.1593579 0.02956638 0.1250386 -0.76219773 0.15858062 -2.7866008 -0.2621392 -2.882416 0.5573649 -0.40349075 1.4682082 1.1504642 -0.8279855 -1.7376397 1.5073286 -0.5411588 -0.069636375 0.13656478 -0.72960854 -0.20980202 0.96848357 -0.74134153 -1.0686164 -3.6286795 -2.0895429 -1.2741234 1.1356937 0.5080967 0.43076763 -0.57691026 -0.13823453 -0.17595841 0.3882571 0.54221743 0.10367915 -0.07015367 0.8782738 1.454043 0.5221927 -0.37422445 -1.0594475 0.17095794 -0.027593257 0.033513457 0.006613016 1.8825047 -0.028714119 -0.7286045 0.27668276 0.8886953 -1.1606393 0.13724153 2.6041415 -0.6378758 0.26824278 -0.026607778 0.5400914 -0.46418786 0.22284515 -0.74819297 -0.45996997 1.0989678 0.84195524 -0.47691235 -2.432462 -0.95418066 -0.2839853 -0.25064504 0.6554244 -1.1722568 -1.3124981 -0.036450993 -0.76417994 1.9998678 0.41420108 -0.8255386 0.840961 -0.011784141 -1.404132 -1.8487294 1.219251 -0.0030067954 -0.98954314 2.0928473 -3.1029942 0.41106668 -1.3449277 -1.7778276 1.9670688 -0.98243815 0.15287617 -2.0127263 -0.23176049 -0.21101451 1.2342517 0.51103336 -1.0913216 0.17302923 -1.0091045 2.0740707 -1.1204507 0.9282318 0.14046721 0.030311221 0.93829197 1.8729041 0.33207205 0.16698892 0.4444558 -1.3774524 -0.23676108 1.4216928 0.8259863 1.5866721 -0.40443087 0.091997586 0.06871225 0.9854494 -1.7050433 0.14233118 0.49929067 1.3257277 -0.5904401 -2.2115636 -0.10481293 -0.46180424 1.0221931 0.009439387 1.6771473 -0.28599808 -0.13244987 0.16058241 0.054628197 -0.49999934 -0.35109428 -0.33689415 1.6414851 -1.633317 0.37754393 -0.65036774 0.122059315 -0.4287816 -0.16721256 -1.8545482 -0.60218436 0.9634619 0.3856548 -1.8508734 1.4094733 -0.04048802 -2.5914652 0.6436464 -0.90347433 1.9948931 -0.03684428 1.1023335 0.25234923 0.5643127 0.7246659 0.3247566 1.6004028 -1.7620469 0.6395774 -0.4792576 -0.52281684 -1.1774917 -0.3448239 -1.7137753 -0.16240466 0.22208792 1.071895 -0.30762085 0.12100332
آبپاشی 0.84959453 -0.036642686 -0.13521974 -0.050888848 -0.94655395 -1.2942308 0.60689545 0.8989385 -0.3841121 1.8597388 -0.83631116 1.7708063 -0.5577189 0.6905256 -0.49623927 -0.06934928 1.6669005 0.71209556 0.59262353 -0.7033491 0.66370827 -0.5343429 0.2619079 0.19457604 -1.0596598 -0.541853 -0.85980123 0.10799719 -0.8398839 0.45065063 -0.38011548 -1.6289722 0.52479184 -0.48811722 -1.2289312 0.37055725 -1.2411605 0.14265813 -1.4565467 -0.3379895 -0.1164898 0.7941358 0.48309126 -0.933888 1.590578 0.12703943 0.4947832 1.1668023 -3.2555575 0.08869886 0.99267566 0.90589595 -1.0590743 -1.8929074 1.5672222 0.38694724 0.87393135 -0.21488908 -0.9884102 -1.710918 -0.9463731 1.6914394 -0.9340029 -1.1996857 0.25684324 0.8478328 -0.3670128 0.044282712 -0.52122205 -0.5252151 -0.85036296 0.13472891 1.5001512 1.107326 0.21803175 1.0723531 -0.99689335 2.0792522 0.124190904 -1.6192589 -0.043948404 -1.3024532 0.4852189 0.5676694 -0.29323575 0.009831484 -1.1758187 -1.4664053 -0.10397761 1.6875187 -1.6463537 0.47596174 1.5366198 -0.9251942 0.5172793 -1.0816231 -0.71025884 -1.4831767 0.80852216 0.4472553 -0.1022212 -0.16899766 -0.95136195 -1.2558848 1.2259997 -1.2452818 0.7888875 0.35556203 0.24352753 -1.0195029 -1.1804593 0.58718675 0.21612088 -1.7336912 -0.8478087 1.7984515 0.08438581 0.5063586 -0.38019314 0.14651026 -1.1597517 -1.942269 -1.5437773 1.0396267 0.17988558 1.4944241 0.9556787 0.2690686 -0.05478757 0.65931726 -1.6218476 -0.29183817 -0.24269234 -0.42613143 2.23602 1.53424 2.4108727 -0.41310298 -1.1387689 1.6331443 -0.38600472 1.5503538 -0.6593884 -0.29317704 -0.98318934 0.2861664 -0.33469227 -0.4674154 0.03029152 0.16850273 1.306581 -0.6081874 -1.2139158 0.3346474 0.71002084 -2.2093716 0.7210667 0.03519783 0.28902054 0.07230973 -0.034082137 0.69598806 -1.8189576 0.9694288 -1.8230491 -0.053336684 0.721785 0.8034511 0.253185 0.8760139 2.1397498 0.7819545 -0.7215895 -2.0592628 -0.07228309 0.26923683 1.6568055 1.1845084 -1.7928718 -0.23423123 -0.14183886 0.9589112 -0.35375684 0.8609106 -2.9649434 2.421492 -0.06990212 -1.8390157 -0.93257505 1.8409716 0.08631935 -0.58845145 -0.094474405 0.3292886 0.92840016 -1.3868483 0.1247972 1.7077882 0.16693603 2.0290792 -0.9021556 0.40055552 0.13128456 -2.170674 -0.35875317 0.52715325 -0.066534884 0.44754922 -1.2838852 1.1819971 -1.2221926 -0.7110644 1.4392364 -1.4392875 0.23493527 -0.12252559 0.3736908 1.5231436 0.949585 0.79185474 -1.294094 -2.1683915 -0.15481003 -1.092146 -0.9864137 -0.14680472 -1.1556623 -0.10645409 1.1770365 -1.356663 -1.0593812 0.9504876 -0.18235725 1.0890348 1.1721259 -1.1505706 2.3795052 -0.112586275 1.0637212 0.24355698 0.63167375 0.35917345 -0.16066809 -0.21905155 0.31950593 0.16228345 1.169206 0.32267803 -0.120227985 -1.2461504 0.19321944 0.45151716 0.18362959 0.53720826 2.1957014 0.57351017 -0.23068435 3.0753517 -1.658587 1.5300608 0.14932573 -0.49663514 0.36053544 -1.6136991 -1.0138439 -0.37688926 0.0007458333 -0.77793825 -0.055454373 0.4100313 0.2373535 -0.7527277 1.2742568 0.34303898 1.3864555 -0.33320704 0.14789617 0.54966706 0.7658336 0.6159137 -0.43598312 0.07731835 1.7729837 1.368461 0.0445458 1.5400563 0.36774763 -0.25388667 0.012999454 1.3683685 -1.9160451 -0.1492219 1.2067834 -0.63599956 -0.16722895 0.80794245 -0.33044457 -0.8096326 2.462459 -0.33920836
آبادی -0.75652987 -3.3171692 1.2743808 1.3052833 -0.43186694 0.32128286 2.974054 -0.93859583 0.8254095 -0.07171533 1.3840504 0.040775917 -0.0647578 -1.0616293 1.6930867 2.334133 1.9460981 1.5468953 -1.5324562 2.138653 -0.3695132 0.7722053 0.089327246 0.009704985 -0.55381685 -0.9490225 -1.3696138 -0.62212324 -1.9515247 1.7745034 -0.5902577 1.3134434 0.4253601 1.0054322 -0.34212574 -0.04641128 -0.6635001 0.3203084 -0.9153925 1.0801818 -0.19386005 0.9219497 -0.2918414 0.7209201 -1.8645716 0.027705975 -0.53470683 0.9550869 -0.82581586 -0.8099699 -0.30264753 0.5319591 0.046470825 -1.6790138 -0.49072838 0.06948656 -0.5104772 1.467325 -0.29181296 0.5104447 1.404239 0.86190784 -1.5972087 -1.9657018 -1.1360508 -0.7745984 1.8950264 0.83489126 1.5096142 -0.086122856 0.72224385 0.33976534 1.9787022 1.6741077 -1.7099117 -1.269502 0.799555 2.8442085 -0.6505005 -0.2850938 0.6558139 -0.3444875 -1.4445201 1.3885102 -0.29526332 1.3229432 1.112101 1.7452607 1.6232973 -0.78852546 -0.90372676 1.0967863 -0.8677174 1.2194556 -0.045858175 0.40717286 -1.2822888 0.49720374 2.3981018 0.2489653 0.47673094 0.71655566 0.47471392 0.5649928 1.8239524 -0.044793297 -1.3677735 -1.2827047 0.016127253 0.10456227 1.3325794 0.94153374 -2.2551246 -1.6592438 0.92155135 -0.91248083 2.2309055 -1.0456343 0.9399874 -1.4665821 0.008423411 -1.3992296 -0.20620175 1.2639103 1.0653186 0.37413993 -0.14040844 -1.2198803 -0.2923195 0.9035289 -0.14289181 -0.28804255 -0.43756568 -0.80510443 -0.73985374 -1.1310601 -0.32151234 -2.2572985 -1.155545 1.7549212 0.8402943 -0.079312325 1.0167028 1.1648415 -2.4692228 -0.20273592 -0.9162777 -0.72973377 -1.5586277 0.48833013 1.5390984 0.07522502 -2.4405055 1.1854521 1.3682733 1.0958085 0.14404039 -0.6288545 -0.6959672 -0.16816512 0.37978393 -0.48290762 -0.55507994 1.1993065 -0.049100958 -1.4125205 -0.9554496 -0.44492814 -0.7379096 0.4714307 0.4974785 0.17409796 -0.7018802 -0.9925594 0.62302226 1.0351727 -0.9519299 -0.47053176 -1.0613663 0.5414717 -0.0514561 -2.3224368 0.23338892 0.060460612 0.6109803 -1.4254771 -0.087696634 -2.268611 0.12001363 0.55405754 0.049046237 1.0644261 -1.9361639 -0.6719049 -1.5016083 -0.039341807 -0.7322474 -1.1223036 -0.68958616 0.14992958 1.0479716 -0.13406225 0.63516486 0.3648816 -1.1927823 0.4771417 -2.3333387 -0.20645553 -0.21237111 0.6294595 -0.38913122 0.5467378 -0.506912 -0.12507361 -0.9747927 -1.4168844 -0.5021917 -0.37171772 1.5581762 1.5502506 0.41100064 -0.3542985 -1.4224399 -0.87634015 0.7905338 -0.83864677 2.248687 -1.3959961 0.37137017 -0.55631644 -0.81616056 -0.17979974 -0.6665461 0.967737 -0.48685592 -1.8421361 0.86883885 -0.036013544 -1.6130921 0.031280678 1.4810194 -3.1915703 0.20350514 0.3988369 -1.6675673 -0.36895373 0.24117747 1.9260771 1.0557358 -1.7198551 0.676705 -1.1122386 0.9943159 0.3206872 0.60314727 -1.2014359 0.43426925 -0.7701386 0.9930864 -1.1519104 0.3568261 -1.3286347 0.8854531 -1.4932872 -0.6963659 1.1477042 1.6174474 -0.106816664 1.7519884 1.5223904 -1.4041089 -0.10080446 0.3112183 -0.14840877 -1.9777623 -0.1522402 0.33333296 0.25424975 0.54984254 0.056602124 0.20371771 -0.6743703 -0.17849343 1.4220043 -0.9403713 -0.5137931 0.45229426 -1.1384914 -0.59908473 1.2505339 -2.660785 0.69999933 -0.5848259 1.7655678 0.002874943 1.4934345 -0.4350036 -1.3632511 0.34458408 -0.30401468
آج 0.6015195 -0.63945 -0.0048762485 -0.3008295 0.5034232 -0.7939453 -0.48737916 -0.4429964 0.1773069 -1.3068117 0.63133985 -1.3723453 2.0587833 0.58658934 -0.49593958 -0.27581066 0.13334736 -0.3194926 0.112643845 0.4577998 -1.2231467 0.47659478 -0.07060934 -0.7090046 0.6062177 -0.6892044 -1.3862051 -0.5067977 -0.71397334 0.5366343 0.8817645 0.29127547 0.6581066 0.29673323 -0.40543407 -0.13087623 0.71920985 1.5314544 0.17138706 0.2655383 0.01917463 0.9772558 -1.19464 1.5167627 0.27817684 0.1605579 -1.7015367 0.047921743 -0.101786114 -0.0069668917 0.95396686 2.3344314 0.26678365 1.2006814 -0.13705023 0.485341 -1.4276296 -0.4991499 1.1876574 0.7959812 0.3923724 0.45240554 -1.2679249 -0.5197441 0.12789236 0.5631028 -0.06594705 1.8332715 1.0758522 -0.091249034 0.17682375 -1.4755787 0.34149146 0.3507565 -0.622012 -0.19211751 -0.90361243 1.107819 -0.977932 -0.16572446 0.70483536 0.82168627 0.7686323 0.14868851 0.61800843 -0.64358664 1.0283922 -0.326096 -0.9885312 -0.42296275 0.20340735 -0.39975065 -0.06315487 0.2852935 -0.29014128 0.26385707 -0.032358952 0.86338514 -0.060696173 -0.29231125 0.6959784 0.33014455 0.13592958 -0.49577975 0.77671367 0.19635971 -1.088351 0.60471684 0.6649259 -0.8331748 1.4172232 -0.6415008 -1.1678975 0.8073089 1.6916643 -0.21239169 -0.27167952 -0.36825505 -0.86681664 0.14645061 0.73670495 1.1312776 -0.085597284 -0.3551697 -1.0632257 -0.5472557 0.11857751 -0.13008836 -0.34540755 -0.65224165 -0.99747336 -0.42733398 0.47372302 -0.936718 0.014745641 0.26792252 -0.75541157 -0.7057232 -1.0720633 0.26039898 0.14544775 0.58723223 -1.2774103 -0.5210005 1.7537509 -0.17048953 0.49080488 -0.1707541 0.93780845 0.9363868 0.295585 -0.56745785 -0.11226457 0.6875607 -0.59106696 -0.07310728 -0.8264074 -0.7629062 -0.4412612 0.37578577 1.4184791 -0.2510047 -0.21851297 1.0020713 0.21588926 -0.28403586 0.60921055 0.032497585 -0.94378126 0.3284619 1.1878806 0.03203101 -0.35643667 0.3920164 0.029303351 -0.18112198 -0.13815193 -0.26767346 1.0038412 1.4586233 0.58661187 0.20958197 1.4600546 1.4062061 0.9975453 0.70867276 -0.7862761 0.7777773 0.45188254 1.1123586 0.7345196 -0.07896444 -0.059181135 2.042493 0.46182373 -0.086570404 -1.1526829 -1.6005659 -0.8125198 0.14132234 0.17766501 0.69776535 -1.1128026 1.4446317 -0.8734705 0.937601 -1.1126844 -0.3398245 1.3966589 0.023751471 -0.68789446 -0.31956297 0.7839804 0.8859672 0.78805834 1.9860741 -0.13833624 -0.6874965 -1.1537961 -0.42123497 1.0195919 0.39133963 -1.0373385 0.6924864 1.2593788 -1.6359735 0.2984721 -0.04593301 -0.23824915 1.160041 -0.94881284 -0.68605345 0.85416514 -0.07160786 -0.14638197 -1.2604531 -1.5935397 -0.316435 -0.5224203 -0.82117385 1.3891294 0.32195684 -1.0622934 1.3431188 -2.2104828 0.131651 -1.8968651 0.1911419 -0.75532216 0.039582115 -0.30911213 0.0565862 -0.18109088 0.66252655 0.92022413 0.96919584 -0.9042546 0.11755884 0.24796382 -0.0673343 0.014986474 0.84182566 0.018422503 0.00017926538 0.3890829 -0.46086413 -0.55945444 1.0522077 -0.69107276 -1.056004 -0.65991586 -0.77809227 0.5493921 0.40524623 -0.04169075 -0.24336039 0.6158533 0.117845014 0.03533211 -0.037572335 -0.22565375 0.40246886 -0.68793255 1.044455 -0.3284176 0.2682476 -0.725153 0.46181023 -0.035017688 1.0681012 0.26185936 -0.060710885 -0.36474982 0.35218245 -1.4987108 -0.024457159 -0.8024642 0.9028084 0.0042571146 0.033749755
آخری 0.54084015 -0.29285982 1.0364318 0.3103068 1.3260103 -0.30248678 -1.3679067 0.603722 -0.12878014 -0.089527234 0.3378688 0.20882718 0.014504599 -0.09625047 -2.409054 -1.3557564 0.65861225 -0.006915517 0.2995653 1.1635009 0.47706938 0.7571759 -0.23442788 -1.4728245 1.3715012 1.2469733 -0.40077868 0.26194537 -1.2461745 -0.32798052 1.2050258 -0.24015836 -0.6778315 1.2143909 -1.5063888 0.30255473 -1.5971048 0.3024038 0.5608506 -0.9534581 -1.9176639 -0.55935913 -0.44819775 -1.6249259 -0.11501838 0.20186706 0.2179354 -1.8991904 -0.27741477 -0.06237769 1.4788448 1.034293 0.12719193 1.4945862 0.12822747 -1.1284932 0.08371893 -1.3526707 1.5331211 -1.0640812 -0.61123145 -0.06925237 -1.1541433 0.49219644 -1.7823683 0.9395511 -0.71666235 1.4920048 1.3316413 -1.2858571 0.08634361 1.0620254 0.94033414 1.1292821 -0.2315767 -1.2474574 0.1767069 1.0886286 -0.028325757 -0.10341652 -0.40569323 1.4260838 0.39642358 0.6092638 1.9077567 -0.1223636 0.765022 0.94410956 -0.85781676 -0.5508492 0.97277105 -0.21776351 -1.3642498 -1.8671216 0.71372545 -0.91280305 0.3854375 -0.7373051 0.5077295 -1.4806031 0.22348258 -0.8578547 -0.085230805 0.49720833 -0.5102879 0.8876963 0.13816276 0.718848 0.018760253 -0.25614044 0.4377708 -2.0131958 0.32314166 1.0574894 0.24706368 1.518028 -1.2078053 1.6974821 0.56312186 -0.092710294 0.47674668 -0.5008921 -1.4469563 0.48301104 -0.2569016 0.4623862 -0.7925946 -0.0020443662 -1.4864674 1.0369202 1.9219184 0.8114124 -0.23172526 -2.308789 -0.18079567 0.7126786 0.4806083 0.29712352 -0.2622938 -0.2075308 -1.1076629 0.08575648 -1.5521739 0.013514739 -0.6417043 0.23319943 1.3153217 0.5953214 0.27239504 0.48459053 -0.4834924 -0.009022235 -0.28774062 -1.1826792 0.84543616 0.09324745 -1.013566 0.04148951 -0.6629121 0.6294629 -1.3902625 0.40046892 0.8035843 0.56056476 0.35902286 -0.17756821 0.3111761 0.83402956 -0.041432045 -1.2129371 -0.5895978 -0.4217937 1.3975478 0.6839125 0.6703319 -0.12681262 0.71553415 -0.6204567 0.7246124 1.4482232 0.011174324 1.3389294 1.2705059 0.32206953 2.611429 0.6533478 -0.7397799 0.052796092 -0.3232908 1.5879142 -1.4395862 -2.2496834 -0.20364118 0.4746632 0.11187215 1.1448754 -0.38453382 -0.56594324 0.29632553 -1.8974005 -0.8311101 -0.18009585 -1.0075338 1.6251305 -0.35536262 0.5181199 1.4154038 0.6937048 1.1409978 -0.48625907 0.15354587 -0.89605963 -0.6582686 0.7334949 -0.7839344 0.00033764102 0.83623886 -1.7979689 -1.4920517 -0.2959756 0.7225996 -0.23410584 0.4626608 -0.22457106 0.964165 -0.75849354 -0.28459567 1.6389842 -1.2060803 1.9246283 0.019791594 0.2216915 1.2192321 0.22414908 0.26291326 -0.11069127 -2.0806174 -0.27798235 -0.1903106 0.3054709 0.43312046 1.2507417 -0.3730999 2.5493603 -0.6598256 0.74795544 -0.21518332 2.033817 -0.54136604 1.2773979 -0.101324655 0.14280121 1.653304 0.6137848 1.796688 1.426408 0.6831637 0.08079083 0.14667866 0.44999298 1.806823 -0.28360644 0.5517661 -0.9588782 0.22598173 0.30836365 0.7032393 0.52142376 -0.7302172 0.047806147 -0.32736 -0.17397739 -0.42568687 1.5527269 -0.19912773 0.9222334 0.3597344 -0.32030568 -0.32925823 0.25376308 -0.95279455 -0.47399986 -0.1591757 0.53339595 -0.5453095 1.5259762 -0.053557705 1.555892 -1.2174517 0.8309543 1.9536284 -0.07171472 -0.3828253 -0.21190469 -0.8729306 -0.5251594 -2.3860497 1.0949636 -1.9903048 0.5622206
آدمی 1.0600767 0.7308629 -0.91137767 -2.5418549 -0.57199293 1.0748965 1.5083327 1.364873 1.057358 2.3347025 -1.171299 0.31459838 1.3777555 -0.69719803 -0.76724654 0.10652405 -0.12577534 0.046913452 -1.1492617 1.3228084 1.8369982 -0.56802917 0.21008186 2.1705034 0.4347062 0.97125596 -2.0393438 0.9283179 0.16990039 -0.2827972 -0.5405662 0.39946732 -0.9632272 3.053937 -1.1479176 0.284267 0.78345823 -1.2724694 0.050997395 1.6503323 -0.03365511 0.50387794 -1.053283 -0.70165175 -1.7393895 0.6666455 -1.4183654 -1.7030653 -0.8119706 0.89286464 0.64295876 3.5815141 -1.8886911 0.037189003 0.38846964 -0.18784341 -0.54994255 -2.5164497 0.9892036 0.9624892 1.9794188 1.5587183 -1.2090995 -0.28159449 0.13466099 -0.87406117 -0.3997365 -0.020841166 -1.8743399 0.98550546 0.6677634 -0.53550416 0.2926926 -0.24061503 0.31951958 0.0134529965 -0.28096902 -0.11161753 -0.3406497 -0.05738998 -0.3838315 -0.14320229 0.7164537 1.9037046 1.8865147 -1.4986659 -0.60830504 0.52498466 -0.057753168 0.60502964 -2.281919 1.0778385 0.43237305 2.3875573 2.6133168 1.5950677 -1.958484 0.96543044 2.0540123 -0.6477305 -1.1880159 1.2202446 -2.1476133 -1.0588255 1.5240188 0.5070926 0.8792379 -0.120772205 -1.9433419 -1.950316 0.6659456 -1.2063255 -1.7787125 1.8537588 -0.32481062 -1.2863234 0.40287855 0.38565195 -0.45223862 -0.6060955 0.4395904 -0.5841411 -0.37563106 1.1490906 -2.6011798 -2.1809328 -0.36096153 0.16682109 0.15823057 1.3537241 -1.5255733 -0.5364427 -0.45499858 0.47107962 1.5921193 0.69055665 1.0634607 0.8496799 1.1912173 0.23563392 1.1041881 4.8463216 0.9910969 -1.9216036 1.3419331 0.9401584 -0.3408807 0.5453424 0.5229393 -0.030717818 -0.11785949 -0.478801 1.0411319 0.5456507 1.4063114 -1.547157 -1.0959065 -0.12078198 -0.65549535 0.9137909 1.4159496 -1.0386657 -0.58770394 -0.2705918 0.3052525 0.30259156 -1.3747138 0.72930086 0.059576087 -1.6434513 -0.8348619 -1.8069363 0.8589714 1.0877503 0.29763392 0.6614736 0.015050867 -1.824095 -0.06003196 -0.5589275 -0.46491212 1.8406724 2.0399978 -0.90080607 0.011320644 -2.0945666 -1.2419431 1.464547 2.93456 0.33370218 0.032850135 2.538421 -0.42599648 1.2892858 0.9822414 -1.102678 -1.0313344 -2.1070266 0.30492705 1.1498611 -0.0016438458 1.193656 -0.7699953 0.49810535 -2.346069 -0.5433039 -0.65118986 -1.2505652 -1.8497446 2.0681894 -0.62969786 -1.3370885 -0.14023328 1.3507959 -0.5639801 -0.308621 -0.090564534 1.1101393 0.5585888 2.3407354 -0.12588835 -0.39552534 -0.01497542 -0.37194037 1.4117358 -0.82944417 -0.019558996 -1.7828927 -0.107226394 -0.25305796 -2.5614514 -0.3643708 -0.23434608 1.2192143 0.40542194 -2.0436835 1.305908 0.6037098 0.67492473 -0.834504 1.54425 0.8553308 -1.093028 0.80581987 -1.7168103 1.0954002 0.52206135 3.3995142 -0.2477081 0.08261763 0.9245856 0.24291296 -0.4890341 0.5476461 0.60886526 -2.8854258 1.1597124 1.1349711 -0.011110522 -2.99802 1.2164385 -0.6512857 -0.3951499 -0.91770774 -1.3991804 1.5581722 -0.008115753 0.3982421 0.6593367 -0.37583724 -1.4857789 0.652986 -0.43166977 -0.4969382 0.88905543 0.5237852 -0.94067895 -0.40641865 -1.0755485 1.4859109 0.65361696 -0.6197625 1.2772717 -1.4298105 -0.20216684 0.008354533 -0.39947584 0.4563642 -0.8911803 0.47319278 -1.4677931 0.024776563 0.27731597 -0.08523842 -1.6403328 0.862697 -1.3209901 -0.21768178 -0.5164014 -0.6246489
آرام -0.16304086 -0.21932963 -0.23539571 -0.16106287 0.5281581 0.52275866 -0.62022835 0.18703026 1.1643163 0.14603607 -0.327632 0.2878266 0.3405848 -0.56906456 0.6354883 0.79451275 -0.31348264 1.2434255 -0.3343964 0.67134833 1.5704744 -0.38315925 0.9421051 -1.2587802 0.37160602 -1.4812392 1.4376105 -1.9484403 0.72131205 -0.08940394 0.56856316 0.44850662 -0.72882515 -2.2216678 -0.7339927 -2.0729146 -0.6129623 2.0957975 -1.1326848 2.1201627 -1.0922421 0.9228507 -0.8026949 -0.53324026 0.31941473 0.08522625 0.55989844 -3.865585 -1.4763737 0.18539368 0.4212858 1.4631482 -0.11979756 -0.43842125 1.5326451 -0.12520435 -0.7353433 -2.3653755 -0.73728627 -0.7106949 -1.7551816 -0.9055275 -1.11206 -0.64084774 1.0801694 -1.1079696 -0.9550885 1.2792894 1.4131328 0.089743264 0.5249074 0.63977945 -0.20131257 -0.2560199 -2.6851254 -1.6567396 -1.4423659 0.32065186 -0.4837517 0.7601894 1.3182602 -0.10209058 1.0638391 2.4521148 0.38359618 -0.7087735 -1.1120315 1.394524 -0.12553255 0.002723343 1.5477355 -0.31114447 -0.02244848 2.1184244 -1.0099069 -0.59046054 -0.6790819 1.673338 0.73633885 0.66693836 1.560813 0.7368832 -0.39399782 -0.31478852 -0.35696036 0.050654355 -0.5074247 1.4282148 0.19724806 1.1791072 2.0516136 -0.80315536 0.51414514 0.6706325 -1.2943555 -0.93487877 1.5489892 -0.4780074 -1.5060447 0.029584374 0.09770455 -0.104755044 -0.64788437 0.43841785 -0.22088008 -1.0426385 0.12760034 -1.2030196 -3.1714265 1.1920847 -1.1222059 -1.9451741 -0.9772007 1.8125931 0.12348099 0.6921588 -1.9108661 0.19476815 1.7287276 -0.009064979 0.8087432 0.41166893 -0.5235645 0.82028365 1.0433251 0.59670514 -1.3270463 -0.71043396 1.8169256 0.8866133 2.0089278 0.04756242 0.5515856 -0.30018348 -0.047683742 -0.565796 -0.67174834 -0.21690497 0.8965783 -0.293652 -0.45917955 1.1066988 0.04912942 0.24333641 -0.7801694 1.2774844 -2.3017514 0.23908482 0.33211267 0.06029107 0.59544504 0.32148853 1.0404158 1.3527857 1.5936694 -1.2126791 1.0733978 0.0008518609 -0.70796454 -0.002048053 -1.1442764 0.46330813 0.66106415 0.4642926 -0.08756022 1.1529213 -1.5082854 0.8066109 0.13985957 -0.49970716 0.08909682 0.12672581 -0.25621343 0.6703773 -0.19286871 1.148062 -0.15713061 0.99482286 0.28041136 -0.4372039 0.9537535 1.3779299 -2.3845785 0.3572478 -1.0404878 -0.38277495 1.4917166 1.5918771 -0.26531523 1.8951014 -0.26136118 0.3302249 -0.7214583 -1.4901453 0.73666155 -1.1498612 0.9703252 -1.4019403 -1.027721 0.44847298 0.09892401 -1.843941 1.9619007 -2.1155653 -1.4149406 -1.0367227 2.758472 -0.5349016 -1.4412751 -0.21318695 -2.219931 -0.88874745 1.4398313 1.5928557 0.94651586 0.8907916 -0.56966555 -0.869736 -0.17787403 -0.8216236 0.37281138 1.4379946 -0.9814757 0.04771502 0.35670292 -0.2656783 0.13285875 0.41928625 1.6582028 0.21814848 1.4387354 0.11887253 2.5045507 -1.1348025 -0.4656942 2.9240272 -0.27693722 -1.617059 -0.2796173 -1.0482583 -1.0103613 1.9580454 -0.500001 -0.41506597 1.1163007 1.0200307 0.18869996 2.515685 -1.8906113 -0.37072104 -0.33504423 0.8885114 0.053347114 0.30777797 2.612635 -0.98026586 0.16080932 1.9816159 0.41730857 -0.010788738 -0.72802126 -0.031932212 0.25678858 0.9627435 -0.14679964 -0.4736947 0.9496778 1.1150206 -1.7593659 1.1318965 1.1906315 0.02383304 -0.695468 -1.2567834 -1.529953 0.16569695 0.81472164 -1.0629942 0.38976583 -1.4627846
آرٹ 0.7881509 0.5944374 -0.53236866 -0.47114444 -1.3702044 0.95418394 1.4152285 -0.5222721 -0.8006914 -1.0122054 -1.758358 1.77108 0.8718166 1.1731656 0.08980842 -1.4194651 1.9869525 2.8835592 1.0618677 -0.8623667 -1.2633132 0.50910425 -0.3469408 -0.8876698 0.08117803 0.6447075 -1.3009545 -0.46196982 0.13029876 0.35616532 -2.660915 -0.53828585 2.0094392 1.7558582 0.05487179 0.7049269 0.8072043 0.9703286 0.3084994 -0.23734814 -0.6433886 1.4930907 -0.21053043 -1.0115596 -1.0049263 2.1789324 -0.5780227 1.653472 -0.039272103 0.5946828 -0.7236484 1.9542196 -0.047973603 -3.1757157 0.65511215 0.85836864 -1.1542945 0.28869298 0.10876835 0.3072534 0.675596 0.1204208 1.9504546 0.38525972 -1.3565215 -0.74145985 0.9835051 2.03206 0.059593365 -0.26989383 1.3786368 -0.92355025 -0.09102497 1.338634 -0.18540314 0.51835704 -0.9194017 1.1788803 1.0169063 1.5866246 -1.4587874 -0.3115761 -0.646394 -0.03149428 1.5765464 0.45252556 -0.55343014 -1.618215 -1.8059162 0.28948134 -0.18677603 -0.923596 0.03380811 -0.08202 -1.5610921 -0.26780742 -0.13868828 -1.5911148 1.3070892 0.0696635 -0.45907643 -0.9062353 -0.88714135 1.0554209 1.30444 -1.4261527 -2.9064918 2.3523605 2.0598412 0.75159365 -0.0011363782 -0.40874156 -1.2025636 0.15612794 -0.14949214 0.6070153 -1.0232582 1.65776 0.4972174 1.3109618 0.43277946 -0.60741657 -0.01592515 -1.6770203 1.0957077 -0.6920598 1.9426548 -1.5124822 0.2754696 2.3207626 0.42683318 -0.07056234 -0.8832754 0.50481194 2.2062662 0.18700776 -0.4190824 -0.643541 0.24297278 -0.24148025 -0.44595718 -0.051368676 -3.0514681 -1.0246717 0.6111719 0.011947507 -0.8370727 1.0906236 0.6703387 -0.5184872 -0.46455085 0.04682555 -0.7209442 0.73064035 -0.3300206 0.87455606 1.9931202 0.62911654 -1.0942774 1.0693482 1.7818868 0.72044754 -0.23068447 -0.4560723 1.1932784 -0.18058904 -0.33421713 -0.63527215 -0.30477732 -0.5649534 -0.22500406 -0.9805849 -1.0693978 -0.7802984 1.5807569 1.096829 0.887827 -1.2173911 -0.060187314 -1.444712 -0.9509284 -0.7622284 1.2608035 2.4420662 -0.8889031 1.6680772 1.8456643 2.1845808 0.379324 -0.9864477 -0.16236913 -0.23517619 -0.7944336 -0.008516081 0.0929496 -0.5019959 0.43583623 -1.1615473 0.115196146 0.3454262 -1.5298479 1.3577571 -1.720465 -0.07694472 -0.7594511 0.47889036 -2.873946 1.8270419 0.7662502 -3.0650704 1.6910781 0.370365 -1.2356043 1.0420644 0.0695664 -0.15361649 0.8628893 0.5168164 -0.17015377 -0.26708683 0.29417753 0.08503659 -1.1737739 -0.09076832 -0.7630754 -0.81779677 -0.7871056 -0.05438612 1.1354561 -1.5122744 0.6865875 -0.5424628 0.7090853 -0.12284249 -0.86343163 1.4287707 -0.17785853 0.54580814 1.1502639 -0.8904982 -0.237368 -0.45701742 0.011302314 0.2816711 0.80637985 0.19006966 -0.8963754 2.5841463 -0.675987 -1.7271168 2.0542767 1.5570658 1.8781239 -0.69607604 0.53035045 -0.6192171 -0.26187783 1.1237446 0.48697996 1.8956292 0.92388433 1.3931147 -0.27195364 1.4147017 0.7613353 0.045619562 1.9013757 -2.4851902 1.6342723 -1.1945369 -0.010647805 -1.4946095 1.9274933 2.5450492 -0.60020274 0.15929845 1.3207889 -2.0896158 -0.49605045 0.7823299 -0.05111444 -1.7297547 1.2953146 -0.63416505 -0.4732343 -0.47671884 0.65158224 0.37882692 -1.1849997 0.45460302 1.5586019 -0.42798042 0.09874545 1.0348951 -0.97198087 -0.5175887 -1.063092 0.37817645 -1.0925397 -0.07462389
آزاد -0.20185359 0.48932424 1.706667 -0.15540427 0.65453595 -0.824171 -0.028291931 0.9452931 0.5764498 -1.2163311 0.2841994 -0.9113841 1.1320748 -0.46517298 0.18649885 -1.0711089 0.22229709 -1.869244 0.3620789 -0.49182773 0.88994336 1.9118053 1.863443 0.69930464 0.27348244 0.48341933 -0.7732658 -0.6535026 -1.3003501 0.8964451 -2.4310944 -1.050323 0.55186254 1.3666686 -0.008090705 1.2211419 0.28358358 -0.04268947 0.73778385 0.670552 -1.9793061 -0.81110716 -1.3779662 0.8892925 -0.9002307 -0.4226883 -0.6999918 0.083093256 0.39451438 0.7745982 -1.1351022 0.55955327 -0.7532621 -0.3926336 -0.06414584 -0.21491593 -1.2316183 0.53141505 -0.10505786 0.006491624 -0.25341088 -0.092380375 -1.8334799 -0.5402731 0.31849486 -0.44070214 1.1873195 2.463554 0.34707016 0.43908927 0.36530468 -2.0232134 -0.7754748 1.1632304 -0.26327795 1.7562001 -0.9900686 -0.59801674 -1.8270805 -1.2517743 0.57513905 1.2654481 0.3700111 0.6327039 0.75966763 -0.85437095 0.34445623 0.21078648 -2.0431297 0.86741084 -2.3918123 -0.090463445 -1.834226 0.44921005 -0.37153465 0.5936529 0.30905396 1.5092037 -0.6061238 -2.6579483 -1.5885475 1.2487429 -0.057829984 2.179401 -1.2618072 0.41087872 -1.2175256 -0.8660791 0.068379946 -0.39261702 -1.3497523 -0.5111557 1.0780759 0.16923352 2.052498 -0.604646 0.44884357 -0.11842577 -0.6650301 0.18355475 -0.78739125 0.2974443 0.7417582 -1.2638776 -0.70916957 -1.5520228 -0.07288466 0.5881231 -0.7350997 1.0138116 0.15515833 0.73970723 -0.5811529 1.4052775 -2.0489812 0.43887654 -1.446746 -0.45481667 0.06922879 1.8783034 -0.8773405 -0.68231064 0.5978781 -0.24875577 -1.923232 -0.7759654 0.92788976 0.81223696 -0.6049368 -0.1638107 1.6158758 -0.44556713 0.84701794 1.3541158 -0.18484895 0.10607892 0.38997194 0.44967297 0.9475267 -0.23995917 -0.5784135 -0.98391587 1.4054071 1.4974071 -0.17529434 -0.69410336 0.27243125 0.54648066 0.46078068 0.3324444 -1.7105521 1.3727869 -0.46552512 -0.21303898 -0.0147773065 1.278272 0.5393896 -0.7529157 0.008000634 0.96527475 -0.57938874 -1.9841257 -0.121183045 -0.29320994 -0.14528783 -0.41003713 -0.2235656 -1.5584161 1.4208046 -1.2870276 0.13573126 0.7571242 -1.0139502 -0.23709072 -2.8974626 0.79655474 2.199975 -1.0867338 1.0626154 1.5275111 -0.96875525 0.1253369 -1.2148069 -0.9414658 2.0132856 0.11964263 -2.032076 -0.07171483 -0.9918123 1.6591291 0.85258 0.18736449 -1.2674417 0.64272535 -0.12911944 0.5111189 -0.26700753 -1.2927222 0.20184758 -0.14071974 0.13465115 -0.64170545 2.118744 -0.62182313 -1.138003 0.61835426 -0.10637927 0.5501076 1.1686335 0.46859473 0.40074107 -1.617263 -1.097461 -0.9389246 -0.14442542 1.6393209 -0.044459797 0.7898576 0.04539126 1.0951341 0.1939647 0.2952922 1.1504999 -0.38762948 1.6897665 -0.07178279 0.028067179 0.604264 -0.28773582 -0.12520514 -1.0466022 -1.8436052 0.8673836 0.4683902 0.06504268 -0.7827754 0.5127863 0.038691822 1.0384011 -0.46348792 -0.81915116 1.0216689 -0.26857382 0.7410436 1.0894585 0.7079205 0.4553537 0.02496501 0.014005498 -0.32205972 -0.14409536 1.3500966 -0.07332795 -0.034312908 1.8409208 -2.1469216 0.23117456 1.9091446 -0.67835045 0.03947648 0.57513976 0.9985153 1.6461222 1.5893028 1.4838452 -0.8974171 -0.022599453 -0.80085945 -1.1101229 -1.0857887 -0.60363805 0.8364848 -0.13703136 -0.3724024 1.0829808 -0.37826958 0.11054251 -0.16632035 -0.050968256 -0.49003175
آزادی -0.59450334 0.22451328 2.467215 1.7169534 0.25784138 -0.20714527 -0.26751256 -1.9818321 2.2195227 0.75590163 1.1173868 -1.7148682 -0.5132866 0.9654647 0.74002117 -0.5393925 -0.06730993 -1.0947005 -0.24197704 -0.930733 2.2103515 0.8815637 -0.9897224 -0.66585904 -0.5338639 -1.4996376 -0.7077529 1.3335698 -1.5309113 2.2024643 -1.422731 0.13544393 -0.09058806 2.7623715 -0.70238674 1.5425195 -1.0906684 0.48635975 -0.36281294 0.5838514 0.45513865 -0.67183024 -1.0844584 1.8112942 0.25949734 -0.3640561 -1.186497 0.28115284 0.82126945 0.47517934 1.5690105 0.513581 -0.6557967 -0.47008905 -1.9214164 2.2629046 -0.29340914 -1.4276328 -0.433066 -0.7147909 -1.3199631 -1.0631428 -2.3639066 -1.1211923 -1.2089125 0.44372407 0.9152397 1.4257238 1.6046253 -0.25046694 0.5692748 -1.0869949 1.668836 -0.5675577 0.016740398 0.24432014 -0.9932507 2.0595584 -1.6200285 0.3269744 -1.7402238 1.2675946 0.64815 1.6121666 0.12866618 1.6896619 -0.42776173 0.6915043 -0.34836715 0.3661378 0.17492388 0.04675358 -0.37412718 0.2406345 0.16638066 0.76850367 1.5977589 0.71596354 0.5093107 -0.35800096 -1.3092575 1.4419272 0.4895154 1.8381442 -0.7743846 -0.9759352 0.26157808 1.2503939 0.030253267 -0.8464188 0.5254055 0.81558406 -0.87216395 0.97666883 0.44190818 -1.2049031 -0.50320476 1.6146874 0.30511957 -1.4275585 -0.5170356 0.7802358 0.6584233 -0.48196673 0.7794746 0.23041551 2.6056979 -0.44724718 0.11838145 0.00868842 -1.4215397 2.0726557 0.32434922 -0.25794086 0.7498594 -0.4727799 -1.1313459 0.81040895 0.88570523 1.438697 -0.19224451 0.3317712 0.4502793 0.51110125 0.5887792 -1.2243968 1.4530792 0.5605703 0.10786399 0.6596418 1.4249475 -0.44698548 0.7764602 -0.23204297 -0.15367159 0.024313744 0.3094348 0.74612355 0.78655845 -1.5801022 -0.2878806 -0.72774315 0.8574855 0.87895644 -0.07834419 -0.95762944 -0.28383243 0.2753527 0.37308365 -0.5031437 -0.6855364 -0.22263889 -0.975927 0.18360542 -0.4057449 1.0572245 -0.7262735 0.3534505 0.18216401 0.7867552 -0.60784775 -1.1534501 1.2225113 -1.3314708 0.2225048 -1.4993347 -2.323971 0.10345796 1.1170093 -1.8304324 -0.9602027 -0.77506346 -0.98101497 -0.6753543 -0.35350096 -0.41912016 0.8642891 -1.5832083 0.18792738 0.9651734 0.0150305005 -0.22602554 -0.28306115 -1.0518148 1.0587684 2.5989592 -1.6777194 1.0167918 -0.42288676 1.5432197 0.78260577 -0.23211288 -0.26016423 -0.53745884 0.3835274 1.600654 -0.68556625 -0.36386502 -2.5408764 -0.7942224 0.38547492 0.83514076 -0.9314287 -0.1940834 -2.3566072 -1.3570905 -0.5552951 0.6870531 1.5188782 -1.6336151 0.24654596 -1.2735124 0.46145785 0.73185325 -1.4028666 -0.61782336 -1.7314391 0.6401042 0.676792 0.6190445 0.11505249 -2.7253606 -1.1071484 0.48121402 -0.8937222 0.7067449 0.24489939 0.009056121 0.8928292 2.1691036 0.6940676 -1.7146603 1.6430691 -0.58248055 0.21773492 -0.670694 0.32075393 0.23423383 -0.1308989 -2.4772189 -1.1887636 0.6400022 1.1535354 -0.43799895 1.6153551 -0.6535735 1.4686971 0.71383446 1.5505345 0.87203616 -1.3800533 1.1229343 3.089666 1.40457 1.4697579 0.43868476 0.043031137 1.9683499 0.83572733 0.28273895 -1.2484889 1.1421903 1.8292495 1.8113414 -0.026120843 1.258897 -1.9059503 -0.88173366 -1.3781953 0.8927364 1.5937237 1.6004372 0.068603165 1.1033939 -0.11905227 0.72737 0.40349555 -0.41594693 -0.15914065 0.121939145
آسان 0.5123657 0.25296092 1.244071 -0.26659665 0.6140032 -0.0058075995 -1.3317224 -0.24003704 0.05854584 -0.48535144 2.374417 0.6542722 -0.15555616 1.8586578 0.5931133 0.8430614 0.80458724 1.7042241 1.6567295 -0.8019085 2.5650318 1.8702332 -0.55955845 1.8062116 1.6719708 -0.86377865 -0.008534431 0.13375215 -0.5257792 -1.1141726 -2.295067 0.2718608 0.97674036 0.004779223 0.6002669 0.15405074 -2.3515496 0.95960546 0.8336915 0.74499226 -0.42117628 -0.473416 0.031025488 -0.41115418 -1.6577231 0.7336418 -0.25284398 0.15565437 -0.5004528 -0.91485226 -0.8011182 1.5328076 -0.59740406 0.84443146 -1.5066873 0.017916616 -0.90316117 -1.0000048 0.96846086 -0.69057375 -0.32345614 0.07293543 -1.0238032 -0.5787348 -0.064015955 1.9226207 0.45540392 1.7187895 -1.6064695 -1.0808836 0.78814393 -1.9880038 -1.6080742 1.8472588 -1.1581787 1.8357683 1.6857008 1.0174329 -0.6703753 1.1748827 -1.0940679 1.7374583 -1.3112639 -0.72383463 -0.22814396 -2.5315788 0.54223776 -0.28397027 -0.6181204 0.021999363 0.6597918 1.5182164 1.1966472 0.40365893 1.1566344 1.3766772 0.5619389 -0.73595715 2.2843742 0.123581484 0.43616515 0.6613155 -0.92632324 1.7219777 -0.9290044 -0.9694969 -0.2402095 0.05142859 -0.58105236 -0.5498986 0.41300145 -0.90111643 1.1865193 -0.36776814 0.07791586 1.1826626 -0.81873333 -0.12301799 0.11754779 0.30298284 1.7665056 0.5915162 1.032115 0.17961556 -2.4828224 -0.027389312 0.34053427 -0.5169784 -0.40692967 -2.2084475 -1.3135685 -1.7714398 0.485866 -0.52598214 -0.33241546 -0.8611161 -1.1053392 0.2847644 0.5046337 1.4489137 -0.21930782 1.8573884 -1.0152216 -0.3013295 2.520136 -0.20112501 0.5413588 -1.493231 1.4732581 1.0145407 1.0186126 -1.4967103 -0.076228045 -1.144131 0.096120164 -1.9290018 -0.76608956 0.33120662 0.6472384 1.3264264 -0.47750857 -0.30206355 -0.5755529 0.35154384 0.64468455 1.3447917 0.14123744 0.15308844 0.40758878 -0.15988187 2.2316837 -1.1623231 -0.4599214 0.48659888 -0.9118792 0.3860119 -0.229732 -0.9060871 0.547842 1.4948074 0.32794243 0.1543916 -0.32350594 0.92568046 -0.1347756 -0.2112376 -1.5480518 0.36773914 -0.22761227 0.6537846 -0.79639983 0.1413622 0.927036 1.1807364 0.47571182 -0.5759263 0.4653093 0.6923532 -1.7576795 0.009718788 -1.1123546 -1.9695494 0.24763761 0.6825955 0.08786091 0.36219808 0.37746847 0.20114745 1.022688 0.57564616 1.9840841 1.0410421 -0.7626694 0.58247066 0.093451425 -1.1252853 0.74601203 -2.9260283 0.3510582 0.65692794 0.96076393 -0.81880134 -1.6870525 0.0754151 -1.1899176 -1.1599237 0.77692276 0.29299194 -0.6512527 1.5133319 -0.3968246 -0.725237 -0.25968847 -0.6714531 1.0103881 1.2970544 -1.1274061 -2.1781242 1.6979831 -0.7393169 -0.2605896 0.54329056 0.90058637 0.74022615 -0.5755642 0.23803493 0.017709404 1.7851983 1.1193244 1.3695493 -1.0011705 -0.38298205 2.3204007 0.14005059 0.40681008 0.41522747 0.513848 0.62754005 -0.5891011 -0.68809736 -0.76902026 -1.2183037 0.3831095 -1.2303644 -0.8479056 1.1855736 1.2974232 -0.9203229 -2.6000187 0.8021677 1.0367489 -1.3800588 -1.7718056 -0.79511005 0.012038491 -0.74553704 -0.19339854 0.90884936 -0.9491388 -0.44510844 0.45281968 1.0796041 1.9931515 0.5941261 -0.24851872 -1.2036228 2.0272295 -0.47209805 -0.63184786 -0.20862497 0.90126264 2.9579816 0.92990977 -1.9171866 -0.00034388347 -0.608041 -0.46719626 -0.7075253 0.10387685 0.017790785
آسمان -0.48664036 -1.0769693 -0.03161373 1.4645342 0.42498562 -1.0722053 -1.5429204 -2.0710301 0.13407433 0.32261318 1.1820537 0.15962647 -0.35396978 1.0118737 -0.3413996 0.4009127 -0.28793645 0.34989223 0.015305377 1.6327763 -1.0834785 0.6765359 -0.48206538 0.6211375 0.8846615 -1.2652128 0.9811186 -0.7757269 -0.595494 0.51362795 1.2056673 -0.50318646 1.1701115 1.5255092 0.41317016 0.8216932 1.8578191 1.0997506 0.56235886 1.2037423 0.45491242 1.7920748 2.4635243 -0.92666626 0.9484803 -2.2134542 -1.4572214 -1.3042222 -0.6544474 -2.1092174 1.4579289 0.5823657 -1.0609398 -1.326059 1.324899 -2.1121106 -0.22939287 -0.34318608 -0.5310678 -0.52261674 -0.5743103 -1.6955935 0.6697545 0.8172233 -0.3313028 1.4460999 -0.7770491 1.5287989 -0.5417259 -0.18209799 -0.6398941 -1.3529721 -0.1286577 1.3852966 -0.18362625 -1.1929199 1.7128983 0.15650316 1.0162189 -1.3682188 0.68646824 -0.049478803 -0.13665043 1.9121948 1.778574 1.5997568 1.7482543 -0.40496752 -0.24662009 -0.3461535 -0.42078102 -0.023879535 -0.17590965 0.8803777 0.50350064 -1.8341607 -0.34967148 1.4166086 -0.43528992 -0.86781317 3.1411736 -0.65253043 1.4638938 1.4122455 -0.89312714 -0.2587599 -1.0174259 -0.1391811 0.017547883 1.1592054 1.1057879 -0.06799287 1.0315987 -0.4237791 0.8768967 1.5235349 -1.8525805 0.5405863 -3.7474895 0.37475184 -0.8154042 0.09629402 -0.043015882 -0.6441043 0.53773737 -0.7531709 -0.5293635 1.2229929 -2.0021412 -0.99437845 -1.1695861 -2.503599 -2.6826777 -0.7037484 -1.0117577 0.0515408 -0.2755852 1.6091875 0.19798902 -0.8656485 1.7222049 -0.9134267 0.677791 -0.7884866 2.1346867 0.11724358 2.0762908 -1.9464666 0.08998743 1.611032 1.141719 -1.5263331 0.49574098 -0.3222197 -0.6087335 1.2703191 0.3948045 2.8108578 1.4129591 -0.9275464 1.0557975 -0.47612807 -0.7834974 -1.6145813 0.46478045 2.5610294 -1.1997126 -0.99499303 -1.8157105 1.4352795 2.2965405 0.71900386 -0.584396 -2.1153643 -0.42310786 0.7017257 0.6353302 1.0868628 0.2539207 1.2259003 0.0956719 -0.29889846 -0.34749198 -0.5904133 -0.9574224 0.05396663 0.08925535 0.47834563 -0.4922573 0.20132203 0.08617189 0.038210686 0.89468807 0.608593 -1.0532606 -0.9403779 1.0429903 -1.7868788 1.8299774 -0.8214005 -0.12262282 1.7747406 0.92541915 0.5581004 0.89302796 0.71203744 0.12084071 1.7869973 1.1024765 0.7758538 0.32673326 0.60642594 0.9929786 -0.08510862 -1.3162761 -1.2294796 -0.6649031 0.7049358 -0.03613497 0.24000178 -0.5098275 0.053433906 0.00034912195 1.2746279 1.5849457 0.49993876 -0.023039524 -0.4252683 0.5126768 -0.43563148 -1.0597223 0.15245497 1.5992265 -0.8543835 1.8422326 -0.18745846 -0.51174223 -0.58481526 -0.5046497 1.0573268 0.5996721 1.4653388 0.1421834 0.14665568 1.6935892 0.48136482 -0.4422931 1.0155103 -1.2482038 -1.965507 0.73598737 0.054326773 2.7376754 0.5764861 -1.531808 2.1483207 0.3063036 1.3225346 0.6745271 -0.8706678 -1.5658278 -1.4883368 0.26487982 1.6310915 -2.1294146 -0.71707267 0.09373953 -0.17055051 1.2195551 0.16592023 0.4150899 -1.6176698 -0.47941604 1.3034704 0.48862216 0.42826438 1.8041499 0.79564136 0.9236431 0.59624904 2.1453414 0.08744271 0.2501487 1.8374175 0.22725457 2.075855 -0.5981527 0.44106054 -2.385754 0.5907926 1.5113701 -0.8621995 2.8595834 2.6554909 -0.60500205 1.5145903 1.6239266 -0.5149423 1.1998867 1.8829942
آسٹریلیا 0.07743693 -1.271007 0.92975897 0.4003538 0.19846912 -0.5438187 -0.04341079 1.022601 0.56340045 0.43108073 -0.07431371 0.055938706 -0.33849543 0.3587079 -0.38502 -0.27400175 1.1231904 -0.040564444 -0.3834564 0.64291865 -0.50414777 -0.66930753 0.63230747 -0.55517924 0.74629176 -0.41857275 -1.1696626 0.70275295 -0.082062006 -0.5745689 -0.77072084 0.45584458 -1.0756902 -0.16101266 1.9392974 -0.63866925 -0.7214596 1.719532 0.24760878 -0.47566932 0.21277611 -0.042572472 0.5603439 0.104586415 -1.7782233 0.748843 1.6877098 0.38940936 0.096293546 -0.3042118 -0.14661188 0.68191403 -0.24571306 0.56932235 -0.8524677 -0.1415159 0.6714457 0.03480538 -0.33245823 -1.2755167 -1.4714185 -0.9039769 0.058811672 0.20701756 -0.7490075 -0.011281131 -0.8059873 0.20404057 -0.06086868 -0.22648083 -0.43888918 -1.0850891 -0.49319285 -1.1080871 0.30750728 0.5423147 0.50096977 0.52235436 -0.30574843 -0.04364953 0.9599755 0.7357198 -0.62576365 -1.0401855 -0.11333057 -0.18364382 0.5637653 0.53557 0.54437965 -0.21319745 -0.04853178 0.8283431 -0.6712001 0.2180239 0.5599099 0.50902826 0.11191027 0.5294508 0.36428368 -0.40721202 0.49679917 -0.68762624 1.6692815 -0.63745606 -0.28635606 2.0296807 -0.79481506 1.2651235 -0.56782794 -1.1285356 -0.17637259 0.51583177 -0.7971512 0.029317688 -0.78854764 -0.9741998 0.15015025 1.3763343 1.0513294 0.6151947 -0.44869208 0.57596415 -0.3522814 -0.58878404 0.84476995 0.631879 -0.29973164 -0.1333951 -0.560357 -1.0065601 -0.06981857 -0.9515057 0.56889737 -0.2648864 1.7246505 -0.20977609 0.124402076 0.2131045 1.080006 -0.35170466 -0.59656876 -1.141423 -0.8532394 -0.38607875 0.21240123 -0.7462973 -0.34367284 1.2949541 0.16239837 0.24189366 0.33714515 -0.5323944 0.26904872 -0.37421668 0.86590385 0.03864399 -1.0053087 0.60875255 0.2516511 -0.39956787 -0.96674657 0.49961066 0.116288245 -0.16771197 0.6579249 -1.0706092 -0.5492527 0.04842538 0.74838865 1.1105834 0.34648928 1.4858605 0.06902749 0.27642605 -0.6560143 -0.8377686 0.19553685 -0.9945589 0.84028506 1.5348543 -0.13660531 -1.4656453 -1.3381586 0.33068508 0.60439295 0.17124365 -0.8888384 -1.0164258 -1.3534378 -1.1978868 0.54280454 0.39694744 -0.20657916 -0.69673616 0.37539646 -0.6780451 -1.007475 -1.3274908 -0.57555544 -1.8382572 -0.26789445 1.2878535 2.1111355 1.1546 -0.66113245 0.76295114 -0.71968687 0.5327889 -0.625323 0.7438679 1.2715333 0.40594947 -0.0022734343 0.026753282 -0.6319099 -0.8574905 1.0245179 -1.7038726 -0.0111712525 0.28535837 0.67964613 0.9294615 -0.42821404 0.91274035 -0.17355417 1.4956352 -0.676816 -1.5756915 1.5124708 -0.012448332 -0.29182392 0.6552324 1.6866823 -0.51862574 -1.7356212 -0.33895794 -0.5530114 1.0891736 1.1258026 -0.12373614 1.0277297 0.4650716 -0.09698743 0.73254615 -0.049397472 0.62370765 0.51027435 1.535396 0.8599681 -0.83363473 -0.70252544 -0.5445197 0.9319092 -0.50067306 0.89601904 2.029943 0.7529519 -0.044783905 0.670818 -0.26353917 1.149883 -0.8006138 -0.1405927 0.4399072 0.64377266 0.67388165 -0.58582675 0.68633693 0.0972542 -0.8211733 -0.8383348 -0.3153341 0.8007047 0.95889544 -0.39165565 0.7659069 -1.2814982 -0.16436349 -0.15513748 -0.84591854 0.82338893 -1.1937268 0.11742582 -1.0068787 -0.38041005 1.2179474 0.57497704 -1.068949 0.803952 0.7537988 1.2288846 1.0465786 0.87578416 0.5901471 0.039456822 0.40249053 0.3663351 -0.20481075 0.20349978 0.17257673
آفس -0.2742791 0.4341179 -2.1754231 0.6134734 0.14490223 -0.07176592 1.0769255 -0.2691211 -2.064307 0.03543083 -1.0142976 -0.0054045655 -1.5811137 -1.0849701 0.6511325 -0.32325003 -0.8422648 0.9923284 -0.9675887 0.4573241 -0.63643515 -1.287924 -0.7668335 -1.8790371 -0.48800957 -0.36325338 -0.9326077 -1.6613328 -0.46695396 -0.69567037 0.5019841 0.28471428 -0.6598437 -1.0416447 0.53731346 0.96012735 -1.3119811 0.14804731 -1.5540917 0.9894535 0.40539852 0.6444902 -0.06317475 0.4961663 -0.003530688 1.1345749 0.9553398 1.3235642 0.116389684 0.19380097 -0.30289763 -0.16386142 0.63449407 0.98477507 0.83616817 0.71545553 -1.4764309 -1.4491714 0.19813831 0.32020107 -2.78034 -1.0810368 -1.5380789 -0.4932139 0.058654282 -0.66457754 2.5206158 0.39681548 -1.1812305 -0.11472685 0.6848438 0.61209726 -0.44774818 -0.93718094 -0.42447713 2.0886643 0.38324156 -0.6389392 0.8746728 -0.8618218 -0.63214606 -1.2937406 2.0902526 1.0251201 -0.36621633 -0.4656006 2.3224971 -1.1774758 -0.49512026 1.4446844 -1.4888191 -1.13073 -0.5471149 -0.8069551 0.3421814 -0.24615037 -0.1878449 0.28375453 -1.4410181 0.6005526 -0.52457154 -0.2753691 -0.8324765 -0.20123106 -0.7459191 0.36807606 1.342087 -0.5363867 1.064264 -0.9071152 -1.229467 -0.6534729 -0.0008257565 -0.6053145 -2.0997803 0.40777844 0.9080495 1.9856576 1.1461446 0.81939363 -0.0582962 1.4186528 -0.09731995 -0.17382465 -0.47139102 0.0192005 -0.12575084 1.7489805 -0.69460344 0.4456481 0.40337038 1.6852493 -0.339285 0.48575845 0.79192585 0.2889251 -0.1373142 0.96942884 -1.3958284 -0.33098263 -1.5532646 -1.1057922 1.056757 -0.80901426 0.63194036 0.68595034 0.7934003 -0.17984436 -0.19257185 -0.8196589 0.48132074 -1.5354235 0.71853393 0.8547195 -2.382415 1.9030706 0.3220234 -1.1917903 0.29595926 -1.9483604 0.91214806 1.5589287 -2.4067042 1.8870481 -0.19320287 -0.4200798 1.1781694 -0.7401941 1.0218012 -1.2666725 1.4219491 -0.12951511 -0.73007035 0.69859296 0.5225719 -0.30674937 -0.68654495 0.3752653 0.3122595 0.59762865 -0.8078223 -1.2198131 1.7447253 1.2272773 -0.51997375 0.86564493 -1.0652701 -2.1965523 -0.78870463 -0.88463986 0.05728525 1.091638 0.23846109 -2.4758248 -1.1343937 -0.60291517 -0.16467752 -0.07164108 -0.49260712 -1.5609246 -0.5804477 -0.5837535 0.2872026 -0.27050292 0.19481187 -0.22986065 0.7600036 -0.4314696 0.0010976025 -0.8105016 0.0037800914 -0.50364524 -1.3579566 1.7872537 0.08309328 -1.8389703 1.0283291 0.51520956 0.56600815 -0.5478668 -2.044643 1.0225248 0.7609899 0.6082199 0.34622213 0.46933672 1.8320341 -0.40103456 0.043521192 0.08701102 -0.6014104 0.932198 -0.65648663 1.1344386 -1.0555612 -1.05349 -0.45958397 -1.3106245 0.39476788 -0.40976822 -0.024012113 -0.12323402 0.48119602 0.39079964 0.779561 -0.98388803 -0.6096363 0.76772285 -1.0049285 1.3436606 -0.89974105 1.2114869 -1.3262264 -0.87349916 -0.50356936 1.8285291 0.8699518 1.0859259 -0.64918566 0.9367425 -0.9065736 -2.27298 0.9450667 -0.2073697 -0.07228794 -1.7236052 1.1955926 -0.19536261 0.8930216 0.6828348 0.7779372 0.73866624 -1.2643178 -0.75812775 -1.4352242 0.48187456 -0.6618377 0.73551005 -1.791512 -0.14508091 0.44217286 -0.8396923 -1.1671381 -1.7235441 0.16979603 2.9476733 0.19271383 -1.1809126 -0.4958013 -0.47550893 -0.037194706 -2.0338688 0.73962533 1.5672696 -0.12698635 0.4468292 0.42960322 -0.6105044 -1.389616 0.7079775
آلات 0.6179821 0.11649055 -1.1677452 -0.013375886 -1.7205777 0.7336373 1.9374536 -1.3683232 0.45263335 1.2445345 1.6998911 1.7700884 0.4876976 1.8353462 -0.30305246 -1.3925035 0.48683804 1.6429913 -1.5055025 -1.0803913 -0.34328905 0.3487596 -0.64036167 -1.2072693 -0.29104543 -1.3280166 0.55256224 -0.46450648 -2.3024938 -2.2376328 -1.7595278 -1.9090859 -0.92923605 2.415948 0.33639476 -0.62148905 -0.69915175 0.8637604 -0.28288862 0.57144874 -1.3508903 0.55785716 -2.0760508 1.2404608 -0.3428151 -1.3531889 -0.34107414 1.4016707 -0.8916013 1.2991973 -0.62205297 -0.88821626 2.212966 0.117651835 -1.3721756 -0.46168768 1.447597 -0.24195725 1.7392443 0.036985323 1.2489276 0.8519371 -0.87541807 -1.94348 0.42457032 -0.6936987 1.8086624 0.9149771 -0.25128624 -0.9096481 0.22467022 -1.4381903 -0.3134173 -0.0044567618 -0.49587455 -1.4681988 0.8243006 0.6528033 -0.4926935 -2.100574 -0.9245714 0.033374093 0.0064395843 -1.8430303 0.2359067 -0.37152672 0.47137314 -0.018811649 1.1958883 0.7912778 -1.0239336 -0.2431947 2.0278158 -0.7686047 1.0162041 1.8070283 -0.45578963 -1.7390581 1.3762729 -1.2874467 0.13654968 -0.12170785 -0.9130828 -1.2644773 1.2849698 0.5040076 2.961819 1.2291656 0.68642485 -1.0317364 0.84341156 1.017035 -0.17340459 -0.4644016 -1.3883647 -1.0098001 -0.7278721 0.490726 0.00260813 -1.4022834 0.28588325 -0.80048364 -2.2446241 -1.0181649 0.670984 -1.8105143 1.6550744 -0.59834206 -0.48560736 -2.0198305 1.188704 -2.1904607 -1.2536453 -0.090803176 1.3411674 -0.5169316 0.8193782 0.3036561 1.2462803 0.9798072 2.3623924 1.5899352 0.40974605 -1.066264 0.70329326 -0.11690071 -0.22973634 -0.56685096 -1.3034375 -0.14673357 1.436309 -0.38551843 -0.4529066 1.6213458 -1.4307891 0.8348579 -0.5437038 0.35106185 -0.19680825 -0.032948673 1.0134445 0.6532444 0.81010383 -0.27263257 -0.5871297 2.183643 0.9068544 -0.7934886 1.122944 2.1078365 -0.12715764 -0.16046451 -0.068102226 -1.5709878 -1.2446319 0.31444412 -1.2556249 1.2542273 0.022729762 1.4913617 -0.5155125 0.317131 0.15327848 -1.4136057 -1.694911 -1.2015451 1.3386301 0.6473156 1.4728204 -0.37359563 -1.4757614 -0.5134453 -0.8237241 -0.14844099 1.2382977 -0.6234669 -0.42145956 1.1911105 0.17755452 -0.75533766 -0.17388278 1.867097 -0.21840349 -1.0544925 -0.60330576 -0.6493329 1.0275623 2.9274485 -1.17322 0.16677342 -1.4289804 2.4773827 -1.9176263 -0.4482016 -0.31840593 0.6813247 1.2359322 0.8066727 0.42414773 -1.4969304 1.0107818 -0.095171586 -0.21708088 -0.6295767 0.5714982 0.8491989 -0.026418302 0.61406416 1.6621765 0.108330116 -0.7284271 1.3016019 2.5614946 -0.8521865 -0.25539124 0.71129775 1.3347794 -2.6224852 0.7761815 -1.3496174 -0.7793581 0.20390582 0.6802448 -1.1527685 -0.54344803 2.272126 -0.11292315 -0.29950854 1.0720302 -1.9132888 0.27221295 0.0796037 0.07417493 0.937959 -1.5373952 -1.1507423 0.81228316 -0.18565966 -0.92138517 -0.52415997 1.8238956 0.6315296 -0.14409453 1.3442291 -1.2502174 -0.2423707 0.3354605 0.2172651 0.55138445 0.1240737 -1.8122674 -0.76071566 2.4738863 -0.61939764 0.11346195 -0.91867995 0.171028 -0.20968059 0.08958171 -0.96307236 0.23286128 -1.1035821 0.768224 -1.3844111 -0.15481752 -1.6912873 0.8385302 0.93567014 -2.539574 -0.54490757 1.48168 0.40883264 0.0033011588 -0.42646033 1.362001 0.8231703 -0.057228245 0.7824701 0.4561902 -0.272264
آلو -0.99635077 -1.6102995 1.4107755 0.14540915 -0.9892524 -2.5155706 -0.24927431 -0.05261361 -0.3101685 1.0082926 0.7235253 -0.69427806 -0.6713115 1.1668655 0.28613007 2.206535 0.7555605 -0.4850494 -0.926366 -1.1460906 0.10767954 -0.45162687 0.053543523 0.21676733 0.4907716 -1.0713778 -0.50143844 -1.3484591 0.19263415 0.14335352 -0.98343176 0.0947123 -2.689759 0.5863912 2.026131 -0.48000398 -2.3596094 0.60774136 -1.5066104 0.21160103 0.10283136 0.71116817 0.059172463 -0.84142166 -0.92136204 0.19301274 1.0579758 -0.022396471 -1.1558119 -0.38697043 0.08989022 0.730934 -0.2761526 -2.305061 0.015183019 0.032609 -0.028660737 -0.21470644 0.60447574 0.046452943 1.6195892 -0.16115202 -0.4683096 0.34596673 0.23280333 -1.993345 0.3211817 0.93542254 0.033577 0.03985653 0.25411093 -0.6609861 1.2740088 0.109357625 0.76203036 0.46859598 1.3173943 -1.4043281 0.7050044 -0.31202653 -0.27134603 0.56327355 0.043162502 -0.65325725 0.39930403 0.06800719 0.62784564 -0.4330506 -0.23113379 0.6193565 -0.24315682 -0.13015871 1.1028862 -0.22201993 0.14993337 0.6132844 -0.095844634 -1.3018984 -0.4070561 -0.07829875 -0.9622554 -0.20428306 -1.6133149 -0.263138 -0.79808223 -0.5910823 -0.8122253 0.6637445 -1.5258273 1.4002372 0.640383 1.1816763 -0.31756404 0.6017128 -0.28979737 -0.713065 0.16299884 -1.3155735 -0.25695932 -0.12770508 0.57324886 -0.6948664 0.2943508 -0.20825247 0.46199962 0.32010388 0.49731454 2.6684618 -0.8388697 -0.2751927 0.33136135 -2.5716321 -0.39655045 -2.9754784 0.0553268 0.43091732 -0.112807624 -0.29956797 1.7685359 0.9098723 0.18641832 -2.1474757 -0.21360268 0.59863275 1.8456678 -1.7087541 -1.6128542 0.12461381 -0.91903025 1.3310852 -0.41227242 -1.1991922 -0.1713902 0.6378826 0.10847948 1.0897431 -0.68007714 0.58942384 0.098626025 -0.26259023 -0.32828966 -0.04761206 -1.4847716 0.27849594 -1.7919081 -0.0072278767 -1.5744712 0.45017526 0.3565563 -0.31104344 0.82462746 0.24659151 -0.36356273 0.69921815 0.20887648 -0.7311034 -1.1385535 -0.34079236 0.49926385 0.59054345 0.051998027 -0.22022614 -1.2285494 -0.40852803 -0.23988436 -0.49938342 -0.432387 0.73616284 1.4269484 -0.054442145 -0.5693107 0.6450077 -0.25619084 1.7508138 -0.37981218 1.0277369 -0.7576864 0.35527784 -0.77105385 1.0765463 1.0399896 -0.77110535 -0.705898 -0.24907888 -0.6785389 0.15113929 -0.28857136 0.051979017 -0.89388704 1.4920259 0.44445083 -0.2897347 0.47074997 -0.8119657 0.9584089 1.5302513 0.32403708 1.0051123 -0.91249317 -0.22567524 -1.0564128 -0.02943045 -0.86152023 -0.28007337 0.7197188 -0.7861844 0.69392586 -0.80156165 0.24327895 0.21207322 -2.2104187 0.42375976 1.301362 -0.37710673 1.4742191 0.8772348 -0.53182024 -0.9669846 -1.0303903 1.0171316 -1.1485217 -0.49078837 0.21898401 -0.56457853 -1.9395869 0.6228407 -0.29628405 -0.15510345 0.31189397 -0.034595635 0.37785128 0.23024175 0.035293255 0.4535665 -0.41187146 -0.33859605 1.1483213 -1.6935172 1.0251338 -0.23302972 -0.17887363 0.8810179 0.9320828 0.013140079 -0.09671623 0.77387995 -0.58286726 -0.8777108 -0.8386151 0.19851625 0.49807423 -0.47385547 0.09767087 0.8449033 -0.71830136 -0.8534398 -1.2951276 -1.3278555 0.83174604 0.5124237 0.045951556 0.41144007 0.71718794 0.48545367 -0.35856718 0.058311887 1.5197463 0.628424 -0.91050506 1.7494358 1.3885605 -0.48266053 0.015187248 0.22469573 -0.39185476 0.36983258 0.21508011 0.15443361 1.2419122 -0.59449846
آم 2.0123422 -0.78783655 0.6554132 -0.5368133 0.09876659 -0.2381804 1.4606559 0.29420882 -1.4157046 1.3888139 0.6544487 0.21785142 -1.1377391 -0.15413284 0.5948581 0.0012808171 -0.16468987 0.32343015 0.69815195 -0.85836095 -0.733784 -0.6389838 0.08284819 1.2539266 -0.5829047 -0.13025774 1.2209504 -0.7622193 0.25907847 0.32110637 -0.79787093 -1.3701429 -1.5228394 1.2244318 -0.5375033 -0.36160043 -0.23082027 1.5847942 0.06155283 -0.34895843 -0.34623128 0.5528737 0.15305299 1.4179153 0.2823928 -1.7589191 1.5952468 0.5424003 0.023665832 0.6162997 -0.20704843 0.4054685 -0.33886045 0.18370807 -0.7480687 -0.14937611 0.65641266 -0.20009118 0.20420696 0.021065818 -0.43053997 0.4199514 0.32675114 0.43467546 -0.63177156 -0.69113857 -0.29601794 1.0823792 0.3715157 0.7042657 1.4373817 -0.64373696 -0.122488774 0.65501976 1.0010046 -1.057373 -0.6439777 -0.510113 -0.41441697 -0.0032747565 0.6322985 0.29961178 -1.3335817 -0.24491553 0.46766844 0.34433576 -0.3648707 0.15006135 0.084442474 1.0976905 -0.11871514 -0.85496813 0.86316663 1.1586043 -0.04339799 1.0035712 0.29310492 -0.0077070487 0.6060259 -0.108617716 0.2765307 -0.5002107 0.16097046 -0.048023835 -1.4496825 -0.29725787 0.1962778 0.0892406 0.5616306 0.82241356 -0.16655648 0.77538586 -0.9181325 -1.5321556 -1.6121424 0.67295027 -0.21736015 -1.1914299 0.22155778 0.14740197 -0.5064858 0.5302701 -0.7765949 -0.660546 0.847793 0.019810084 0.45644236 1.5853095 0.634083 0.5714403 -0.32709175 -0.817064 -0.7765778 -1.5816423 0.15832947 0.5158188 0.66258967 0.17894228 0.94604266 -0.7258301 -0.93618137 -0.093387544 -0.6042348 1.2552882 -0.64170754 -1.5214158 -1.3220176 0.91668797 -0.8750221 0.22995646 0.1566295 0.22906056 -1.274239 -0.9139325 -0.94695765 1.0496258 -0.13113563 0.4235078 0.5168221 0.30336106 -0.15267056 -0.34449 0.37599388 -0.4277769 -0.20058592 -0.1380948 0.25431097 -1.1815845 0.32681066 -0.7201951 -0.21020487 1.5967698 0.3004173 0.027422281 0.8966563 0.4870586 -0.5829153 -0.87324065 -0.8404171 0.1255084 -0.4313253 0.7673735 -0.9261341 -0.3242205 -0.7543313 -0.7648314 -0.7251808 0.008197823 1.0344635 0.83393645 -0.13247535 1.2268231 0.24316706 0.4456105 -0.9457099 0.59695673 1.2637566 0.18976067 0.43670243 0.2664504 -0.32775545 0.18504496 -1.5580438 -0.7357182 -0.8511682 -0.5918115 0.29217902 0.20201021 -1.5036035 0.060673032 0.8145941 0.27721003 0.12824972 -0.026671268 -0.13466224 -0.10322377 0.76874655 0.42432606 -0.46196538 -0.379448 -0.57186675 0.79045886 -0.83162296 -0.41949117 -1.173096 0.18181667 0.38618442 0.008401856 0.95533496 0.46679568 -0.8125121 -0.11104008 -0.77343094 -0.6357488 -0.122358605 1.090519 -0.112420715 -0.95540184 0.02730899 -0.16539931 -0.09448253 0.79340047 -0.058576312 -0.7828544 -0.8280581 0.27310017 0.9177991 0.8609694 -0.16114694 -0.80104864 -0.8387648 1.163616 -1.4668982 0.7698716 0.2254012 0.08203683 1.2123466 -0.33116278 1.9874604 0.94515735 0.6991371 -0.82628083 0.38241974 -0.5880603 0.40403935 0.9558317 -0.86185646 -0.34754235 -0.48390916 -0.42442122 0.7986457 0.8338474 0.6309635 -0.25372145 1.2544 -0.2454754 -0.3716673 -0.075786725 -0.43855202 -0.86732835 1.3933071 -0.9613105 -0.54368776 0.31121713 0.43239942 -0.10959416 0.5706217 -0.30465844 -0.15600115 -0.28836435 0.5318358 0.31090012 0.3825584 0.39021447 -0.11463511 -0.5394688 0.36155728 -0.41886437 0.43333265 -0.09545321
آمدورفت -1.726527 -1.4989651 2.6122055 0.011702312 -0.15380733 -0.3815263 1.0272229 0.07697965 -0.81826234 0.6559167 2.7453463 0.8992756 -0.45840132 0.11341382 -0.5965377 0.21676679 -1.4552321 0.33753392 0.029459009 -1.2947817 -0.37756038 -0.19101082 0.5746201 -0.29746452 -1.5148176 -0.67531615 1.9252787 0.06365758 1.0797194 -1.6592575 -2.045225 -0.8840837 -0.09083991 -1.1323361 1.1432996 -0.6604043 0.70817226 0.66467226 -0.2873287 -0.0048201797 -0.7364758 -0.080678724 0.35527363 -0.9967599 1.4710714 -0.9790595 2.5998237 0.84740955 -0.72680694 0.35317487 0.5842825 2.1790144 -0.2746282 0.15239473 0.5844509 0.5527074 1.5778949 0.1506534 0.008849429 -0.08935166 0.8108913 -1.1710601 -0.13945216 0.9307888 0.23304535 -2.7077246 -1.0729818 0.7066993 1.5132606 -0.12146784 2.9761634 -0.65514624 1.395108 0.07539122 0.06258619 1.1173487 -0.5871598 -0.09048514 -0.039390683 0.6387927 -1.9545857 0.016507084 -0.37728778 1.002927 -0.50988734 -0.7451547 -1.279775 -0.9403048 1.1492068 -1.9164743 -0.46679622 1.2655667 0.38846284 0.6481347 -0.30149436 1.3333452 1.4444106 -1.8374982 1.2953333 1.1241221 -1.9295797 -0.17868407 0.5929487 -1.1129043 0.7143203 0.022175485 -0.71213466 -1.6232809 -0.14687909 0.83723456 -0.104014955 1.837165 -0.8533683 0.13003036 -0.058584865 1.0668657 1.9652303 -0.049387712 1.3314077 -1.9367512 1.363885 0.6524312 -0.69710237 0.32997644 0.48488685 -0.52158093 -0.2849968 -2.3955305 -0.5757476 -1.173074 0.67371887 0.060514923 -1.69193 0.45869103 -0.9710467 0.2173602 -0.591008 0.077508874 -0.32116145 0.29094943 1.3017322 -1.1323898 1.1328003 1.155365 -0.8504257 -0.30528775 -0.119907275 0.20339546 -0.22209814 0.02558933 0.44204926 -0.3381444 -1.1493003 -1.439809 -0.0024221167 -1.8987008 0.08569868 0.91049314 1.3845159 -0.5894788 0.830115 -0.2765748 0.115992576 0.32962942 -0.05304447 -1.0054823 -1.5991322 -1.6543531 0.4634564 0.4494988 1.2361871 0.5648508 0.78650993 -0.7939549 0.27375138 0.9693633 1.1572772 0.33054855 1.3571461 -0.7437917 0.054569703 -1.7389171 -0.8031729 -0.7416585 0.44208348 0.041905288 -0.32139188 0.43192118 0.14766805 0.98206604 -0.2072413 0.42451212 -2.9553945 -1.0614321 1.4591317 1.7354786 0.39035466 -1.9036986 1.8886334 -1.5811394 -1.5557357 0.74427825 -0.15827617 -0.8936755 1.0025343 -0.9899666 -0.62616235 0.238014 -0.0833585 0.027011411 0.8780472 0.2974141 0.15660237 -1.0073763 0.4548949 1.7392356 0.50702995 -0.9262852 -0.17170313 1.4294329 0.11115887 -1.4990169 -1.9757818 0.2977116 -1.5075822 0.051882017 0.544385 -0.7782835 -0.30750856 0.56728333 -1.231791 -0.80785424 1.6595918 0.7039071 0.0069088456 -0.57659656 1.392891 0.3675708 -0.9606693 1.3647976 -0.13804336 0.13717732 -0.7234604 -0.33825758 -0.022857927 0.096471325 1.1375332 1.6580467 2.3543956 0.63443136 0.21790038 0.27276942 0.042115733 -0.90602 -0.77313894 -1.4758312 2.6875918 0.71675 -0.56832653 -0.3393007 0.4535811 -0.6642925 -1.3520496 -1.9789985 0.63111925 -0.2951069 -0.63362277 0.5363356 0.4371982 1.1221027 1.1058027 -0.24153706 -0.43063012 -0.9366348 -0.484904 -2.3206458 0.35442346 -0.45067474 0.45375642 0.8200016 -0.89688545 -0.55966634 0.76197624 -1.7726796 -0.8131155 1.0345837 -0.36888602 -0.37049687 -0.3452058 -1.1974826 1.8900756 -0.8696095 -1.4770842 1.1195878 1.6116945 1.8056278 0.77519345 1.3990009 -1.3804448 -1.3079358
آندھی -0.7342521 -2.4940605 -0.091912344 1.623734 -0.362993 0.37678725 0.21595076 1.1741686 -1.0809143 0.7198368 1.4431316 0.6756291 0.110331886 -0.49012512 0.05414353 -0.97452927 0.16232522 -0.73219436 -0.2561676 -0.15426716 0.0099847 -0.6088602 -0.05098651 0.5094231 0.95915806 -0.54602325 0.15454555 0.8657069 1.0966657 0.335264 0.30657881 -0.2255129 -0.37023726 0.18294744 0.7489763 0.4467613 0.53170455 0.98842704 -0.51787525 0.94668347 0.4428847 0.08515561 0.32418823 1.0627971 -0.11937332 0.21019958 0.5230114 0.7856204 -0.4056602 1.1179327 1.2689741 0.70164585 -0.51813006 -0.614642 -0.3196259 -0.46900606 0.30943638 1.4208788 0.4525443 0.2064303 -0.7594118 0.71388257 -0.024105817 -0.49606177 0.3558935 -0.7456465 -0.6567361 0.03247658 1.0182 -0.21912898 -1.3726567 -1.2594247 0.42986548 0.3637624 -0.26925707 -0.48505586 1.6795601 -0.25348592 -0.7767614 0.9671615 0.74347657 0.08398413 -0.93926 0.6627253 -0.9919457 0.31659654 0.35106158 -0.09964098 0.37471995 -0.67568344 1.7728741 0.8110145 0.07393806 -0.17841856 -0.5990075 0.47153315 -0.8080896 -0.025492836 -0.92958486 -0.34319907 -0.87156713 -0.40108883 0.5092819 -0.3369162 -0.28924325 0.56880283 0.479796 0.3710656 0.07807656 1.8713369 -0.8529219 0.37719208 0.53657126 -0.7083575 -1.3910998 -0.33040372 0.6032698 1.2140081 -0.096708536 -0.1332741 -0.4300565 -0.3987606 -1.0700692 0.50817966 1.0956109 0.92109656 1.5956638 1.3217263 -1.1008216 -0.07941252 -0.6069451 -0.3188413 -0.74994797 0.41307583 1.8697181 -0.16771442 0.11802139 0.6478489 0.21440654 -0.36066937 0.30602172 -0.5839187 -0.5626762 0.8089701 0.44442236 -0.41315073 -0.25855848 0.82641464 0.15736309 -0.5491297 0.018420588 -0.8734344 0.42576912 -0.6994701 0.8877702 0.23500523 -0.9887868 0.8493934 -0.045692224 -0.16216163 -0.372144 0.1817734 -0.21471009 -0.46204963 0.60267746 -1.0720099 -0.9669753 0.8245379 0.34975857 0.12252273 1.1893915 0.84206873 0.55989736 -0.761346 -0.47172168 -1.0473722 0.061060827 -0.18323728 -0.5910637 0.5813821 -1.5122888 -1.0155234 -0.8160664 -2.0469937 -0.14122742 0.9937298 0.023533788 0.092888996 0.14035732 0.23868911 0.9267251 0.3898952 -1.7202134 1.1255428 0.5894271 -0.5532092 -0.22593139 -0.6259013 1.29313 0.5614447 1.0845356 0.12203927 0.9466675 -0.82763535 1.0297977 0.3644805 0.24606316 -0.2939826 -0.012196357 -0.24918829 0.4798973 0.42163932 0.33822373 0.18003567 0.026715353 0.022780374 0.3225044 -0.8434337 -0.97656024 -0.9656971 0.55390084 0.554422 -0.8765351 0.81794757 -0.29559064 -0.10082372 0.18439767 -1.1455042 0.50546837 0.2898468 -0.47510263 0.5343167 0.6398102 0.30108875 0.22878997 -1.0178099 0.4348671 -0.049801607 1.0143234 0.5535686 0.8591499 0.59536844 -0.42249388 0.01657387 -0.5729288 1.2711265 -0.47499445 0.3392069 -0.34368318 -0.709622 0.821529 -0.4646697 -0.23847082 0.21634223 0.10718523 0.64595324 -0.9162262 -0.3901411 -0.65795225 0.042062692 0.6498728 -0.57463175 -0.1988571 0.5488144 -0.24167506 0.00038222419 -1.1018728 0.3898145 0.101321444 0.999186 0.76058054 -0.43151453 0.0046018646 0.60836756 1.0933762 -0.46610063 0.8931904 -0.3637338 -0.05689355 -0.0843772 0.90604514 -0.7832772 -0.04509305 0.8826067 1.8018754 1.5935534 -0.050882358 -0.27264884 -0.38212284 0.045222536 1.1878003 0.22203727 0.13448301 -0.60846597 0.8085684 0.5695015 0.057547238 -0.37732506 0.15378658 -0.014598219
آٹا -0.05916182 0.91081876 -0.53662187 -0.408649 0.035874356 -0.49666774 0.04848444 0.16807708 -0.38455915 0.5396891 0.23525408 0.15826641 -0.005297484 0.54464054 -0.29696587 0.30003175 1.0043726 -0.22257277 -0.011029294 -0.54388607 0.16178136 0.13103516 1.1417954 0.15350965 -0.15121512 -1.0359356 0.34835985 -0.5136147 0.36227238 0.14796457 -0.9953119 0.046743155 -0.48392934 1.190664 -0.215185 0.17379318 -1.127278 0.4079612 -0.06326063 0.47538996 0.16046868 -0.2378832 0.48686063 -0.75631624 -0.11424078 -0.35211477 0.71339154 -0.5483631 -1.1841431 0.71570903 -1.1438031 0.022940585 0.36732146 -0.16065973 -0.40913302 -0.360036 -0.56468606 0.13954912 0.2293034 -0.5978172 -0.384846 0.68048537 0.78201693 -0.5306404 1.5187192 -0.59825236 0.2957321 1.3584371 0.31437203 -0.28991127 -0.27235758 0.42324767 0.49137795 -0.8982589 -0.12660514 -0.44034818 0.23934598 0.122981295 0.47645295 -1.5509261 -0.43786123 -0.5653775 -0.87592 0.581331 -0.29345453 -0.58480996 1.0665241 -0.35896397 0.71749043 0.18931785 -1.0256621 0.30767384 0.33165953 -0.15092614 -0.07557456 0.1286519 1.1238954 -1.1620508 -0.43239394 -0.06781355 1.2665507 -0.59791803 -0.10676723 -0.46751902 -0.045361754 -0.45445338 -0.78185487 -0.22525422 -0.43816984 0.001323407 0.4114458 -0.21001363 0.019119317 -0.8493242 -0.039991923 -0.9812993 0.48516056 -0.60919356 -0.36668226 -0.049725525 0.650079 0.54320925 -1.0615594 0.7729645 0.4434234 0.22729503 0.17236964 -0.6705098 -0.3848275 0.018159974 -0.7453577 -0.7131366 -0.38273922 -0.642429 -0.28627414 -0.26451626 -0.056542464 0.66310674 1.2088468 0.05216424 0.748098 -0.69079345 0.045572486 -0.85634387 0.43019593 0.15349957 0.42415527 -0.008676085 0.3531667 0.27236444 0.2035503 -0.5691051 -0.16012757 -0.09629186 0.38544533 0.92183244 -0.97147894 0.41508055 -0.015906366 -0.015084184 0.4142214 -0.5129639 0.1661371 -0.28403813 0.50008076 1.0176861 -0.37705207 -0.60353047 0.15373525 0.15465696 0.5287106 0.15876861 -0.19424583 0.17639208 -1.4498886 -0.1311666 -0.78667694 -0.17215239 0.10797819 0.2866272 0.31911072 -0.14775595 0.6751422 1.0243256 0.24239051 0.0053266766 -0.60615814 0.15363753 0.25469986 0.014073969 -0.07518826 -0.6436714 -0.4350682 1.1783078 0.6521048 0.35183254 -0.21787566 0.3357676 0.24969716 -0.036628053 -0.28582874 -0.36702865 -0.44268152 -0.37496835 -0.108544685 0.8109126 0.74946797 0.38795805 -0.54085714 0.11914548 0.8316319 -0.4285052 0.1379428 0.13047284 -0.56816846 -0.42616954 0.38480055 0.34013885 0.30384654 0.15776107 0.17439525 -1.2846688 -0.7275865 -0.16218747 0.0746612 -0.68759644 0.27534005 1.2588824 -0.22386393 0.3700936 -1.3075398 -0.35710207 1.1291312 0.826303 -0.44165528 0.5230038 0.26668945 -0.006686144 -0.8094054 0.61034566 -0.58688945 -0.07494371 0.2976238 -0.14638554 -0.25875968 0.3576461 0.44648975 0.40729272 -0.24794754 -0.21415143 1.3002768 0.72302115 -0.025198678 0.3225426 -0.6448572 0.07052649 0.42702457 0.2717054 0.5120054 -0.045917436 -0.048847273 -0.5958204 0.41774145 0.0023166176 0.0450646 0.41688785 0.08169072 -0.606996 -0.46826422 -0.19063582 -0.29637918 -0.7094593 -0.54217166 0.14493006 1.3681377 -0.4072356 0.8724324 -0.6153699 0.11289813 0.9587869 -0.32676077 -0.75220907 -0.7208234 0.13736816 -0.16005766 -0.9469052 0.63402176 0.40682712 -0.24558982 0.39960158 1.3395932 1.4849234 0.7569354 0.44784406 -0.006164845 -0.051446877 -0.21983224 0.7794927 -0.2589862 -0.967487
آٹھ 0.16608876 -0.6467089 2.3250592 0.36854833 -0.3215476 1.0973594 0.30933276 0.39543885 0.112721115 -0.9832586 0.19062316 -0.4273856 0.6055198 -0.7869964 -0.0635613 0.51427376 -0.10541731 -0.061873402 -1.0167207 0.60142803 1.4268236 0.42406568 -0.84093016 -1.5084674 1.0258576 1.5814061 1.3095263 0.6262342 -1.1957102 -1.8043616 0.5030781 -0.9263139 1.3874588 1.3953114 -0.6181165 -0.7481949 0.36524707 0.43221954 -0.23398307 -0.9450599 -1.4786354 -0.16297713 0.31010774 -1.4774977 0.5197691 0.2771617 0.59112424 -1.3811127 -0.77224773 -1.7380359 -0.022995837 -1.41682 1.003282 0.2190404 0.82373726 -0.37846124 -1.2509539 -0.47249612 -1.4087421 -0.16414165 -1.318524 -0.518136 -0.29717356 -1.2567846 -0.29755569 -0.049970187 -0.5419032 1.7009742 0.54322827 0.15924567 0.9536699 -0.23684736 -0.21132924 -0.92678714 -1.4385076 -1.0893697 0.2996782 -0.18402162 0.2103162 -0.54631823 -0.30554432 1.217867 1.1566093 0.43352056 0.78120506 1.2785108 0.12189141 -0.8580236 1.0790361 -0.10999178 -0.58983195 0.051207256 0.11009416 -1.1442508 -0.28219804 0.15375338 0.42669252 0.72618395 0.4329188 1.0994295 -0.19863738 -1.1728301 -1.3395928 -0.12383182 -0.83245885 -1.5968164 -0.74939215 0.23451266 1.0991946 -1.0828081 0.31370515 -0.3089937 -0.067381024 -1.6806442 0.7489909 -0.17596114 -0.009612684 0.48511723 1.2755246 0.34475988 -0.48642898 -0.36488456 -1.1792186 1.1426855 0.8958635 1.145112 0.28413987 -0.56496465 -0.63218033 0.574886 0.4282089 -0.63288707 -0.812984 -1.5387758 -0.9015385 -0.8178392 0.2432897 0.8845802 0.18752381 -2.702924 -2.4490314 -0.15287092 -1.1037159 -0.36636463 -0.22816055 0.37028044 0.24405205 -0.5951315 -0.50792044 0.3662916 -0.66409636 0.6265001 -0.5464623 1.3881985 0.075231306 1.0954256 -0.6051282 -1.2020729 -1.9888 1.043423 -0.67419463 -1.7960424 -0.16850446 1.5433767 -0.53097916 -1.413485 0.98455775 1.4469166 0.0393092 0.26424253 0.5133438 0.835876 0.2909769 -0.5848688 0.88005155 -0.8838604 -0.9826978 -0.66859186 2.2847369 1.4453145 -0.6718494 -1.0237135 -0.82817376 -0.45035625 0.4046773 -0.16086642 -0.74746317 -1.2849382 -0.898464 1.1044227 -0.09040226 -0.41454753 -2.3408985 0.024699472 0.48385474 0.44678345 -0.32226402 0.15183312 -0.45071113 0.24844183 0.5200398 1.0929773 -0.17150764 2.281769 -1.2608593 0.17540047 -0.21096672 1.0547297 0.2947107 0.42374733 -1.6869613 -1.2043521 0.4669793 -0.37903512 -1.205234 1.3212749 -0.9787239 -1.1155025 -0.71683526 -0.43224832 0.852542 -0.6432926 -1.1739587 -2.5246317 0.78407514 0.4278626 -0.38888133 -0.23279728 -0.042928804 0.7398396 -0.8120209 0.05470474 1.2569125 0.76014185 -0.81255865 0.6732733 -0.3355824 -0.0038436137 -2.8315566 2.0475438 0.53609115 0.423049 1.2374475 0.057678852 0.4635809 0.79808825 -0.19854133 2.676767 0.5755189 0.7821908 -0.8514333 0.8670473 0.13568933 1.0238092 -0.13428235 2.1824863 0.008656466 0.67112434 -0.0070918542 -0.32009283 0.9488756 -1.4156017 0.9681573 -0.30696058 -0.2689604 0.14571963 1.6767802 1.9738017 0.5001729 0.9782096 -0.65495336 -0.6170503 1.7538118 2.288381 1.6342763 -0.81185365 -0.35922578 -1.0427201 0.99802136 1.7220283 -0.67294735 -1.5864332 -1.8918605 0.60377234 -0.8721771 -0.16276003 -0.27970588 1.7051084 -0.62908506 -0.7944247 0.20087746 2.7823167 0.28986844 0.24242164 0.0019583185 0.7478093 -0.7573627 -0.24257283 -1.4814299 -0.3231821
8 1.059638 -0.17410165 1.2922903 -0.3222041 -0.8124165 0.96669704 0.9343125 0.669531 -1.7542961 -1.1857074 1.3750999 -1.2930722 0.057127878 -1.2720371 0.32964763 -0.00858994 -1.445557 -0.65135795 -0.602018 -0.30378598 2.403377 0.29728988 -0.19602399 -1.4806702 0.22185065 1.5169996 1.027558 -0.2791382 -0.30447304 -1.4545814 1.0732045 -0.17184022 0.94007736 1.1974257 -0.8275129 -0.91284704 1.2868752 -0.2233832 -0.49521506 -1.565285 -1.7127125 -0.5880196 0.200532 -1.3163273 0.7963388 1.3475684 0.23466294 -0.9349059 -0.88284355 -1.3023778 -0.06294562 -1.1336261 0.6273251 0.8224548 1.2385128 -1.0431613 -0.0634963 0.3442819 -1.1982914 -0.15176879 -0.6149007 -0.57449 -0.81246877 -0.75546104 -0.49146563 -0.6228214 -0.4923359 0.3643906 0.6585804 0.7622018 1.1663271 0.04063729 0.4137112 0.042340048 -0.3093145 -0.023386355 0.92446476 -0.6261031 0.21641979 -0.9523852 -0.7555999 0.8088527 1.1942139 0.80981547 0.017799456 0.6459613 0.09802722 -0.8068068 -0.15282132 -0.39042696 0.29550967 -0.28755012 0.051102802 -1.5054251 -0.42301005 -0.18820344 0.6181685 0.38043326 -0.3568022 1.5161463 -0.30958742 -0.34655803 -1.0295612 -0.7031017 -0.44488814 0.0642642 -1.8434168 -0.0147628905 1.0894696 -0.50082463 0.40034062 -0.10763557 0.39792484 -1.8042034 1.1677718 -0.36015683 0.0066660666 -0.021671828 0.47853807 0.48712242 0.021123083 -0.05756242 -1.0616194 2.0070012 0.0020627524 0.24401253 0.12368875 -0.009498841 -1.4436421 0.3111958 1.4588573 -0.95554584 1.0545948 -0.6643607 -1.0107591 -1.381734 -0.7331774 0.38327616 0.52948105 -3.0291882 -2.2837179 -1.5442523 0.050991584 0.2085268 -0.32699415 -0.27144223 0.8037785 -0.24510682 -0.6074467 1.0056125 -0.8185493 0.87551796 -0.8837095 0.23246682 0.93224066 0.6526475 -0.71349716 -1.2285409 -2.5206995 1.2655671 0.4889047 -1.3986086 -0.29019436 2.274628 -0.7898831 -0.15385279 0.01800346 1.543746 0.063252814 -0.4417537 0.3389002 0.8640569 1.5321857 0.49483517 0.65877724 0.27958626 -1.1916686 -0.13053693 0.5929185 0.18546262 -1.0899086 0.45314896 -1.9151932 -0.055832677 0.53241754 -0.7278685 -1.0921178 -1.3375124 -1.8952255 1.6310287 -0.3361524 -0.29998398 -0.40031236 0.7942346 0.58257 0.87168586 0.43851313 -0.5833304 -0.15054515 -0.45880264 0.13202168 0.34510833 -0.21474253 2.28941 0.32382384 0.07351297 1.0859953 0.9456866 0.4989319 -0.19515178 -1.0335821 -0.5538625 0.64984864 -0.48535568 -0.13334124 1.5480952 -0.3542545 -0.33480352 -0.56108385 -1.4089266 0.833598 -1.1861778 -0.7305985 -0.87893474 -0.18506762 -0.13248293 -0.4244417 -0.7125808 -0.2520312 1.1362494 -0.24745402 -0.1371904 -0.8215369 1.3321271 -1.2116345 -0.005239987 -0.9295707 0.75986916 -1.7022599 1.0306038 -0.067569844 -0.18970685 1.2062213 -0.35129523 -0.9442168 1.1285316 -0.06195577 1.5099633 1.0831562 0.86508095 -1.646134 1.1429204 -0.22154377 1.5819829 -0.121004954 2.0537221 -0.4686739 -0.13732165 -0.16319656 0.01875862 0.44434804 -1.4127315 1.3295943 -0.62154377 0.5400203 -0.15834813 1.733478 0.78723735 0.4361093 1.6839042 -0.1465208 -1.0263754 2.1174974 1.5176501 3.233064 -1.2091204 -1.3445828 -0.68769795 0.3307252 -0.094401434 -0.66257304 -1.765646 -1.3876905 0.4287984 -0.33394045 -1.159658 -0.26950717 1.1448435 0.041853443 -0.7996471 0.74164647 0.9397764 0.7905809 0.006105789 0.24860135 1.1154149 -1.0146328 0.49375927 -1.2208254 0.43263656
۸ 0.14228283 -0.25251505 -0.14810872 0.20177396 0.12083654 0.012743545 -0.08425474 0.22607854 0.13882141 -0.2592411 0.32268777 0.06453381 -0.019311605 0.22200996 -0.090316296 -0.102614135 0.30835104 0.10962227 0.035248816 0.25343782 0.023299549 0.27523562 -0.14198464 -0.04178275 -0.41682008 -0.09627057 0.05070517 0.12703581 0.20333211 0.124163516 0.07943552 -0.029392986 0.019447265 0.08298045 0.088787936 -0.050264437 -0.2036024 -0.20549583 0.2862806 -0.14595321 0.0705686 -0.11027799 0.18032533 0.1881636 -0.23764461 0.2586311 0.053508315 -0.031195253 -0.28014043 -0.22362566 -0.087731875 -0.14376968 0.11959481 -0.07316808 0.16062611 0.18258525 -0.02205356 -0.14750463 -0.20479837 0.04450987 -0.03807371 -0.31139547 0.039483525 -0.08342473 0.17796296 0.10925651 0.14442202 -0.32288456 0.09773521 0.06670676 -0.117300175 -0.015002059 -0.11333637 -0.115126796 0.18573071 0.0036814802 -0.07681075 -0.08364095 0.045054697 -0.08723856 -0.03372433 0.14340898 -0.10123643 0.21868266 -0.04871515 0.23385215 -0.3627947 -0.11979434 -0.21074013 -0.19736344 0.16159552 -0.03144807 -0.18951263 -0.11812008 0.14356168 0.22209087 -0.1525566 -0.08267276 -0.039476022 0.33671975 0.02374348 -0.08488621 0.5202855 0.039715484 -0.07241844 0.35739145 -0.13290642 -0.03151465 -0.055577986 0.033002026 -0.10272724 0.2420511 0.08890752 0.06736452 -0.01880103 0.15592706 -0.43348095 0.018468497 0.017968815 0.06779803 -0.16848335 0.16757472 -0.2888841 -0.15151991 0.054264892 0.0014383623 0.100126915 0.079673044 -0.16019367 -0.07361615 0.010881601 0.07837432 -0.06769697 -0.41015026 -0.35063785 -0.06808376 -0.081111655 0.2045825 0.012694909 -0.046335645 -0.19081083 -0.08479595 -0.20297311 -0.34226876 0.09602407 -0.26632905 0.5705462 -0.26673818 -0.021492695 -0.11500841 -0.018600956 -0.18486518 -0.08295482 -0.07833428 0.38488412 0.2386075 -0.34592068 0.13364217 -0.15267833 -0.116600335 0.027510654 -0.028174115 0.09040109 0.29340032 -0.2469291 0.07155775 0.025752248 -0.020362638 -0.08407753 0.063610554 -0.23575471 -0.0002536656 0.16293558 0.051902734 0.31708416 0.0339541 0.055009678 -0.012653557 -0.1649577 0.21477832 -0.31217343 -0.15624855 -0.36188874 -0.27835852 -0.037966676 -0.3098752 0.0031119122 0.11482022 -0.24561208 0.02123385 -0.2668897 0.10541535 -0.30206734 0.23575078 0.27315992 -0.18684526 0.2515029 0.053565405 -0.2070039 -0.17314382 -0.0077252486 -0.073444046 -0.18732926 0.276085 -0.066503644 -0.23481533 -0.10970776 -0.004086603 0.23716776 -0.22056021 0.026165728 -0.17651625 0.07157079 -0.074654855 0.018081978 -0.1292558 0.029442143 -0.15104902 -0.052025873 -0.120136864 -0.23953812 0.42534044 0.28648642 -0.06148073 0.060092617 0.43276772 0.21732858 0.016397128 0.073368855 -0.017021157 -0.3909211 -0.09966731 0.059270013 -0.098664895 -0.077338316 0.16611905 -0.059001416 0.06381099 -0.029236589 0.10006172 0.21617106 -0.16117088 0.20431116 -0.19699043 -0.10056366 -0.3233603 0.023580367 0.029179702 -0.3026976 0.1127242 -0.01778088 0.076091476 0.011798877 0.20675956 -0.17338228 -0.14560418 -0.16714925 0.053433407 0.11803951 -0.030025652 -0.20014621 -0.1253583 0.05924649 -0.2573808 -0.034011174 0.12827726 0.0044464185 0.09428781 0.2040168 0.32567924 -0.18437888 -0.22342734 0.08897366 0.13097066 -0.16441345 -0.31302962 -0.3432795 -0.12594311 -0.21617523 -1.6022523e-05 -0.13941158 -0.45601568 -0.09734274 0.050325405 0.21597126 0.19205563 -0.12462897 0.005146663 -0.061863888 0.031416222 -0.060557246 -0.04428267 0.10119407 -0.04859136 -0.19215871 -0.12234196 -0.38137773 0.022229768 0.06480869 0.23410504
